{
  "InputSize": 10,
  "ParamLayers": [
    {
      "InputSize": 10,
      "OutputSize": 10,
      "LayerType": "Input",
      "Neurons": [
        {
          "Weights": [
            -0.4367825245921953,
            0.27836798698675597,
            -0.7147210297245044,
            1.0135749892705719,
            0.46748402640047093,
            0.3844451126754792,
            -0.2287695422994465,
            0.06295211509596334,
            0.10805997411748129,
            0.4961029183676901
          ],
          "Bias": -0.6637979700031681
        },
        {
          "Weights": [
            -0.01232161497350665,
            -0.7206759791807078,
            0.12645248894134728,
            -0.6910425951886537,
            -0.642221642710652,
            0.9521594135553754,
            0.11777683671314608,
            0.5278407243331124,
            0.06432760863003344,
            0.17437118648695313
          ],
          "Bias": 0.07579381640967126
        },
        {
          "Weights": [
            0.14777239309617135,
            -1.0611387472855207,
            -0.9575465476318508,
            1.0216420086284441,
            -0.04625404722385043,
            -0.09246079895994333,
            0.10338688062960318,
            -0.20889377825225944,
            0.27655875975823757,
            -0.6981830439231941
          ],
          "Bias": 0.300871803797203
        },
        {
          "Weights": [
            0.7324623516967822,
            0.4029621916119306,
            -0.7472124944133952,
            -0.113089625876743,
            -0.13266046070098367,
            -0.8735221282278699,
            0.605167959480399,
            0.5967040859588973,
            0.04639821405049134,
            -0.243454921300155
          ],
          "Bias": -0.061325313260912104
        },
        {
          "Weights": [
            -0.07547883245361711,
            0.28209412246818494,
            1.1722375081684904,
            0.23486771037855161,
            -0.06159490524578877,
            0.9491654623769226,
            0.21488445037555362,
            0.14401311509643502,
            0.784208679154035,
            -0.5482985416405017
          ],
          "Bias": -0.7385711539568531
        },
        {
          "Weights": [
            0.6783555110128897,
            -0.8581223118216296,
            0.6902959031510894,
            -0.46283623111267336,
            0.395501064938288,
            -0.1440451962317644,
            0.2440922233693943,
            -0.2086711725276804,
            0.6742296845702839,
            0.14529912524692634
          ],
          "Bias": -0.49445650341084557
        },
        {
          "Weights": [
            0.620419716972564,
            0.16064628615172513,
            -0.6838413039363533,
            -0.16903625413168,
            0.6963413138006266,
            0.06059286792883836,
            -0.017019075807716624,
            -0.12675665355934992,
            -0.8007970635026311,
            -0.6245048113234591
          ],
          "Bias": 0.34164697049201403
        },
        {
          "Weights": [
            0.3953254758133702,
            -0.10144377033637404,
            0.46508510002803305,
            -0.052336628591254514,
            0.10782813322375347,
            -0.4070984389501092,
            -1.2547987919572534,
            -0.5798578922358456,
            0.6821096616825966,
            -0.32852071666620686
          ],
          "Bias": 0.5139028197816758
        },
        {
          "Weights": [
            -0.5417443544720504,
            0.5466713854926576,
            -1.0764207173975824,
            -0.6729218602537462,
            0.011381190692451618,
            0.3352628206988298,
            0.20199596953095972,
            0.21071273010415528,
            1.0014966959121392,
            0.16487614757504435
          ],
          "Bias": -0.37780301399433697
        },
        {
          "Weights": [
            1.197766089253432,
            0.4943657182198942,
            0.014304729530636799,
            -0.6359090301143109,
            -0.40709206045816476,
            0.22104048636002674,
            -0.42007222278831663,
            -0.8056602240987903,
            0.02071689420652071,
            0.4717850673847007
          ],
          "Bias": -0.0006896215075647199
        }
      ]
    },
    {
      "InputSize": 10,
      "OutputSize": 32,
      "LayerType": "Hidden",
      "Neurons": [
        {
          "Weights": [
            -0.18217792506916677,
            0.3483738046750258,
            0.3904069560097784,
            0.13172462581083294,
            -0.16618642428255367,
            0.8204104524711502,
            0.6745952137578656,
            -0.7146218020075119,
            -1.449091984515591,
            0.6983621002969572
          ],
          "Bias": 0.050713307836491334
        },
        {
          "Weights": [
            -1.3846804970793463,
            0.852613638075324,
            0.29018770810776584,
            0.8416615706987078,
            0.48880754359540657,
            0.2649854711547219,
            0.16088647275849233,
            0.2623724914506896,
            -0.22585194789290994,
            -0.3033925611385856
          ],
          "Bias": 1.1351400095764586
        },
        {
          "Weights": [
            0.28076226690689793,
            0.37146461948515247,
            -0.8308699643614605,
            0.2509811941878765,
            -0.13487576515419708,
            -0.322445401025983,
            -0.1256844927157876,
            0.07414079081120943,
            0.23625984811638004,
            -0.6462670471188297
          ],
          "Bias": 0.499435518624732
        },
        {
          "Weights": [
            -0.3647418484348299,
            0.6836478365318489,
            0.10025839309903412,
            -0.2782152517533631,
            0.8139945929650299,
            -0.0852459321419174,
            -0.9993246428738463,
            0.14078677139664622,
            0.028656078573816593,
            -0.4124892427091917
          ],
          "Bias": 0.4258441035086029
        },
        {
          "Weights": [
            -0.29522223165491546,
            -0.7358608081313481,
            -0.6386271753080736,
            0.22782373842254325,
            0.24302590745705263,
            0.7100111688891902,
            -1.2149253602429746,
            0.30335292972691036,
            0.4146081965726655,
            -0.37805435824214656
          ],
          "Bias": -0.023432328360025536
        },
        {
          "Weights": [
            -0.14792495965116917,
            0.290740456428164,
            -0.3535162561701965,
            0.8254226492133083,
            0.6745034278684453,
            -0.24298192903616841,
            -0.2442103502643666,
            -1.4810196257726134,
            0.019827746307229124,
            -1.152980228654949
          ],
          "Bias": -0.5949074238297982
        },
        {
          "Weights": [
            -0.08146103599109732,
            0.35226983383393756,
            -0.04330492450749668,
            0.14569973465025832,
            -1.0235674710324099,
            -0.27236178019222884,
            0.6265555004799079,
            -0.1554078514156444,
            1.063266545271029,
            0.5587782392404488
          ],
          "Bias": 1.0463425098390546
        },
        {
          "Weights": [
            -1.1956358441379962,
            0.49587770820422583,
            -0.2868052571476372,
            -0.04626059025953728,
            0.15895530725689566,
            0.8584412484460903,
            -0.6129383902882639,
            0.43840299899072593,
            0.1329192922927982,
            0.6822658297825555
          ],
          "Bias": 0.22708762615490988
        },
        {
          "Weights": [
            -0.31295593500804403,
            0.6629196326526502,
            0.244002229636274,
            -0.7529749918458759,
            -0.9688107011798868,
            0.6708396911259724,
            0.24272639217442898,
            -0.16122388911053925,
            0.21719377493472214,
            -0.4152989271005725
          ],
          "Bias": 0.8099704505942907
        },
        {
          "Weights": [
            -0.36351908280878237,
            -0.1988763081822251,
            0.26512143211347683,
            0.5961333866487399,
            0.2282251411616763,
            -0.07392741627889503,
            0.4442424688858092,
            0.283602198618286,
            -0.6630516413655585,
            0.36388203457916557
          ],
          "Bias": 0.720832944220934
        },
        {
          "Weights": [
            -0.3338547739011981,
            0.23724704290247908,
            -1.077921708561464,
            0.9301045108821052,
            0.49301079735647846,
            -0.41056914356015606,
            0.3231098887152114,
            -0.05999634354901992,
            -1.1733551703296785,
            0.08422265482139754
          ],
          "Bias": 0.4886383646611669
        },
        {
          "Weights": [
            -0.5164174455463094,
            1.0144133232105335,
            0.13341160593303522,
            -0.7054645975893291,
            -0.01743243565635592,
            0.2091251331490945,
            -0.7419352920341827,
            1.2741503010563195,
            -0.5803012300089119,
            -1.3013965688462852
          ],
          "Bias": -0.15262840968644167
        },
        {
          "Weights": [
            -0.554297527921973,
            -0.30097942627850155,
            -1.5709251991723745,
            -0.9421201788989888,
            0.10030073556698342,
            -0.6407675308195521,
            0.24168179373741022,
            0.4197994032439121,
            0.5592732160975137,
            -0.25326193016429166
          ],
          "Bias": 0.3562050474891949
        },
        {
          "Weights": [
            0.9048279024750397,
            -0.2542153501818506,
            -0.337612038471925,
            -0.3866386114202488,
            0.2619755590762396,
            0.969401732838185,
            -0.192034845762259,
            -0.29573782714210894,
            -1.3676920689402818,
            -0.7550947171480362
          ],
          "Bias": 0.6927316169175747
        },
        {
          "Weights": [
            0.36154606049091764,
            0.7023796909465798,
            0.8396471034722556,
            1.0397905454311769,
            0.010624498959521753,
            0.11053810083679558,
            -0.11131211730306902,
            0.8363077068014032,
            0.9726568407580606,
            0.34538185582843645
          ],
          "Bias": 0.07256716732787183
        },
        {
          "Weights": [
            -0.6385134185072113,
            -0.4477045399437368,
            -0.1517800273242326,
            1.196540532103619,
            -0.9951300845780243,
            0.7242434428324386,
            0.8217421249041098,
            0.34158350362125467,
            -0.45147045556878657,
            -0.0012174268559454675
          ],
          "Bias": 0.09913540952271253
        },
        {
          "Weights": [
            -0.35155036988242316,
            0.8735101520221533,
            -0.43862952429838137,
            1.2152110449359554,
            0.8594836481382,
            0.04484382546427219,
            -0.010303564992724201,
            -0.056567800776806745,
            -0.27323145918717207,
            -0.06140702925705002
          ],
          "Bias": 0.09319176916089358
        },
        {
          "Weights": [
            0.40128973611118596,
            -0.8845769697607323,
            0.10993345818632691,
            0.28602476985238334,
            -0.4218575711673807,
            -0.3827100313453157,
            0.3309200114785069,
            0.375322587956215,
            -0.8869064749287163,
            -0.4758767852350817
          ],
          "Bias": 0.5237643263200025
        },
        {
          "Weights": [
            0.15419367663217734,
            -0.7967444346704133,
            -0.33462043318450346,
            0.3160947216029421,
            -0.3109245950017457,
            -0.013641463591298721,
            0.28958007557188786,
            -0.4690387780703535,
            -0.9305524174376758,
            0.014580469242046305
          ],
          "Bias": -0.8201553551474172
        },
        {
          "Weights": [
            -0.6015766520779152,
            0.22761242824184455,
            -1.4583934169373112,
            0.13932075721473489,
            0.14102352591128248,
            0.833398822912834,
            -0.21793966367670048,
            0.12791811254643506,
            -0.20574509160953364,
            0.9713580848947974
          ],
          "Bias": 0.6395509733462987
        },
        {
          "Weights": [
            0.21398709471895808,
            0.35222600552972316,
            0.19020208743254455,
            -0.620335402980362,
            0.9414289762096861,
            0.1479066387537009,
            -0.1750826001202166,
            -0.004617484535682753,
            -0.41910799064355286,
            -0.5384666923708527
          ],
          "Bias": 0.18518525972933603
        },
        {
          "Weights": [
            0.22309568362436233,
            0.7745096388947539,
            -0.7262345391077392,
            -1.436597131407115,
            0.7631083055004482,
            -0.14165927811582119,
            0.21095835422527537,
            -0.8062340297115094,
            -0.12202652090442018,
            0.7320547366609239
          ],
          "Bias": -0.21188909301736425
        },
        {
          "Weights": [
            -1.7088200501017732,
            -0.0867620337917123,
            -0.11086038926274894,
            -0.3755122492206371,
            0.5994361367013562,
            -0.469933509533836,
            1.1220562198254214,
            0.4935760519295431,
            0.5021808754607244,
            -0.7297576438044776
          ],
          "Bias": 0.15188341314453555
        },
        {
          "Weights": [
            -0.6465477813703646,
            0.3957655301930643,
            -0.7526723973571702,
            0.02341816355982078,
            0.2779057730329081,
            -1.507797533918598,
            0.4963063311966911,
            0.503599511789756,
            -0.765091939053616,
            -0.42983396964925696
          ],
          "Bias": -0.3319810683410131
        },
        {
          "Weights": [
            -0.31101698111094384,
            0.22572467781059674,
            0.25399664921032106,
            -0.15851544380055235,
            -0.26280860366112513,
            -0.8401072255885887,
            0.11266270864852784,
            -0.2447007680329487,
            -0.9203494242797388,
            -0.7804974476392809
          ],
          "Bias": 1.2309381891625388
        },
        {
          "Weights": [
            -0.25191380048206424,
            0.4731895025820684,
            -0.7196069356608421,
            -0.5490533462326631,
            -0.6680426963680477,
            -0.37805247128769187,
            0.48861469342549346,
            0.9049600047211904,
            -0.2634981692475809,
            -0.5588763349963187
          ],
          "Bias": 0.8637374916776176
        },
        {
          "Weights": [
            0.6779498030723342,
            -0.3967247096225668,
            0.17363115538952328,
            0.02526683223942654,
            1.1486985407112609,
            0.2776024842325033,
            0.22244298406226035,
            0.42022282891469287,
            0.11593597932988997,
            0.6349878024609716
          ],
          "Bias": -0.3895208915095882
        },
        {
          "Weights": [
            0.6368937887811849,
            -0.5597233868768521,
            -0.8232656715195528,
            0.9960325866138207,
            0.729254900215771,
            0.15233279228632646,
            0.6361810035971319,
            0.25869414110306654,
            -0.2643069836300814,
            0.36004273294504824
          ],
          "Bias": 0.35941060135927705
        },
        {
          "Weights": [
            -0.12195891043983986,
            -0.11145469668482277,
            0.19666334822666315,
            0.0949783130500364,
            -0.05533542682119402,
            -0.061611148484646994,
            -0.16707120167586936,
            0.09429625306963835,
            0.038175599711992636,
            -0.04112073747369849
          ],
          "Bias": -0.3817258008582413
        },
        {
          "Weights": [
            0.4246091973798303,
            1.0439753176133044,
            -0.2846602939208593,
            -0.8012615111183616,
            1.0636907081972788,
            0.07899338609588225,
            1.0206905852901356,
            -0.47052039155030684,
            -0.2768231728957737,
            0.08411401122033277
          ],
          "Bias": -0.845862217205225
        },
        {
          "Weights": [
            -0.6431351076379684,
            -0.03931176649293167,
            -0.6172319776998119,
            -0.25223692836244005,
            0.010983124519122037,
            -0.2032952457253673,
            -0.4176412743248865,
            0.12634882005497114,
            -0.3090631265038745,
            0.478273250434048
          ],
          "Bias": 0.39432052331249706
        },
        {
          "Weights": [
            0.6478815940867072,
            -0.6804659392638596,
            -0.2940426068873846,
            0.39788713633307415,
            0.6676909142332237,
            0.3140248383646718,
            0.5361037986221353,
            0.43800179281681967,
            0.7559006905673261,
            -1.1929251375368273
          ],
          "Bias": -0.2881930879271505
        }
      ]
    },
    {
      "InputSize": 32,
      "OutputSize": 16,
      "LayerType": "Hidden",
      "Neurons": [
        {
          "Weights": [
            0.17820035196320688,
            0.1316739483243427,
            0.5370586233012241,
            0.27713537676358907,
            -0.07876317342851871,
            -0.25351874933197116,
            -2.08341131476644,
            0.1449631309982885,
            0.5146152234141477,
            0.6856207398306929,
            0.6016900840572912,
            0.15143368417121422,
            -0.07116948577080227,
            0.09166731149568262,
            -0.30368276866025146,
            -0.31187513793309485,
            0.14791242806837826,
            0.2377032543616368,
            0.1868769121182189,
            0.1326970133954009,
            0.07647190667261876,
            0.036826008547074816,
            0.49433082247301446,
            0.06144686255087253,
            0.45684604150484787,
            0.407376225234437,
            -0.5768551636574301,
            0.264105122177306,
            -0.2225336703734861,
            -0.24039953398168343,
            0.5291637529065888,
            -0.9301751753056453
          ],
          "Bias": 1.0817046725400894
        },
        {
          "Weights": [
            0.19407654692682325,
            -0.24592870902103492,
            -0.17250585207383784,
            -0.13460024918746205,
            0.05847820509539875,
            0.19239322746301307,
            -0.2547376553874028,
            -0.08977027427828001,
            -0.23057899629566492,
            0.1922589047197134,
            -0.24436463347265025,
            0.1775420655029859,
            -0.18529174601707898,
            -0.011606141556290955,
            0.006767881301507461,
            0.14573277292724024,
            -0.14055529764500874,
            -0.08967648282703033,
            -0.1743170610321822,
            -0.0723325312349104,
            -0.08945217525229969,
            0.11720702954790338,
            -0.05435932746658558,
            0.22510381124377624,
            -0.020995633456935604,
            -0.16608400338018878,
            -0.2096016559443127,
            -0.1687667105555582,
            -0.18956306008264479,
            0.08478046940112255,
            0.01299348465555117,
            -0.15723269348123037
          ],
          "Bias": 0.06918955055171554
        },
        {
          "Weights": [
            1.1287456878564548,
            -0.7648939795090918,
            0.12708132947686454,
            -0.00919497488031107,
            1.1146018575454426,
            0.16230695892263072,
            0.5799349026212447,
            0.11145199727538796,
            0.8506931870302578,
            -0.15023413813009193,
            -0.673635796282917,
            0.8770913954826848,
            0.4871484173085688,
            -0.4457500838752417,
            0.855415432292375,
            0.26094783329531535,
            -0.42412951901692786,
            0.6709211830688521,
            0.5515385381912346,
            -0.19470240768752428,
            -0.32017781026049025,
            0.27106261882345606,
            -0.20439921116098597,
            1.4751631994457939,
            0.68754793441251,
            0.8968242637463713,
            0.38989808131797205,
            -0.9609880105906143,
            -0.09081455209708039,
            0.13801618452034645,
            0.18646293817651594,
            0.2316746199853598
          ],
          "Bias": -0.16413266039890828
        },
        {
          "Weights": [
            1.061445519122305,
            -0.30866557403296785,
            0.6824206627967015,
            -0.6437255275298448,
            0.18478166181115924,
            1.9251143751881297,
            0.04612463011324663,
            -0.8667884883381596,
            1.9166243630229658,
            0.2631225560362694,
            0.5545683363451547,
            0.6667072468848665,
            0.6878574883598261,
            -0.06151248699265478,
            0.5054381737245368,
            -0.48292596472398897,
            -0.08304681283879316,
            0.22633487807024225,
            1.3538674566255189,
            -0.3678153474654571,
            -0.5963182569349191,
            -0.1573755162190306,
            -0.009198496708319192,
            0.7937004248420723,
            0.39900402516588573,
            0.7070372845549662,
            -0.10694707270446588,
            0.29533846787112644,
            0.0012995628830845263,
            -0.37280071816610955,
            0.23847146052354107,
            -0.6590226835544517
          ],
          "Bias": -0.1291644171755404
        },
        {
          "Weights": [
            0.4950572772037551,
            -0.5611835474370815,
            0.10937273196355336,
            0.25339727398735234,
            0.599735192562551,
            -0.7498401263822054,
            -0.12486971596183091,
            -0.1902807827442142,
            -0.8534451425454889,
            -0.04276824829474172,
            0.13874530347952244,
            0.7190130904511477,
            0.3344180973216291,
            0.5979544846982502,
            0.3867058003550264,
            -0.8366991773000947,
            0.18826784988827355,
            -0.3433537064517985,
            0.11718411661420246,
            0.8360391545916505,
            0.39698270287849136,
            1.367652992567756,
            -0.7433503498251055,
            -0.6073663631927891,
            0.545610666552239,
            1.156887628437544,
            -0.27846164733690354,
            0.10286487835255036,
            -0.07750030529611746,
            1.241326278586257,
            0.7548754153672171,
            -1.100936603875697
          ],
          "Bias": 0.55470855829765
        },
        {
          "Weights": [
            0.6631041201451274,
            -0.1726634343195229,
            -0.027611860582844282,
            -0.04136472931663556,
            -0.540690063172575,
            -1.2237686385331332,
            -0.6167825387911393,
            0.080361433010092,
            0.4912822275300026,
            0.45308236300092375,
            0.25205511079442905,
            0.5086644515375572,
            0.5817225148664704,
            1.067040601968863,
            -1.1649829446945055,
            0.1988182104508654,
            -0.48119893099004807,
            0.9156297759246199,
            0.6130216848811171,
            0.2585428324889277,
            0.24035195345188612,
            -0.19985275106458297,
            0.6982326949551638,
            -0.03998774932491916,
            0.4381622223704491,
            0.8730650418591188,
            0.732776791506009,
            0.37876952663827457,
            0.06832693591373651,
            -0.024342266706311805,
            0.16629440759721753,
            0.8259910829628938
          ],
          "Bias": 0.5799202408345117
        },
        {
          "Weights": [
            0.0713122829488924,
            -0.2335650025061138,
            0.00466691160757075,
            0.03224674597214629,
            -0.1464739231148308,
            0.1310410398619148,
            -0.1361717660507374,
            0.16887279840759556,
            -0.2573090265586917,
            0.12449134161985669,
            -0.07701308589420046,
            -0.17328787593001055,
            -0.1910964496841478,
            -0.24766700718133633,
            -0.20068215534866726,
            -0.2127488405723163,
            -0.22033698057782627,
            -0.24049067811527985,
            0.1494075536540102,
            0.12277087932389644,
            -0.10596840672229359,
            -0.18726276634659952,
            -0.011744208699436463,
            0.20384553896006102,
            0.035698851885932796,
            -0.037291143833076745,
            0.16962650587071937,
            0.050916435501419596,
            -0.19705676648226272,
            -0.12129679014234906,
            -0.20438397478109135,
            -0.06425149859647489
          ],
          "Bias": 0.057497109261852024
        },
        {
          "Weights": [
            1.7394320986964968,
            0.07188690167685761,
            -0.6141765545667663,
            -0.26899889907245195,
            1.742768066657928,
            1.84189599350953,
            0.49504384390269435,
            0.31430868621752883,
            1.4832450721157484,
            -0.23488347346617575,
            -0.41719631630667203,
            1.3525859550980872,
            -0.20973469298224998,
            0.33460643057584744,
            2.239344632599792,
            0.31058775528214516,
            -0.37157614522537613,
            -0.17061557251116963,
            0.9259380122504262,
            -0.1355678775627586,
            0.11359351081229263,
            0.5059264209884545,
            0.19217061425476348,
            0.8981709604222432,
            -0.3871036613734277,
            -0.4292719849057524,
            0.1334925181482436,
            -0.29737807324701276,
            -0.0666018870678462,
            -0.46780390392436205,
            0.06599581165385077,
            0.34292898319359866
          ],
          "Bias": -0.731534036542694
        },
        {
          "Weights": [
            -0.03905051289056054,
            0.421669653911474,
            0.690442053514471,
            -0.45930026852476324,
            -0.1627534105944794,
            -0.24308859547107411,
            1.7786388688234671,
            0.3253852829574929,
            -0.4165477613139883,
            0.13185583028339043,
            0.8815204197010187,
            0.08292000785905027,
            0.4165415535096582,
            -0.2385706878890107,
            -0.23099896007180654,
            1.7157800698153782,
            0.47796922333873704,
            -0.27512496275500153,
            0.27327551405821765,
            0.6339545840108314,
            -0.4253556163781324,
            -0.33378778419882427,
            -0.15755408072565616,
            -0.03612243068865581,
            -0.2257531156899554,
            0.41275213415806156,
            -0.6736697144143584,
            0.726568689394688,
            -0.15823055617135873,
            -0.8625054705847944,
            0.20607322709771522,
            -0.27569942503874556
          ],
          "Bias": 0.3883711857818573
        },
        {
          "Weights": [
            0.19423915099559683,
            0.9787971686696718,
            -0.056294131416721044,
            0.20764041236037636,
            -0.6057540864009883,
            -0.5552299052928512,
            -1.63246014221087,
            1.178080289933967,
            1.1118386745894189,
            0.5964028053564816,
            0.8138476021929075,
            -0.06982464412655141,
            0.19539416113628746,
            0.26910741475924327,
            -0.320681106868331,
            0.5096750145605191,
            0.2828568506980638,
            -0.4976075572669461,
            -0.8725467800823409,
            0.6651202131797116,
            -0.09453156147509023,
            0.20330452825170464,
            0.5599374299878688,
            0.21209089675713608,
            -0.6403847288083995,
            0.07741261164763516,
            0.07478844712993155,
            0.48045633219525963,
            0.0573518784531849,
            -0.1145414173193514,
            0.552996133506588,
            -0.13809353827105014
          ],
          "Bias": 0.28565717562213105
        },
        {
          "Weights": [
            0.2031565021038741,
            -0.06276202094274602,
            0.27694251231721173,
            -1.1467527969240054,
            -1.1041905853950407,
            0.026283579633776834,
            1.0719354184033452,
            -0.36804954281915947,
            1.1835087534352877,
            -0.12823408140338116,
            0.2150524110526061,
            -0.3658058088059845,
            -0.3236963888438696,
            0.15158964211139322,
            0.19707325552440322,
            0.3457016388186986,
            -0.2774061010331001,
            1.0235038335324298,
            0.7851083109585847,
            -0.1976637508239743,
            -0.35411879633851523,
            -1.5350348193177321,
            0.19415600362383728,
            0.03761040394664685,
            0.7427809248546138,
            0.21250688472452617,
            -1.0659014203968875,
            0.10978908370250279,
            0.032208591232104566,
            -1.1578361414856448,
            -0.05531588222284484,
            0.06444811586355549
          ],
          "Bias": 0.4757816509176785
        },
        {
          "Weights": [
            -0.1885998029109599,
            -0.2501571564007437,
            0.5528472673157769,
            -0.3887383472805395,
            0.6409694842642011,
            0.15494955566181406,
            -0.30165574439537673,
            0.295063736927867,
            -2.6732718623415366,
            -0.11326713411887376,
            0.41568861973314,
            -0.9664683842656796,
            0.3392645539368001,
            -1.140407626833637,
            -0.047351557856492255,
            0.2989996625877346,
            -0.1565986468386505,
            -0.16421564310927453,
            0.22670601920832695,
            0.10537358080698866,
            -0.8917283798317301,
            -0.06997758713500975,
            -0.6282027923858767,
            0.45865577738896,
            -0.7457257776699311,
            -0.27845416655073724,
            0.02231194043036819,
            0.28969439965584,
            -0.15885811196299143,
            -0.41058538280574824,
            0.2719925407568489,
            -0.5261303454092169
          ],
          "Bias": -0.5695208121292991
        },
        {
          "Weights": [
            -0.03174241670799487,
            -0.026951552667679093,
            0.1666704168967203,
            -0.05495487737806753,
            -0.09603202957560072,
            -0.08136922729381908,
            0.3896512549494113,
            0.18782368040617575,
            0.3253347991857155,
            -0.17821832388461908,
            -0.24550693279404529,
            -0.05075517423871936,
            -0.023250939477677958,
            -0.09420131094080676,
            0.30921499939096364,
            -0.23061576422974567,
            -0.20653223816296945,
            -0.5032305458480342,
            -0.13610089684987867,
            -0.1284804314330055,
            0.01632440216199638,
            0.040716293230162584,
            -0.49403173783065335,
            -0.044052264635225616,
            0.12016317333869493,
            -0.04459387891986835,
            0.014706713727522124,
            -0.4728016129623894,
            0.15938943708580705,
            0.21552884945184322,
            -0.13674251154462538,
            -0.27489799121232417
          ],
          "Bias": 0.07856047058024841
        },
        {
          "Weights": [
            -0.6988754849460576,
            -0.1431939453960197,
            0.809896422724367,
            0.6933846272336092,
            1.023042884804186,
            0.9479402349782724,
            1.113548824499752,
            -0.004217903012149267,
            -0.840181962189676,
            -0.8537674969475343,
            -0.07497758471963187,
            -0.16535735675240754,
            0.22361730267671195,
            0.3473320316382982,
            -0.18433006917731934,
            -0.14004435087030973,
            0.2635494371906925,
            0.6248349738921849,
            -0.46795925719763304,
            0.16458148225535335,
            0.9362402925749004,
            0.5639073261353341,
            0.0620521901583254,
            0.1305908111458462,
            0.7009822637383781,
            0.08373944108596905,
            -0.27453410904210673,
            -0.3094756123687903,
            0.0019417927202737828,
            1.5238750763110884,
            -0.023447224815276377,
            0.5089428826878772
          ],
          "Bias": 0.1617949411217485
        },
        {
          "Weights": [
            0.17501279031587524,
            0.09008226615142656,
            0.6468294269168188,
            -0.003676711919960773,
            0.9982774341988707,
            1.0862228609840698,
            -0.8560371163044966,
            0.6493851064803002,
            1.1602137456235142,
            -0.6355549556521639,
            0.3801146307878786,
            0.45898592366946556,
            0.7075158919378967,
            0.09601923259431859,
            -0.4065840868999646,
            -0.36595832103131065,
            0.6272657777431959,
            0.35354301809445765,
            -0.5377598914914961,
            0.4841977590668832,
            -0.017097310431875165,
            0.4972253014788433,
            0.3033338848610601,
            0.6934000826605837,
            -0.8476682492215836,
            -0.4520608514814803,
            0.7113023830770003,
            0.8972253478826548,
            0.09840923440541183,
            0.5834731952484904,
            0.3897298062340823,
            1.065075106338151
          ],
          "Bias": -0.6707758123903171
        },
        {
          "Weights": [
            -0.4556125039974752,
            0.6563211935796234,
            0.25838033973893126,
            0.20715386086231918,
            -0.2905471204047903,
            0.6508979437443186,
            -0.6360604028638649,
            0.6016172516970082,
            2.1686523668882582,
            0.7113121981299798,
            -0.02727895222770782,
            0.5277058777003719,
            -0.09639653593743687,
            0.9047457729976947,
            -0.008672959537876763,
            0.5948195807797625,
            -0.09880361235060378,
            0.36274401518891664,
            -0.29512575129108803,
            -0.31883667014088835,
            0.16051980168726365,
            -0.11706158789917462,
            1.8020078848663852,
            0.5073510846418224,
            1.226516259972889,
            0.14411041881507003,
            -0.5510749583172015,
            -0.18997902899603278,
            -0.21737448615261096,
            0.42373815722579383,
            0.13194125988832078,
            -0.43779501895208894
          ],
          "Bias": 0.42749618528331756
        }
      ]
    },
    {
      "InputSize": 16,
      "OutputSize": 8,
      "LayerType": "Output",
      "Neurons": [
        {
          "Weights": [
            0.22830354417935272,
            -0.1723544859070797,
            -2.3323493697865723,
            -1.2927732880640532,
            0.08142558409718405,
            -0.29212303757405167,
            0.10573110225432052,
            -2.4399089652941996,
            -0.1903521123616272,
            0.030581957145108533,
            -0.035809150960685585,
            -1.9214256424201017,
            -0.37845610897717097,
            0.02720549121699705,
            -0.3003502436057772,
            0.16825003290636692
          ],
          "Bias": 0.9137122250050762
        },
        {
          "Weights": [
            -2.371463390849091,
            0.2075721743136747,
            -0.14512741742935475,
            -1.2498942559686597,
            -0.899613366788078,
            1.1060421828793037,
            -0.041964102196236315,
            0.03225080436149668,
            -1.4263844905276746,
            -1.1880407220279843,
            -0.8309349715819022,
            -3.2268228187385444,
            -0.6521804119663422,
            -0.022983240834231027,
            0.6056584575453806,
            -0.3761295389904475
          ],
          "Bias": -0.17482571078731535
        },
        {
          "Weights": [
            -0.41267920064168756,
            -0.011177655116057558,
            0.13260602119007917,
            -1.3055022644977747,
            -0.022652684530044865,
            0.10034339731145112,
            -0.17265566908709853,
            0.2524963215582879,
            -1.893264141167885,
            -1.313461181904708,
            -0.5050528768368976,
            -1.0354200285633677,
            -0.12627730025564468,
            0.15018487196685154,
            -1.911086486663459,
            0.5958780867831519
          ],
          "Bias": 1.0151750335461176
        },
        {
          "Weights": [
            -0.6740645140380203,
            0.18501045273396122,
            -0.9627344774391192,
            0.5626360312081344,
            -0.8735033673620032,
            -1.405724977615318,
            0.1311616232545918,
            -0.18981911054756542,
            -1.0842131218834854,
            -0.7379025976971088,
            -0.6674651035330521,
            -1.0887342985662058,
            -0.5076541248017183,
            0.44477880002491194,
            0.35187110901282354,
            0.3356315734712599
          ],
          "Bias": -0.7616090380455666
        },
        {
          "Weights": [
            -0.43014926894977906,
            -0.08349849890455281,
            -0.6268087463227564,
            -1.0382272412347886,
            -1.66285502040992,
            -1.007619187830549,
            -0.2968033882225014,
            0.4561882736758467,
            0.8330874903344442,
            0.5755099596968478,
            -0.6909366434700084,
            0.06195680151213166,
            -0.06979655451956679,
            -1.4319888656119426,
            -0.25753024604918695,
            -0.41177421479391907
          ],
          "Bias": -0.1565501668879845
        },
        {
          "Weights": [
            0.2267746729725012,
            0.03435166730927183,
            -0.24230916340801142,
            -0.3428667140116272,
            0.13914092431690955,
            -0.16032451603001047,
            -0.1081970292539296,
            -0.6247537594821791,
            -0.7995808471523863,
            0.4575790361350993,
            -2.249434998199549,
            -1.3307066758646036,
            -0.7521449924389579,
            -0.7524507425500269,
            0.46633648355108287,
            -0.37829679645757797
          ],
          "Bias": -0.7112390171720401
        },
        {
          "Weights": [
            -0.6909316158573762,
            -0.2566475925726081,
            0.00488405156574195,
            0.1703275970428443,
            0.5374929475877082,
            -0.7559513629776513,
            -0.0726207530135527,
            -0.6662593521142546,
            0.5116873011586055,
            -0.5455587947647338,
            -0.7488214632416258,
            1.0512566913708459,
            -0.04645135800786662,
            -0.09322192005348795,
            -0.11839400147139739,
            -2.2614693326253614
          ],
          "Bias": -0.08872103754919283
        },
        {
          "Weights": [
            0.14773906262805475,
            0.09143533826502617,
            -0.4911159175617875,
            0.473725502378784,
            -0.4943731394985273,
            0.263520944700161,
            -0.184583580589286,
            -0.7850109407540492,
            0.12491258872004293,
            -0.3443123517867206,
            0.1460894100113718,
            -0.8441893249121368,
            0.22311529908324576,
            -1.1075190505595014,
            -0.7305690276644812,
            -0.08358290280595802
          ],
          "Bias": -0.17113849418647653
        }
      ]
    }
  ]
}