{
  "Layers": [
    {
      "Type": "Linear",
      "InputSize": 10,
      "OutputSize": 32,
      "Weights": [
        0.3986003681039509,
        0.046552872191133125,
        0.03582205196438513,
        1.0479340646476152,
        0.8091455268225868,
        0.1467073552538441,
        -1.1921026558220003,
        -0.8807904511238251,
        0.01411849675364441,
        -0.33369211045546676,
        0.45402258221795977,
        0.6573649068354179,
        0.5049744560626669,
        1.3350483180204775,
        -0.69135858513844,
        -0.3314150273335085,
        -0.17068322251364781,
        0.4520133704030584,
        -1.7692014634515316,
        -0.37607043087214403,
        -0.7964511509069556,
        -0.5200348811552393,
        1.5463682100463818,
        -0.9449091296909942,
        -0.020060433810584054,
        2.0311292746139986,
        0.15131540224182619,
        0.6650941977550018,
        0.1380782791056395,
        -0.6464899615550324,
        0.3343956353949614,
        1.81007436798371,
        0.12166956155214033,
        -0.9335251653473676,
        0.49026312940093253,
        0.05173911092583967,
        0.18768855085762476,
        0.15666238550872572,
        -0.37566259856592993,
        1.0962143252214127,
        -0.6771099612557527,
        -0.330599164910748,
        -0.4952270869488106,
        -1.655486836879986,
        0.44637323531177425,
        0.2825357319443606,
        -0.06893136367600279,
        0.031234198097399902,
        -0.2519135410513764,
        -0.3257354168471691,
        -0.1712536337983105,
        -0.5907369475727998,
        0.8560434349367326,
        -0.521572483535474,
        0.2789684545966839,
        0.3019316901305068,
        -1.2219438079281344,
        0.1203354128616655,
        -0.7107415577234404,
        0.3152578229954226,
        -0.3328053340076668,
        0.12987797835258238,
        1.1788890628268096,
        -0.31428899863908283,
        -0.5714576792442803,
        -1.3040075287167936,
        0.16290484618844342,
        0.4064683664012574,
        2.360869776673769,
        0.3699776677513682,
        0.45900821845583994,
        0.7823147704386014,
        1.588492586536792,
        -1.5307413935747836,
        -1.1288185471870167,
        -0.7033914376717413,
        0.9742089589716021,
        0.6143577091325106,
        0.8126992129511765,
        0.42391166177987727,
        2.3642092370061256,
        -0.10661114330360645,
        1.0668994054496244,
        -0.39594726970373467,
        0.010205030175304785,
        -0.17165717312672507,
        0.48007750122327936,
        0.5076810962976572,
        -0.0616417594768979,
        0.16514083122237755,
        0.8564879751239264,
        -1.7658266593160927,
        1.2659945635238137,
        -0.6933766112865155,
        0.28225976866388486,
        -0.19102278894007058,
        -0.04554602352384758,
        0.07217200355331525,
        0.37097316548088455,
        -0.012026425107972591,
        -1.432218508163451,
        -0.22175270653379225,
        1.5282281912324014,
        -0.09800949051808007,
        -0.09235851677566305,
        -0.11252910957003404,
        -2.1280265645956886,
        0.013057634949939523,
        0.32360487999745086,
        0.18579351885932607,
        -1.3511018943120578,
        2.0161813238903394,
        1.4929988454362064,
        -0.6065495886789575,
        0.6323362564508793,
        0.034922866866114066,
        0.3284418878942351,
        0.7896980002337712,
        0.8341616273106606,
        0.3813388149759352,
        -2.21392444652778,
        0.3755616903877269,
        0.8537215473233494,
        -1.1892461430917125,
        0.10570759351486501,
        -0.330112125911771,
        -0.12494336353404027,
        0.14987396457833801,
        -0.11103431253731298,
        0.07854585176914496,
        -1.3253739117808356,
        -1.5607807651886616,
        0.03611001799174225,
        0.4253358613004061,
        0.1280736385586328,
        0.21208047645211106,
        1.8085486115445764,
        1.8773656382525798,
        0.49151144581480055,
        -0.07809181832150922,
        -0.6438755634031592,
        -0.43424318249149085,
        2.366535202973428,
        0.890061317340762,
        0.027356857216219093,
        1.0412010490902244,
        -0.21426292336194772,
        0.08965308311615909,
        0.6877615051200368,
        -0.13644560975277312,
        0.4409441345811421,
        0.4441781616196384,
        1.2542592664061083,
        -0.5834343665851515,
        -0.18178937376661958,
        2.7153640265482766,
        -0.4085442380269633,
        -0.11525333958563456,
        -0.5032664234422423,
        0.7728275288820267,
        0.10052890437140827,
        -0.10157869092398712,
        -3.4167712941685404,
        -0.8963332029864993,
        0.03187793076640189,
        0.1363125747769232,
        -0.27671560830521547,
        -0.08910139041649028,
        -0.2519211909240244,
        0.3545712450499612,
        -0.47109360712341053,
        0.6849081772597584,
        -1.5411428071118412,
        -0.11509250687897081,
        -0.23609446150381383,
        -0.8427514373359329,
        0.41588395917462273,
        0.4990157652632986,
        0.15172541565210396,
        0.44313996692679425,
        -0.9196120916534775,
        0.467574585797437,
        1.415090887174858,
        0.1597537696519373,
        0.38948304742057377,
        -0.16215817747230218,
        0.3269470205661998,
        0.8567418307788243,
        -3.3958518232523196,
        0.22298681959404149,
        0.12077953609672662,
        -0.09086853338244472,
        0.2877998708657484,
        0.5789762477909337,
        0.9923809330710035,
        -1.372061934898335,
        -0.1991436976135258,
        -0.11657297193994993,
        -1.3888077106828964,
        -0.3403797659175882,
        -0.2088429131017703,
        0.15254268151892553,
        0.024430993447776665,
        -0.1333386851761901,
        -0.41103750693480984,
        0.05179959422245101,
        0.021526560173107306,
        -0.20561036209999328,
        -0.39351117909593997,
        -0.2095161541950503,
        -1.1509731324709163,
        -0.9317556651013185,
        -0.6730026321367742,
        1.5634421195651065,
        0.537304708648996,
        1.0641038355083745,
        0.8541802691688698,
        0.5474878410453723,
        0.4328737369989455,
        -0.9430331526538004,
        -0.9900206887316271,
        -0.5855581047837243,
        1.6345662315391354,
        0.13692945346548258,
        -0.8795984509804347,
        1.5445736846414422,
        -0.08796976609102658,
        -0.047697894111402246,
        0.4383988960630594,
        0.49233407103086835,
        0.20714896438328778,
        0.4981496723434984,
        0.5339274766761994,
        -0.8376626514879437,
        -0.10741416378961245,
        -0.5035561624379937,
        0.07608969399954511,
        0.05948174904921218,
        -0.08807852002654451,
        -2.2133560092526037,
        -0.2850515886596742,
        2.4587774675244045,
        -0.25174890685206214,
        0.8210005797368151,
        0.29035084506166553,
        0.2016436986122062,
        0.26412566792881614,
        0.25299816651947393,
        0.540504370609114,
        -0.17925298087847433,
        -0.6042026534770848,
        -0.5417866206065541,
        2.0719623145213597,
        1.237318536183585,
        0.6577966971720194,
        -0.46190769836934653,
        1.2705038918891072,
        0.522002319582603,
        0.011288487195174625,
        -0.15359728851838753,
        -0.2802058919863862,
        -0.278218641644435,
        0.2448489683652999,
        -0.4312452996230414,
        -0.31691834980892386,
        -0.01403617703074976,
        -0.43205230650193327,
        -0.38019909230415655,
        -0.19966351995681197,
        -0.10937605061234357,
        1.4619302672049117,
        -0.9144983992463751,
        0.5758417675700156,
        -0.648258307764587,
        0.1361461916120542,
        -1.1042211378450981,
        0.04336131721555211,
        0.09778241048985147,
        0.09931858152908418,
        -0.5926527021529875,
        -0.6360751600013352,
        -0.7264557313384301,
        0.7331581365712583,
        0.15034173948173654,
        -0.002646308659045724,
        0.0767064512551516,
        1.8626068725860285,
        -3.3262107716853264,
        0.1894211805479753,
        0.09681535159359303,
        0.6542579101895485,
        -2.0937088702889706,
        -0.5410643525054671,
        0.9747856970507094,
        0.3516786860917567,
        0.1085218528996615,
        -2.061308450951673,
        0.05986898432805176,
        0.14657214705501725,
        -0.22598284918014427,
        -0.3829658865217164,
        -0.11854510806446998,
        0.4682898643584601,
        1.6303669467618107,
        0.35488903655559867,
        -1.0508342787484752,
        -0.5724798159766784,
        -0.1241091975293579,
        -0.6395832328001225,
        0.6043940018734386,
        0.35116410997066644,
        0.009367095206627561,
        0.07708231694257289,
        -0.22244217144113917,
        1.2950996535498542,
        -0.3371657815651284,
        -0.25756223348184226,
        -0.2179623315020007,
        2.2415048005717724,
        -0.1380439589819579
      ],
      "Bias": [
        0.8436371896539738,
        0.5102416562842973,
        -0.0008118793664557068,
        0.008647262844578495,
        1.5668807515248606,
        1.4550717764021324,
        -0.42756291010193054,
        0.16474958132285306,
        -1.79406534127923,
        0.6607420026068425,
        1.1654608944841118,
        -0.8348906030853843,
        1.1503904580029245,
        -0.8839245890824515,
        -0.7062482927912884,
        -0.8277005356949696,
        1.9794738797663822,
        1.0881535278055527,
        0.3389506473056748,
        0.8220646276846371,
        -0.05230609445915607,
        -0.29066460433585156,
        0.10137144599334767,
        1.1600728497820985,
        -1.830966662659391,
        -0.018235917420532842,
        0,
        1.9707591933836959,
        0.8149617573369673,
        1.0906474856086954,
        0.8288667330837498,
        -1.181761632937475
      ],
      "Size": 0,
      "Activation": null
    },
    {
      "Type": "Activation",
      "InputSize": 0,
      "OutputSize": 0,
      "Weights": null,
      "Bias": null,
      "Size": 32,
      "Activation": "ReLu"
    },
    {
      "Type": "Linear",
      "InputSize": 32,
      "OutputSize": 16,
      "Weights": [
        0.2595177323121742,
        0.5420284205963088,
        0.4992527427359951,
        0.22659019852669005,
        0.5223566160532135,
        1.6412578286761297,
        -0.32749895565981685,
        -0.16717667865519167,
        -0.015921978886049168,
        -0.44024217402873134,
        1.5440241714812246,
        0.26667414086687413,
        2.33006901020315,
        -0.5827462597474059,
        0.528686340215794,
        1.4676288714388297,
        -0.9457735611767288,
        -0.0643494439591956,
        -1.5283312353230536,
        1.3566712595282147,
        -0.12042658016402094,
        -0.4835203385211572,
        0.8010714982993,
        -0.34666104395617675,
        -1.154593497676216,
        0.2700335512028156,
        0.09255460246585057,
        -0.251526507023671,
        1.5978986421115788,
        1.5674956820537744,
        2.0237967084749258,
        0.07143291700906988,
        0.08153393184769175,
        -0.27039501835581964,
        -0.007902785569731436,
        -0.24900668496632355,
        0.15971854201687288,
        -0.19424663748017096,
        -0.07820230290402859,
        0.09888299406851124,
        0.15988071289963177,
        0.14721897929421207,
        -0.03454501083817712,
        -0.1996537739000972,
        0.09679619055067755,
        -0.19326112346875535,
        -0.2128061428963795,
        -0.11195980572154707,
        -0.16842436181307974,
        -0.02680880853422004,
        0.0531451575337651,
        -0.17255865289948819,
        -0.24449684936296978,
        0.023189114999579763,
        0.10944314437581705,
        0.19828030602099156,
        -0.23329779732182793,
        0.07388089347282463,
        -0.22150154387182627,
        -0.24777363134842495,
        -0.08427972529875526,
        -0.191199227907322,
        0.03240728772465302,
        -0.2717492223039399,
        0.210611651443113,
        0.05281545091506293,
        0.8744849541455683,
        -0.897636688616766,
        0.8432769767568448,
        0.5828958896152008,
        0.3479380998015123,
        0.6803464078681883,
        -0.6480650718818534,
        0.8921810342552362,
        0.48196000465102135,
        -0.725006008653106,
        0.05489203665238704,
        1.128845976325758,
        -0.1435624978331096,
        -0.8278655358364446,
        -0.787753450079007,
        -0.4510410468724201,
        -0.17647598711597695,
        -0.2638815151706204,
        0.01529867144582627,
        -0.42047032836827725,
        0.5216176848220092,
        1.412823200991646,
        1.2524072030572078,
        0.6940276067872101,
        0.2326213796542126,
        0.9310924718257896,
        0.37271917065619853,
        -0.31017448585569746,
        0.2606613585476703,
        -1.261130508221281,
        -0.13590281431680942,
        -0.05487239538053638,
        -0.1928245542783712,
        0.0839813045290208,
        -0.06164698317258013,
        -0.23571583368969248,
        -0.008446053318738711,
        -0.17688267167305013,
        0.024534548760640706,
        -0.08052064447222307,
        -0.09662748423713607,
        0.13214442007510713,
        0.0027754354110776014,
        0.0098587992081693,
        -0.057406441840687966,
        -0.0036042939158800066,
        -0.01771679257379479,
        -0.05796779249596128,
        0.0702042361790195,
        -0.23477726986873487,
        -0.059323252322768444,
        0.021121190180547,
        0.03864097647229108,
        0.04649928551935556,
        -0.16402191035266442,
        -0.009349067129767864,
        0.1839201801614464,
        -0.14704571493612448,
        -0.24004582780881126,
        0.1039033594737126,
        -0.14359276806637308,
        -0.0028211162875246927,
        1.1137029974973618,
        -0.7191659035816451,
        -0.16722940985494028,
        -0.015530405847599984,
        -0.06643607271513992,
        1.7153230742618304,
        -0.43933964318828217,
        0.7035026843501683,
        1.5802413550982808,
        0.9303789906941409,
        1.35668998582095,
        -0.7083561004846868,
        -1.0563187529278686,
        -1.4296498859061728,
        0.4311343039192045,
        -0.5459486295945456,
        0.41692258437441476,
        0.39450528848117516,
        -0.25363901937519834,
        1.3410979014200035,
        0.1309208617355196,
        -0.6639797855734915,
        1.23966835013659,
        1.3710923273317555,
        -0.7156976901433838,
        -0.19228628020645044,
        -0.00815331691790061,
        2.445290089651195,
        1.5205981830617359,
        0.7420294611816138,
        0.40646397149229757,
        0.14127840397001357,
        -0.4074836009865949,
        1.6310071391364505,
        0.6576891076423417,
        0.9206819154693135,
        1.53042647617706,
        -0.5100385617040277,
        -1.8427990035598303,
        2.228397834261356,
        0.6342010580070419,
        0.9030813452050979,
        -0.782821966340575,
        -0.043922075962682924,
        0.36210561199781277,
        0.26161750526440525,
        -0.06288462192704629,
        0.4461512006922582,
        -0.41886012042745563,
        -0.08373525501271882,
        -1.0380937741738685,
        0.5200120339580151,
        -0.16503457869618618,
        -1.2046582921155524,
        0.41440087047962804,
        0.3490098066073728,
        0.053716301562857345,
        0.628682441258828,
        -0.11582536965879861,
        1.7060580715876459,
        -1.0413857288295225,
        0.25899655927351456,
        -0.8935721497631254,
        0.08138858398012137,
        0.12061211667822887,
        0.2087089120853108,
        0.2066511937712075,
        0.652256895258019,
        -0.5266240599587105,
        -0.5612311922390937,
        1.284506121819715,
        0.9829847948972258,
        1.1643463143659853,
        0.5173989426331631,
        1.6385730927308866,
        0.6415682470528098,
        1.4071809541677138,
        2.0550992509348327,
        0.2003668217048971,
        0.11206874776497376,
        0.07271571711448861,
        -0.5804372940209411,
        0.541129365844785,
        -1.077128087660724,
        -0.08504922237227557,
        -0.7982066064653337,
        -0.38569118822299664,
        1.2809999432207002,
        2.7793996557168326,
        -0.12895536487121567,
        0.04011311511980048,
        -0.5425778758317331,
        1.7540558058655322,
        0.9787615455606544,
        -0.531887593989116,
        0.87299416299949,
        -0.37484435777774505,
        1.0281176012738713,
        0.0009378621392822572,
        0.23138509140118133,
        0.6492880690450699,
        0.19426198808352144,
        -0.4251488801907011,
        -0.09701903416376784,
        0.08976316367172234,
        -0.5339142711318563,
        0.8091823311931541,
        0.4933606937522558,
        0.8534514140171102,
        1.6981675201728479,
        -0.46019156776477654,
        -0.4021621373456497,
        2.1125464891046524,
        1.8846684320686655,
        0.9525011943575795,
        1.0265002770514675,
        -0.060916989253871845,
        0.9207062610145264,
        0.16221319826010572,
        0.426820658899462,
        -0.09705713397929527,
        0.024222643626258533,
        -0.005855485683239764,
        -0.17669415424813706,
        0.0481571138989036,
        -0.027731703469875857,
        0.9436083654184568,
        -1.0613337975818538,
        0.11946704181053386,
        0.13070644952483887,
        -0.06371931504048688,
        -0.10889527227863936,
        -0.18231390545749276,
        -0.19227833012613477,
        0.14506529464564505,
        -0.2709076567174742,
        -0.19349577404411164,
        -0.0482844635854204,
        -0.2490625111673071,
        -0.24920486695533828,
        -0.10103651868073277,
        -0.04029450278413133,
        0.08896641232766903,
        -0.08489162258933111,
        -0.1007953918860254,
        -0.05931654169643674,
        -0.04834197782424374,
        -0.23500382084036592,
        -0.002896217979908078,
        -0.21346751736407088,
        -0.10913157386152673,
        0.20906684791683652,
        -0.06943764093522706,
        -0.0030689432740703747,
        -0.040721186804920984,
        -0.19028372643764105,
        0.005279138252711931,
        0.09059738379535079,
        0.10320850064418674,
        -0.25315640119409644,
        0.06234602393875399,
        -0.21607193019105542,
        1.3325402906826256,
        -0.42819428077935107,
        0.0003592572560833954,
        -0.07180627353540968,
        1.6638588927526956,
        1.098218297280654,
        -0.8458701139237429,
        0.3280442267749759,
        -0.19411633381494328,
        -0.7005643459803697,
        0.7702789355800117,
        0.37111005250813756,
        1.9746197930235951,
        2.172689254878361,
        -0.6231433851590337,
        -0.2596401215156841,
        0.7210210987281785,
        -0.8488908186709665,
        0.0427622054727761,
        1.0631186023831927,
        1.9136609935637352,
        0.4214255568306953,
        -0.2005892497052969,
        0.14993688447147432,
        0.16390675162612772,
        -0.06730642756077357,
        -0.9639061919974826,
        -0.7614759237610338,
        -0.20139685770770038,
        0.44213757438963874,
        0.8957209960455006,
        1.215626241672369,
        0.6017755444018872,
        -0.5140574224903203,
        1.4669507129325694,
        0.48172506231707246,
        -0.9745778536238423,
        -0.5680093498758023,
        1.3028273776611177,
        0.8006887006025355,
        0.5018669072152634,
        -0.03519591892828588,
        0.5816332541225805,
        0.14931851577780234,
        0.9894240807031931,
        0.017407601924593737,
        -0.5031677318426862,
        -0.597587003510173,
        0.48801434060098986,
        0.4971648898044382,
        0.14064891222720044,
        -0.8696246215322806,
        -0.04104495261287195,
        1.2659956290059025,
        1.4768703417846643,
        1.3714931535364017,
        0.021464668806393028,
        0.3826491297880219,
        0.164956084692319,
        -0.27287057847870416,
        0.8437519558867842,
        0.40831446207563754,
        -0.0956442678255226,
        -0.16452682479663047,
        -0.17919154578661484,
        -0.20654131034531859,
        -0.013571126165916575,
        -0.04213036562297964,
        0.09683734921321016,
        0.13693861601409968,
        0.15514663954200658,
        0.08997302595682345,
        0.14274644531050493,
        0.031003212768188324,
        0.11481930186790142,
        0.12340849772571424,
        -0.2032936626037331,
        -0.20446081438342217,
        0.0248589073492202,
        -0.005108327663322794,
        0.02382643747268119,
        0.20726562277295527,
        0.21954867754576202,
        0.17319190620598002,
        0.05279306959752589,
        -0.1112065437359267,
        -0.0807783045646519,
        -0.27839240281900496,
        -0.053019393143718785,
        -0.2312718812626335,
        -0.1765127787024308,
        -0.04691060395691533,
        -0.21390362844987681,
        -0.2277900546677563,
        0.3931238416319966,
        -0.14069486091469263,
        2.5677544517338418,
        -0.480165621241924,
        -0.5688201129602868,
        -0.7438216788083315,
        -0.06750675891363692,
        -0.19747601968538528,
        -3.7609575610928427,
        0.4476715608834426,
        -0.3133823490750487,
        0.654042556904379,
        -0.49948944608817664,
        0.16114823772460102,
        0.6089096246213529,
        0.8153650182455644,
        1.4519356709765727,
        0.511500950335759,
        -1.6761939762381204,
        0.8720311598155962,
        0.1123058994117392,
        2.004978854953368,
        0.18767077255238537,
        0.978069579527403,
        -1.6030711137181899,
        1.2195247599369792,
        0.13511268183827058,
        -0.9263757633281461,
        -1.1915934796031629,
        0.2751647633646642,
        1.1690916755408705,
        2.0923043776376633,
        0.23132137356866853,
        0.8179065638323282,
        0.8423089257710911,
        -0.5486308446685296,
        -0.32015500682314035,
        1.3601640697814825,
        0.009343260524648622,
        -0.22287019385129542,
        2.4220289092498537,
        0.48422447751854286,
        3.056772882375946,
        -1.1865282256248315,
        0.4692793557449758,
        3.119411706015703,
        -0.5769408958874388,
        0.4174276959519637,
        1.4761589218357867,
        0.07168738947065421,
        1.8170363925743762,
        1.171327284954884,
        -0.08445007555859632,
        -0.6801079535121012,
        -0.33401150752590486,
        -0.27911657607460066,
        0.753059718259905,
        -1.0691881031723,
        0.12297430069789955,
        0.7581160934316485,
        2.9641023698527236,
        2.3909179605572546,
        0.1303542117689176,
        0.6071478535843443,
        1.4375057387745829,
        -0.15870241251942258,
        0.6110391839062688,
        1.874872138396984,
        -0.3819415689718823,
        -0.05632918129674394,
        0.6296344239446152,
        0.7607063984876103,
        1.0613107905080377,
        -0.227198666238164,
        0.5215554703731533,
        1.7938256224911355,
        1.455232907142081,
        -0.858589506198702,
        0.6459993470849668,
        1.2600505472101915,
        -0.888898371682911,
        -0.37687141623497467,
        -0.38761345156152877,
        0.33705267312501697,
        -0.09406852884761292,
        0.20673253499775326,
        -0.014765553525028868,
        -1.943622241075777,
        -1.2792239101957499,
        -0.9310897001987286,
        0.16031768331784646,
        -0.26699900935552173,
        0.026852536164349385,
        0.015443432757270961,
        -0.17962348852966167,
        0.8927531651320781,
        -0.12330091307749257,
        1.1935268730047697,
        -0.8712096273268375,
        -0.6023005079389087,
        0.656594511550755,
        0.753047683554639,
        -0.47606728803649456,
        -0.31170303529253846,
        -0.5482474015977212,
        -0.9263907381176143,
        -0.45563730666714963,
        -0.34967677130580394,
        0.812434092240466,
        1.6927068733088277,
        0.8054643673803777,
        -0.24784497530878127,
        -0.48147599478864866,
        -0.04304591654038838,
        -0.8130781761805663,
        1.1021482034765075,
        -0.23843845514973552,
        0.8196576217881872,
        -0.47351761929051867,
        -1.7441327261904067,
        0.5934975231380507,
        0.33455602407814466,
        -0.06857010411032013,
        -1.292720201587775,
        -0.1907486358205428,
        0.6599411237027248,
        0.64947048641863,
        1.4122700869769391
      ],
      "Bias": [
        1.4769254894911383,
        -0.04934909284116073,
        0.9366639784336676,
        -0.02397735080849084,
        1.1321447996521594,
        0.7856624132461234,
        -2.094910093125618,
        0.8838534109462898,
        -0.046941370888693365,
        0.3789299153918752,
        -0.00011004422560374595,
        -0.028777798294817164,
        -0.18986992071689737,
        -0.7835713254387177,
        0.04918966728355749,
        -0.28317914916299153
      ],
      "Size": 0,
      "Activation": null
    },
    {
      "Type": "Activation",
      "InputSize": 0,
      "OutputSize": 0,
      "Weights": null,
      "Bias": null,
      "Size": 16,
      "Activation": "ReLu"
    },
    {
      "Type": "Linear",
      "InputSize": 16,
      "OutputSize": 8,
      "Weights": [
        0.14333235778127998,
        0.23562920934229598,
        0.2115724527820867,
        0.20176226176973955,
        0.3180242114481785,
        0.4939625658365539,
        -2.63335756659149,
        -0.9885890475692095,
        -0.33051360435122673,
        -0.5993368915937681,
        -0.7123948041187428,
        -0.060805224058083106,
        -0.7429685509398961,
        -4.233053095257258,
        -0.888191208387446,
        -0.5367784949526127,
        -1.3031419934566433,
        -0.20043209996809574,
        -2.063781354631305,
        0.3074484479147321,
        -0.6921028962016273,
        -3.2262353033355304,
        1.3179851763507224,
        -1.2533047309464083,
        0.1228015769905782,
        -1.922729298195603,
        0.31259065281289855,
        0.2320446836038385,
        1.4457677353807812,
        -0.500332118833272,
        -0.7358797185168252,
        -1.0033552894118667,
        -0.01241640285591541,
        -0.33026492460066287,
        -0.40162746370716235,
        -0.2877519078750669,
        -0.22616488207094362,
        -3.644682844439052,
        -0.9015684851986461,
        -0.07454876110523342,
        0.26815137272907097,
        0.21775321358455577,
        -1.1377533437497935,
        -0.2722645152599461,
        -0.4846567038304229,
        -0.17837157950069932,
        -2.777209300237342,
        -1.260750979442977,
        -1.6318483085145945,
        -0.0432933709241282,
        0.15048309055737605,
        -0.22452036835611586,
        -2.707765058718034,
        -0.17821008401767435,
        0.20410700151681652,
        1.0496244166097288,
        -0.2694243588366638,
        -0.11835046502448311,
        -1.1256346891645768,
        -0.30685195919065744,
        -0.553600491502166,
        -0.4437371577508624,
        -1.583138848949496,
        -1.5930434713351025,
        -3.5463489101753196,
        -0.309154678972298,
        -0.7938123291964478,
        -0.2751608077433712,
        1.4913436267371463,
        0.7520859894690676,
        0.5927224082410668,
        -1.629018356032806,
        0.22179671417902194,
        -2.050887495061841,
        -1.9217147845676263,
        -0.21660125039576955,
        -0.9752666896310143,
        0.2048392211685002,
        -1.086272760553095,
        -2.5308041129519787,
        -0.3820407364766399,
        -0.1444911362804436,
        -0.27024769175432195,
        -0.3378206767242671,
        -0.6399096612030473,
        -0.31031018445303865,
        0.1607784228350734,
        -1.5571893641601422,
        -0.16968851197516013,
        0.04601081438598622,
        0.13408298924866013,
        -0.21607230519004503,
        -2.0069072204681193,
        -0.2784148152400559,
        -0.5085555219884766,
        -2.4399457221288015,
        -0.6810231820072848,
        -0.07128922444861785,
        -2.940596940458857,
        0.12114232952621466,
        -1.0708903119437374,
        -0.2903222469694838,
        0.09460164853192929,
        0.15090735347134962,
        0.025536465149222035,
        -1.1991618325199478,
        -3.144859773251947,
        0.197485827481062,
        -2.0190045048851064,
        0.20114616533768778,
        1.593086669050427,
        -11.897067714122587,
        -0.49878819514896916,
        -0.08970324473962729,
        -0.5555443719683352,
        -0.31412650971252276,
        -0.44719015906997317,
        0.046800580041201696,
        -1.0387098539056143,
        0.5509124017620094,
        -0.1635340575009947,
        -2.66845337969912,
        0.9756862408579197,
        -0.23343825596606296,
        -1.88655575912249,
        -0.3704750656663969,
        -1.5395184066837717,
        -2.2385834431699925
      ],
      "Bias": [
        1.9600483986936985,
        -2.4194798066241368,
        0.7024617641692263,
        -0.37368791509999705,
        -0.27573512693421615,
        -2.1479233520984056,
        0.6798856631481721,
        0.11889480682640932
      ],
      "Size": 0,
      "Activation": null
    },
    {
      "Type": "Softmax",
      "InputSize": 0,
      "OutputSize": 0,
      "Weights": null,
      "Bias": null,
      "Size": 8,
      "Activation": null
    }
  ]
}