{
  "Layers": [
    {
      "Type": "Linear",
      "InputSize": 52,
      "OutputSize": 80,
      "Weights": [
        0.40723264646562257,
        0.3356197999671083,
        0.3411286731395689,
        0.1945576664428872,
        0.3723053835176188,
        -0.2711904976647606,
        -0.4199107996701741,
        -0.40257963493941107,
        -0.3435474725188654,
        -0.16539876603182194,
        -0.01821371898817105,
        0.12459678022974363,
        -0.37118299357939766,
        0.11518885545774483,
        -0.29291864964890946,
        0.3014430356120378,
        0.11002549518979264,
        -0.026199941484284114,
        -0.007386758716062737,
        0.2664560706601823,
        -0.3360379084862601,
        -0.16898959556161902,
        0.1386611568669176,
        -0.13707667241972704,
        0.02638657471343962,
        0.08396751697220033,
        0.11802641528360162,
        0.2994033866600765,
        -0.05872137263473706,
        0.014534186555056665,
        -0.19283375081665957,
        0.36893635193135477,
        -0.1142795733498191,
        -0.25518250924482805,
        0.21600794856789476,
        -0.12723278109670966,
        0.21154512936365194,
        0.07615332462691002,
        0.08180593228865977,
        0.25306326074289226,
        0.1563402205333274,
        0.36975417105946223,
        0.24290124386795256,
        0.06037323996166806,
        0.12956108078453843,
        -0.16743481353667083,
        -0.2481622780447795,
        -0.263947586607627,
        -0.21619750013138653,
        0.008535901625492233,
        0.05237193372097508,
        -0.07838208145669331,
        -0.20410002560220558,
        0.019343109221084995,
        0.1182985801592023,
        0.16493224114208863,
        -0.15492476886068218,
        0.10221387688077532,
        -0.1835979692734499,
        -0.15763710199265493,
        -0.05524206093963185,
        -0.14407768450558892,
        0.04750697163948123,
        -0.1865087100120801,
        -0.19410239725474746,
        -0.18807480567451085,
        0.08829427409706743,
        -0.16010014554779092,
        0.1307880443484558,
        0.17625787611133364,
        0.16670989399138872,
        -0.059290055263231556,
        0.10800018594936996,
        -0.11510651610095475,
        -0.19727430829231205,
        -0.09437470623639957,
        -0.0007562293818038375,
        0.03121123159243017,
        -0.10383250190777206,
        0.05100115043586937,
        -0.011883501324599427,
        -0.07272665053303491,
        0.09256225765360382,
        -0.1919481076014018,
        -0.04488690274914471,
        -0.01584321966338057,
        0.12238093907204546,
        -0.12170544590862968,
        -0.11634204013438045,
        0.041703945066926165,
        0.17056209457467453,
        -0.14254982556133403,
        -0.15864376704198788,
        -0.08573272350601138,
        -0.04918752172595039,
        0.1311831368630064,
        -0.10633874542300713,
        -0.034258213371570166,
        -0.14265917979741113,
        0.0704641112988052,
        -0.039063196989297944,
        -0.16837657052610783,
        0.009788863714358075,
        -0.1377831049144076,
        -0.134008940717026,
        0.112625291371136,
        -0.3011658548655034,
        0.3859666344919087,
        -0.2339211120757294,
        0.2681180998717144,
        0.05558966155288634,
        0.27194428351113725,
        -0.2783582828470021,
        0.24036414397324168,
        -0.23071047723392593,
        -0.29714163265441373,
        -0.18877455334689353,
        0.31128652152866265,
        0.23008344086514523,
        0.15355033852076885,
        0.09450721041714573,
        0.1838861822470268,
        -0.04314763368445097,
        0.10573107489163566,
        -0.1332009546632448,
        0.24782847524689006,
        -0.03943497282752432,
        0.0620339049427475,
        0.10493095795172142,
        -0.031193171428496164,
        -0.20678940051065944,
        -0.2924013670353392,
        0.11318959552209192,
        0.170772920276288,
        -0.029193350704368105,
        -0.22341235531106116,
        0.25453732685230035,
        0.12361374631905288,
        -0.21608754799678156,
        0.04468096465901706,
        -0.0742994693738996,
        -0.2810653018365695,
        0.24508016244026778,
        -0.0016921497112242856,
        -0.034601800281197095,
        -0.18518380735216777,
        -0.1541512753419247,
        0.26604686758046614,
        0.11071764394700905,
        0.12182286836396204,
        0.15698941300362992,
        0.15765440863082092,
        0.36069560202086226,
        0.03427461782393493,
        -0.14024795774231125,
        0.19455768771806353,
        -0.31251383596110355,
        -0.2867052722566513,
        -0.3572269817211247,
        0.4068277096711056,
        -0.4280968750341609,
        0.3263734151023621,
        -0.04794763899022752,
        -0.34538082059975056,
        -0.18896828358515816,
        -0.0788000734086384,
        -0.3490637928126451,
        0.4447428977997024,
        0.09242948051973832,
        -0.3450958189295391,
        -0.2232132692333964,
        0.2788862183603679,
        0.040221651642447544,
        0.11024159218339008,
        -0.07788743838769771,
        0.09668946817982868,
        0.08421122952779811,
        0.051235781261391417,
        -0.10639300834844725,
        0.10529382930842039,
        -0.20585827556237965,
        0.06935412930231095,
        -0.03362875357073261,
        -0.05849766632561116,
        0.18978150696616436,
        -0.26705997820217203,
        -0.26792982712057284,
        -0.003674993038953853,
        -0.28692754122656133,
        -0.0075375333926523845,
        -0.31226857629422394,
        0.18754670650727093,
        0.04069098541941977,
        -0.05945087866279403,
        0.3764482200506213,
        -0.037936252580207615,
        -0.029133142340321657,
        -0.26405046849441693,
        -0.35205518864334084,
        -0.058790649127836034,
        0.009124417011734491,
        0.015353903942352764,
        -0.09901120034896295,
        0.10314257381151735,
        0.04292213543244422,
        0.12595412515360457,
        -0.002952145079507999,
        0.019590468305416078,
        -0.3556311022631743,
        -0.27695645814563874,
        -0.42780071845323075,
        -0.453303602099832,
        -0.3017162692567958,
        0.2557986687584444,
        0.27394878566449793,
        0.2966253587938472,
        0.3967447909940734,
        0.30154692892751905,
        0.2965248944946932,
        -0.37757993488204866,
        -0.07397367875962994,
        0.14082810214432087,
        0.32936402467060605,
        0.11053666695102012,
        -0.050292977556179085,
        0.26998880703255634,
        0.02918576399295472,
        0.1316300923722021,
        0.20130611839006216,
        -0.20528042316593287,
        -0.013009451699835037,
        0.09557564234695577,
        -0.02677496798538968,
        -0.04405197243628551,
        0.019691254296358214,
        0.06186953199667541,
        0.31835406160999574,
        -0.14564659460947504,
        0.1814422672147272,
        -0.2816254643880499,
        0.34190786362610737,
        0.32196459491974766,
        0.09513887697856327,
        0.046955260800610216,
        0.05074457209868561,
        -0.21132591597801154,
        0.08916654498551879,
        0.09836252575564357,
        0.21818518122280273,
        -0.27104005681067056,
        -0.23764402378930188,
        -0.24325162383419344,
        0.1856067141663211,
        0.28847579135953955,
        0.2928877265220469,
        0.011745268592507482,
        0.35363779267439194,
        0.2587031902464361,
        0.11598160434677598,
        0.031613955034827626,
        -0.11076359555433435,
        -0.22628179563384704,
        -0.08652521637395583,
        -0.38007801782766243,
        -0.3011018555482663,
        0.2065682305362195,
        -0.09998268987363382,
        -0.3405437523643026,
        0.152899940368817,
        0.20748586800640176,
        0.4026128532284779,
        -0.2673189414495688,
        -0.2847808631503654,
        0.253689220033926,
        -0.14490673440716884,
        -0.09355003463791015,
        0.13201042850161454,
        -0.007338613569636771,
        0.06578262531704002,
        0.34989205212280394,
        -0.024107541481376754,
        0.06656796681699108,
        0.08183716765950146,
        -0.029681814076873796,
        0.09127924515631514,
        0.15639219570590146,
        0.21168991755817265,
        -0.05231661447672306,
        0.04835783100577494,
        -0.04078151746942232,
        0.23682425553481426,
        -0.2334863225597584,
        -0.2725869034685701,
        0.2629646900626368,
        0.20923267100744083,
        0.0005271083999759881,
        -0.030521491766554533,
        0.05313076053393195,
        0.2506546788648011,
        0.16457720948149102,
        -0.050054364054193536,
        -0.1109164923357116,
        -0.1705724039454582,
        -0.05947976869635058,
        0.11014772068540235,
        0.00795976282130489,
        -0.2994888836356178,
        0.05031277470224073,
        0.19604727561974544,
        0.2078570158884887,
        0.128510933179416,
        0.13606746736283623,
        -0.1925799501528911,
        -0.21874244724400518,
        -0.10874487358970841,
        -0.08165646914132992,
        -0.11369548811753195,
        0.2797731864886892,
        -0.27879962594650465,
        -0.28226860033618734,
        0.3363648913005676,
        0.4357201008926468,
        -0.08959568597211812,
        -0.23180274360748207,
        0.4570865676020012,
        0.3337365434239741,
        -0.2665919045434158,
        -0.06960188933773861,
        0.04199520086402898,
        0.15984071960507376,
        0.010101538864302132,
        0.2979912312481383,
        -0.01724617147378724,
        0.004861877968156324,
        0.20056302636873716,
        0.016219368963077133,
        -0.23065310599770128,
        0.1901500765469053,
        0.07570700770225665,
        -0.08207510328868062,
        0.22994213628468232,
        -0.09245200316195956,
        0.27358878901037553,
        -0.17347089935824891,
        0.012338987896609066,
        0.24229323754177928,
        0.11927847386520062,
        0.10262827542794326,
        -0.03091959303742769,
        -0.1316521608262597,
        0.31748156550555934,
        0.05186864756886686,
        0.06078411747556373,
        -0.2994314020371749,
        -0.35146303300764276,
        -0.3051919443982312,
        0.08619626695775853,
        0.200485093447626,
        -0.08497099283147264,
        -0.08208341287807036,
        0.37997593203577495,
        0.18162032787123547,
        0.3161071508173341,
        0.16498872574247175,
        0.31220227113859705,
        0.2833195468809669,
        -0.3535316472118665,
        -0.38542995416079945,
        0.29742021821501863,
        -0.002050409880056811,
        -0.17721888609401615,
        0.4433742773586757,
        0.24812774365567708,
        -0.08363417713981511,
        0.4147494018901494,
        -0.15670528385206828,
        -0.28144717196497493,
        0.08569727800037784,
        0.09834466503574962,
        -0.10234661610133289,
        -0.04278847487371301,
        0.08564884742639466,
        0.08857465457346986,
        -0.05355053706044545,
        -0.060986180567437674,
        -0.09627708046926965,
        0.05471301544384831,
        -0.01535825445352063,
        0.03580120779433554,
        0.1077811240684879,
        0.28911711900439857,
        0.2065557246359062,
        -0.13793719754855294,
        0.271376999883674,
        -0.004715779294751439,
        0.3726619008840154,
        0.09553613754801417,
        0.16163256337648838,
        0.3094386947647168,
        -0.044050391601515075,
        0.13525986768949086,
        0.1603792762427706,
        0.04119087043785069,
        0.1604848631253496,
        0.15328624270733432,
        0.34472897035642425,
        -0.16794748534119722,
        0.14017890496844987,
        0.07449136573821656,
        0.3005296620934129,
        0.24550974314623578,
        -0.2178322567359777,
        -0.14812995147815816,
        0.14530275337944032,
        0.16931374566703244,
        0.10283463975232929,
        0.011922200018927047,
        0.32136129232161365,
        0.24638285333387272,
        -0.2050233126281343,
        0.11893421377701703,
        -0.08239791698052709,
        0.10229204357714118,
        -0.40198895453067884,
        -0.09303575490693165,
        -0.3666276358256866,
        0.3748750823624952,
        0.0636844240952425,
        -0.365644603222585,
        0.38399065791459697,
        0.17686253985483347,
        0.07045230155790132,
        -0.16237550398989645,
        0.037410978125607994,
        0.0042750675806593474,
        -0.08414184847409048,
        -0.22477136269951603,
        0.006441529411006799,
        -0.03794420391593891,
        -0.0452150764616331,
        -0.05255265593327448,
        -0.12925836657202866,
        0.11953527776444546,
        -0.117022928732332,
        0.02350671498829677,
        0.14700831500016137,
        -0.25686114617723277,
        -0.07420677282551477,
        0.09063104979576905,
        -0.14979398358927348,
        -0.014677093886870612,
        0.1001979677667116,
        0.0032585345960880795,
        0.09540683237854072,
        -0.15907256517469162,
        0.07156786744285289,
        0.04105771275544074,
        -0.16057493623931085,
        0.40408135171598036,
        0.30658475289006365,
        0.22672012846993778,
        0.11493802864700557,
        -0.011273664619598766,
        0.05881539647738133,
        -0.3199539075446925,
        -0.017694077899474206,
        -0.04542615055620208,
        0.09158227289221094,
        -0.11395190972791264,
        -0.1844179347580859,
        -0.17088790495153874,
        -0.19190763292884588,
        -0.018980570847787762,
        -0.08024475437176704,
        0.12576353778641347,
        -0.05831653227915191,
        -0.14264125761305413,
        0.059691044071451094,
        -0.11833365115448725,
        -0.06856323554254307,
        0.06480057632810328,
        -0.03398548229826097,
        -0.11071008651511442,
        -0.18911271955431588,
        -0.05971468795795542,
        0.1507550487442812,
        -0.15823777234203631,
        0.056867915511690376,
        -0.1672854388169921,
        0.07958592041768682,
        -0.117023905941902,
        -0.10965029552604509,
        0.04334296421565492,
        0.035879476127144275,
        -0.09808216108779388,
        -0.13420252034745217,
        0.1486184790982528,
        0.16981959035700095,
        -0.18285472410867493,
        0.016676796288795002,
        -0.18704651316914148,
        0.1293785088741047,
        -0.10549185678201001,
        0.1796593727830211,
        -0.12395955496277426,
        -0.04820744286075086,
        -0.05379081521655557,
        -0.159768048015167,
        0.05693699585731927,
        -0.14854507110550774,
        0.04168959352073452,
        0.14197388927730978,
        0.16173585695781423,
        0.04476265840456758,
        -0.17414934778102992,
        0.030778388206995928,
        -0.09593641194954111,
        -0.14623695611408194,
        -0.013635924102273716,
        -0.060133075032798286,
        -0.25273218335992537,
        0.31533706994584715,
        0.0324978331316798,
        -0.22414895018062705,
        0.3779474530598396,
        -0.021267344045051373,
        -0.28896434401081017,
        0.3996591652948548,
        -0.11372179116797385,
        0.31024917882003955,
        0.20192216883417685,
        0.08098193977719723,
        0.3221328580423125,
        -0.16857668495934658,
        -0.24953440714447728,
        0.10906625778097538,
        -0.2069636842425494,
        -0.20727952017598447,
        0.07330868760936862,
        0.05032457287340601,
        0.18559647955469086,
        -0.21182122070653736,
        0.2353300129341637,
        0.21292097185599204,
        0.0004818458268826881,
        -0.0027061074609332826,
        0.1521708879547426,
        0.25485517929378776,
        0.01129970548262394,
        0.3194380824989443,
        0.2973434674511199,
        -0.06516638253135919,
        -0.1723419430586889,
        0.11086715847726343,
        0.04834555006536259,
        -0.26405471197509905,
        -0.009279090314987987,
        0.23557529681554243,
        -0.2682434363022595,
        -0.010764803563375308,
        0.18726467420536955,
        -0.1314599456777924,
        -0.1428387922773848,
        0.42739754291876764,
        0.11046068744008755,
        -0.09366854973422717,
        -0.2767715982653324,
        -0.3424068736615515,
        -0.20467864700157212,
        -0.017682947917248927,
        -0.0038568974903445247,
        0.3354651411109676,
        -0.15985554613038344,
        -0.20793438195289177,
        0.4124854428133559,
        0.16478263828397863,
        -0.17206166407484713,
        0.14958306030825708,
        0.18505637679410927,
        -0.27455752253077265,
        -0.20618728097340294,
        0.2385992809028387,
        -0.009326277482926089,
        -0.30693137047215013,
        0.3872677660900669,
        0.2898683776334768,
        0.19614586416164026,
        0.28244199726965874,
        -0.03923881737514663,
        0.2961627763711211,
        -0.1229017588335651,
        -0.05951152831777204,
        -0.2901675871706956,
        0.1553383299777316,
        0.2568453179699686,
        -0.12239814205141265,
        0.02914445592367641,
        -0.14538266062780117,
        -0.09800285104821302,
        -0.055942499161278504,
        0.04383385981055116,
        -0.36044999772517294,
        0.2640384045469078,
        -0.13870683122560235,
        -0.0087178298592528,
        0.40009225232437445,
        0.05401425826717149,
        0.41093161103562065,
        0.20496112513277412,
        -0.28191890790476176,
        -0.061023503512216346,
        0.11192784587060516,
        0.02367159197509254,
        -0.020913403928281084,
        0.40400496543203535,
        -0.17887675116459548,
        -0.04831539606723927,
        0.23692856355825642,
        -0.003424820338335738,
        0.394423602296221,
        0.22834318202040393,
        -0.005962462297778506,
        0.12943531855980478,
        -0.0874432631706457,
        0.27529329284554066,
        0.39027596264048053,
        0.4057640072284952,
        0.3649459724170236,
        0.27050348497857496,
        -0.10340481181586521,
        -0.34827279783116005,
        -0.14528926407985784,
        -0.04558900220573431,
        0.37428545619296805,
        -0.3271693623758567,
        -0.22739788312345507,
        -0.04742879490066664,
        0.02311346746697677,
        -0.3767652815480189,
        0.260779085292637,
        -0.16583512316414237,
        0.026195483467782037,
        -0.262507878440415,
        -0.2877308695717161,
        -0.09544738373153232,
        0.20033541455565343,
        -0.14143397305537836,
        0.02728447232342882,
        0.045347810563038285,
        -0.013339327003046879,
        0.23270555983158503,
        -0.13742898173279536,
        0.005388764297751029,
        0.16578187914221654,
        -0.15420279291238873,
        0.28654954891764334,
        -0.36993687649993745,
        -0.13427305536520592,
        0.19768746301609472,
        0.05460242900173974,
        -0.15195955045899906,
        0.22214438667666944,
        -0.16584492434073506,
        -0.07694014612626997,
        0.19389519549864284,
        0.35414203394780996,
        0.2820854684241588,
        0.2585034632651749,
        -0.060515099475928445,
        0.028676510813516787,
        -0.07896907436889596,
        -0.36692307515550154,
        -0.17974081823300975,
        -0.07231838221495027,
        0.11723096154802691,
        0.2368049926648748,
        -0.2904092178720186,
        0.35227345066458904,
        0.4341282882961559,
        -0.45031574674756364,
        -0.030005223549999287,
        -0.25574358275105585,
        -0.3719471706333869,
        -0.4127375498702834,
        0.4648654768712262,
        0.40533176348068634,
        0.40958237401997966,
        0.2650151898998974,
        0.3319161923570438,
        0.16773268626085372,
        0.03057416278490623,
        -0.07361270580057892,
        -0.1336511005298708,
        0.059544710874398755,
        0.027945440143781537,
        -0.061142145399632565,
        -0.07011433315684396,
        -0.1893623152380592,
        -0.04822430883024954,
        0.03185516857762396,
        -0.12732678777727832,
        0.05227791676570982,
        -0.03862457040733123,
        -0.06192076213832048,
        0.002693353490578212,
        0.2721302812863555,
        0.3534588412741585,
        -0.24798357810106178,
        0.2032725360886813,
        -0.15418559664655412,
        0.08811927468667509,
        -0.09394944749467192,
        0.012164686021448587,
        -0.01965433928167907,
        -0.046565516309290296,
        0.09522381465274429,
        0.103587050543088,
        -0.2283375570150683,
        0.08747455017269466,
        0.42232433359900945,
        -0.08207138234550694,
        0.18338046572076813,
        0.23812571657469533,
        -0.15107922670467022,
        -0.005028192930022205,
        0.05447552599483423,
        0.3153814949008302,
        0.20589448755823525,
        -0.2086037721993871,
        -0.3475223127303117,
        -0.18233682124211953,
        -0.36128912589861567,
        0.35050093032085705,
        0.21370241436908585,
        0.35263109734884357,
        -0.07091553773302302,
        0.1193581410743711,
        0.3451464349353643,
        0.2649902480649119,
        -0.3201598694640131,
        0.15906200630015604,
        -0.2937366984915904,
        -0.2824214510721324,
        0.05319930374921345,
        -0.11407729218990717,
        -0.0679008624192128,
        0.09565297752636992,
        0.2330019346801996,
        0.07578405786712174,
        -0.1124487435270115,
        -0.09306429899620759,
        0.21125121907328598,
        0.2907804345708965,
        -0.058005003487322036,
        -0.04066580724668032,
        -0.021013693545763504,
        0.21588407108008284,
        -0.10476353957518848,
        0.23175445410272064,
        -0.24769411609180456,
        0.34674910531700975,
        0.3250654088422464,
        0.3000883390416725,
        -0.03194545042592087,
        0.06107731048756104,
        0.11431687059178698,
        0.1823894860784264,
        0.09675314560046137,
        0.12517805980017402,
        -0.3131197083781579,
        -0.21770497229067098,
        -0.056665461192296,
        0.22237202185242513,
        0.05198154047460166,
        -0.06751330182483256,
        0.2483394954405728,
        0.19789875714258648,
        0.042714944584915884,
        0.2029053744480635,
        0.24406778617735395,
        0.027285622834025143,
        0.10818497999542616,
        -0.1257130671678715,
        -0.14014343892361075,
        -0.34469091516820116,
        0.29827132029939957,
        -0.11937401894246209,
        -0.1429921412831026,
        -0.08117725605398918,
        0.07827846167346189,
        0.3089221845038944,
        -0.17676020907940265,
        -0.10624676443163104,
        0.19914202214309448,
        0.051426968120276945,
        0.03839307059797369,
        0.19984516527862747,
        0.1693260033988551,
        -0.0954453077046062,
        0.275220133500174,
        -0.11923000584807147,
        -0.03222660244913906,
        -0.054846773980653116,
        0.2728691315639369,
        -0.017025388350532432,
        -0.016630968010338185,
        -0.15164847803399473,
        -0.10827581751744578,
        0.07068333699249235,
        0.10559599783120428,
        0.29999323593179134,
        -0.16578607643866367,
        -0.09251954134888242,
        0.10644871506355916,
        -0.07768113332400584,
        0.3757609709427483,
        0.01788741325253506,
        -0.06659991559103569,
        0.21139059846154157,
        0.07427689376413407,
        -0.09706527992282706,
        -0.07603374666663452,
        -0.10036175964904229,
        -0.10481406509471135,
        0.15876060338461587,
        0.39054072604618156,
        0.10182713691214398,
        -0.031150350524460222,
        0.1596967685053764,
        0.07767380139699268,
        -0.15127244135199466,
        -0.14442274113693754,
        0.059468971467005756,
        0.3640589277016652,
        -0.28255219815663724,
        -0.33400614505303383,
        -0.09463037829326099,
        0.24533996219109847,
        0.33106440431862544,
        0.3722400180077196,
        0.38205386937540187,
        -0.3900585034006677,
        -0.03905283067786467,
        -0.23657774218285216,
        0.2588994249058918,
        -0.3097621046297847,
        0.20794599138901818,
        0.18478578723099087,
        0.2808864752906203,
        0.12040138508913598,
        -0.03133942765951888,
        0.007385831699468817,
        0.39850504405688153,
        -0.17459219232160605,
        0.19325408262034807,
        -0.007762677200638646,
        0.2611673359480432,
        0.19500875122041106,
        -0.006964354337951907,
        0.25307147463202595,
        0.2144122253399703,
        0.24348915301937346,
        0.11226123199747155,
        -0.12163752904750409,
        0.34565731040590625,
        0.23043174530745822,
        -0.24461983212100596,
        -0.2386180780228105,
        -0.01471460739411772,
        -0.20254884564740733,
        -0.000995858223214652,
        0.08133526517507661,
        0.07999027222681326,
        0.29335478123966796,
        -0.3946157896775236,
        0.37103877507397265,
        -0.027080424519212908,
        -0.11230078039706096,
        0.3680037850732922,
        0.15333714471430765,
        0.1618478139013076,
        0.18402754784166497,
        0.2589171500918059,
        -0.014413295167438752,
        0.21654364594473882,
        0.38133121169252715,
        0.13060220405580614,
        -0.41756261555513674,
        -0.30180226035066515,
        -0.1681391067926816,
        -0.06522795195412989,
        -0.08218179332567996,
        0.3128865706651698,
        -0.3801231795819282,
        -0.43495833030439046,
        -0.25651164264879056,
        0.3251943927271705,
        0.46650071624344186,
        0.2272911082909452,
        0.08961196413946065,
        -0.03928724142460261,
        0.049528155805269605,
        -0.010730586376660134,
        -0.013593700418909534,
        -0.18011852352414906,
        -0.09996891836366167,
        0.07790147634921492,
        0.2859973694684174,
        -0.15427609808651754,
        0.2567887327330398,
        -0.1392363492952978,
        -0.04850152641220924,
        0.2762102791891467,
        0.3525120548072715,
        -0.03587603693839151,
        0.24342425041032065,
        0.37453492528278304,
        0.24840061900350888,
        0.1415500704670615,
        0.11524716276199311,
        0.20507792851652518,
        -0.17569361549532328,
        -0.1560200330216176,
        -0.057970058563646315,
        0.06673282675272964,
        0.08890025067062027,
        0.16116998139305302,
        0.24968538753733818,
        0.23693049593677423,
        0.40208217964058396,
        0.11933991444586704,
        -0.25504188212097567,
        0.07296909231765515,
        0.013549196999640531,
        0.007939580127249697,
        -0.0283215474487315,
        -0.2506807545338069,
        -0.3990279285495463,
        -0.06877251929163902,
        0.44640611290871907,
        0.13543089517163018,
        -0.0322635046503364,
        0.3609923951741078,
        -0.3195069472817909,
        -0.37597961693145937,
        -0.25625910419746384,
        -0.39922600645668754,
        -0.05954962376788574,
        0.4571653625599015,
        -0.43624836076942103,
        -0.3118338604581836,
        0.2549720496145511,
        0.04287252553541412,
        0.18133888546409366,
        -0.05752705785913214,
        -0.06924078000803531,
        0.02916039716196514,
        0.0784409919764223,
        -0.11862901586998152,
        -0.1023429497452476,
        0.006229596251603357,
        0.1982308595050665,
        -0.314436225520396,
        -0.14253477518434443,
        0.10871152062844419,
        -0.12038740623842831,
        -0.13861504655816032,
        0.10441580785164407,
        0.17027783513448694,
        0.2702393708981108,
        0.02917756199933156,
        0.3321562340564645,
        0.16168954354030615,
        0.12015156569592982,
        -0.09875620806129254,
        0.047609163800636206,
        -0.04991899576065928,
        -0.004809410394396125,
        -0.3874834934632322,
        -0.40176906520241734,
        0.12558897998618887,
        -0.03576705873745977,
        -0.1606396923606566,
        0.3347972110381037,
        0.20837966698185706,
        0.018765355888417063,
        0.11471287058449436,
        0.22195948041932398,
        0.24605873916526894,
        0.01937672555693381,
        -0.05592751056771122,
        -0.4526911545648286,
        -0.07789732840467467,
        0.2808375642383285,
        0.34533913373523795,
        0.20907948828030737,
        -0.40334220764238826,
        -0.20724868078968153,
        0.31669904672045046,
        -0.04614511516302291,
        -0.009281816172801481,
        0.2557628122849777,
        -0.05647247377132423,
        0.3081344904941931,
        0.15704117713848176,
        -0.005512293019621622,
        0.3951436177281521,
        0.2889294274207081,
        0.07701634025095555,
        -0.2502149967733848,
        -0.07107242444167167,
        -0.07645719079201042,
        0.10458770012951103,
        -0.09250301562962134,
        0.07762556815044588,
        0.18975934779998174,
        0.020186007616951735,
        -0.048109722680950893,
        -0.2952164481764619,
        -0.04689872003833714,
        -0.08486275333254632,
        0.17287207561360357,
        -0.10559508664761236,
        -0.38035396857633935,
        0.22011334627652665,
        -0.1342988302285547,
        0.0081474006304658,
        -0.08143877414829143,
        0.11029171389958593,
        0.3420382442335486,
        0.17289520070735823,
        -0.06961438720434514,
        0.0028903682712981497,
        0.1286191508204136,
        -0.21516850745973018,
        0.35395485002116284,
        0.3914432130400568,
        0.12243261003955418,
        -0.2011509628320076,
        0.12622091027845303,
        -0.07344038521354183,
        -0.29803107086040975,
        0.2536454116073599,
        0.30280633210468194,
        -0.161716099841704,
        -0.12571675516201342,
        0.3512816958844023,
        0.44043918310151065,
        -0.34525713634874416,
        -0.04072236168835819,
        0.1462866178768058,
        -0.19241305823572333,
        -0.41761512568921555,
        -0.2592396358741452,
        0.25059126854206837,
        0.2413746446727399,
        -0.0022838178749473867,
        0.16823190126055346,
        -0.13448656160820446,
        -0.32445116208676056,
        0.09571313981471781,
        0.28942651393048574,
        0.19248714910319664,
        -0.006004866277604634,
        0.1962683701090143,
        0.07854743948959926,
        0.24506777584677017,
        0.2122211160590284,
        -0.06357029024029479,
        -0.08034538458157481,
        0.05513115912970566,
        0.180666976562281,
        0.0580297159357247,
        -0.01694488656170533,
        0.04062906360838261,
        0.21974194205604697,
        -0.04851103091452245,
        -0.26355745765854205,
        -0.19493427992711512,
        -0.09636341276362696,
        0.1194090727769571,
        -0.23948118583732164,
        0.39547452998782734,
        -0.19811910365450056,
        0.13698331113000603,
        0.005121609842216832,
        0.1731124178948418,
        0.3862040849470166,
        -0.4277812171834453,
        0.035275983818439036,
        0.07045642042353231,
        -0.0417693956701897,
        0.013597900204580834,
        -0.12345220363484494,
        -0.0536878523200183,
        0.12307403332218708,
        -0.03674192629812856,
        -0.10092964604150383,
        -0.1745619155275716,
        -0.15425635197225976,
        -0.14970173132644246,
        -0.17253908606961996,
        -0.16221812860815374,
        0.07053245927182666,
        0.13254558656736493,
        -0.04580873549745774,
        -0.009230635774955665,
        -0.05762286710365088,
        -0.14102480835621686,
        -0.19183058422579588,
        0.004568076735213945,
        -0.16418041776420955,
        -0.10201879230077472,
        0.16106584681030797,
        -0.08294367924011724,
        -0.17412148145230263,
        0.13026172440882167,
        -0.0673858369896885,
        0.029417796154477673,
        0.01376994235086269,
        -0.12622647146232613,
        0.15327456748912202,
        0.052992912265777035,
        -0.0813804088650117,
        0.17483115439247832,
        -0.1412112016554006,
        -0.0944195581194226,
        0.18445807499101702,
        -0.008137319493261021,
        0.044433539142763344,
        -0.13549969814148755,
        -0.16749803288340856,
        -0.16457521063263655,
        -0.07981263714512782,
        0.19394024023185186,
        0.07477035766438038,
        -0.16881603010480234,
        -0.09359585366859272,
        0.06891641713600831,
        -0.048681705058007826,
        -0.0005236474014995937,
        -0.18946862131527084,
        0.08210754727863359,
        -0.1800570467312831,
        0.03525799186070284,
        0.18593123740361567,
        -0.4203383142455592,
        0.17775196358895143,
        0.46875416381845925,
        0.07550373697345206,
        -0.052852306407055266,
        -0.0042810050220915,
        0.2959722364300566,
        0.2587752798630999,
        0.45429986921595655,
        -0.36772479392678326,
        -0.29277053538457937,
        0.3939601290326769,
        -0.15450995656696123,
        0.11591980943286337,
        -0.07627853964312294,
        0.04594527736293298,
        0.13373474968543106,
        0.15156334106604494,
        0.3188705522481485,
        0.07824263101575077,
        -0.13253284316184422,
        0.23334911178591033,
        0.30652852879065684,
        0.0759236249184113,
        0.29729470884001624,
        0.08398701339115623,
        0.10365645121273141,
        0.061485608284741915,
        0.0313791550800411,
        -0.18818796466201304,
        -0.26598376214684394,
        0.08106537515755252,
        0.033569305307589156,
        -0.042812352483233646,
        -0.13715160974103685,
        0.24371257515855418,
        0.003383908230021513,
        -0.116894144741953,
        0.0908307562363787,
        -0.3153879066864436,
        -0.3026773259903786,
        0.19466213242854472,
        0.004221647326400898,
        0.23284959520638812,
        -0.3393401874206303,
        -0.2995968487910979,
        0.137071324064879,
        0.30675113097614454,
        0.07211104967444382,
        0.2882119979278393,
        -0.36765711232327214,
        -0.26243157964216784,
        -0.34340116479677324,
        0.20493552311740396,
        -0.24521405144282388,
        0.07425955245654327,
        0.3387188285032967,
        0.09863072058376753,
        -0.3175087100931649,
        -0.27523050780134173,
        0.231982988279943,
        -0.2959121009139284,
        -0.08628776461641943,
        -0.16943025922496796,
        -0.02187125736976551,
        0.2532872011577075,
        0.14592040663178452,
        0.09020816396520949,
        0.062235575545557024,
        0.15733365736159233,
        0.16473422336554902,
        0.1695874192016609,
        0.23217471766583495,
        0.14070264179199704,
        -0.004083917437361905,
        0.052019010357202834,
        -0.07623954170816792,
        -0.0278966524721636,
        -0.0018337234230039528,
        -0.04412591004090224,
        -0.4093286738431356,
        0.22339768755126607,
        0.2827441437143473,
        -0.1525440204626846,
        -0.23208234040334733,
        0.26970422907982217,
        -0.016930792013101555,
        -0.04003303142946359,
        0.2845514423560467,
        0.0888408420485244,
        0.1121498659028153,
        -0.12240400721190776,
        -0.08153370078185085,
        -0.2529593171051701,
        0.08710442889240574,
        0.063035760224842,
        -0.01592659730276974,
        0.295588517316749,
        0.2640907298517452,
        0.03538500760844867,
        0.06508281730519545,
        -0.044150902529357564,
        -0.22588421560125846,
        0.1755701078981557,
        0.25774346727705766,
        -0.29330284225938924,
        0.18250337633175412,
        -0.2827557533019738,
        -0.2270079631426165,
        0.10160796306047216,
        0.32467084674127505,
        0.008995074831739785,
        0.46787655277592555,
        0.3403249982786035,
        -0.35414868335296174,
        0.3385864360307101,
        0.18981236381335034,
        -0.05620884072037994,
        0.08619251260410708,
        -0.12503594875130658,
        0.07411968514682638,
        -0.11356803463404959,
        0.04672274063080986,
        0.06973683540673178,
        0.06677068376457715,
        0.12128473201164901,
        0.23575753086894563,
        0.12060803734935216,
        0.0025811486013739967,
        -0.04073509780889751,
        -0.1615273101558243,
        0.3050894027950198,
        0.21113903735759978,
        0.03124064480986771,
        0.38669573956466363,
        0.06518874963292276,
        0.06587596370729962,
        -0.13237000511310223,
        0.053803730738483886,
        0.22685488150909575,
        -0.0715680727113358,
        -0.12591548506507216,
        0.012531777805971629,
        -0.053386905676342834,
        0.14545996167443465,
        0.03016259663784229,
        0.1925403829369774,
        -0.12627657164318387,
        0.3198091305988987,
        -0.06267313542103652,
        -0.2596844283361298,
        0.17867174356128787,
        0.35320914255422203,
        0.1471872529772898,
        -0.45494548647617455,
        -0.34638217669981586,
        -0.09260483451127731,
        0.2906614417053351,
        0.08224835987904681,
        0.3676459469827791,
        0.2893496793943108,
        0.05758740350290204,
        -0.3395043605655973,
        -0.26293264270508204,
        0.3918883778264549,
        -0.21159774735602768,
        -0.4225246511644681,
        -0.4127128613241118,
        0.2765388165856521,
        0.18942233598084995,
        0.15008559804917962,
        0.124492739675173,
        0.22614440917503448,
        0.03962232871989947,
        0.04455436469203156,
        0.14803789450906357,
        0.040692358964517776,
        0.16347480193583888,
        0.11784268166110888,
        -0.03271875171518992,
        0.07066777858989426,
        0.11217464678857317,
        0.24657474853887143,
        -0.2793856536283401,
        -0.14554450272898678,
        0.2895758761589262,
        -0.015220375376552273,
        0.20020994945611886,
        0.18782817445014038,
        0.30112226736255343,
        -0.07323678673980517,
        0.25243023912790163,
        0.3018039570091283,
        0.020863175704368526,
        0.17238733409944113,
        -0.4222451830429399,
        -0.09146162696662885,
        -0.05036902126394448,
        -0.11463564462638716,
        -0.05421773581984105,
        0.08652692865684854,
        0.3400856930553053,
        0.20697004783292453,
        0.06684643506641771,
        -0.03866347621727146,
        -0.07719243619070844,
        -0.14078364532111495,
        -0.10944966589532558,
        -0.3155008588849281,
        0.3023531228693151,
        0.12692265187012522,
        -0.12772117931660806,
        0.32137635238123974,
        0.05248563266908163,
        -0.23381930520719751,
        0.44998485581619424,
        0.3723227998414602,
        -0.4197208759445084,
        0.39020770882364597,
        -0.44518286782636857,
        -0.14461065677904839,
        0.02513595694243888,
        -0.023065038398033595,
        0.21968825679124074,
        -0.07582101652887444,
        0.11333238657211932,
        0.11394456025742021,
        0.12941330653367902,
        -0.03905038955298883,
        -0.03149844987630942,
        0.19478328710664727,
        0.0494792476168006,
        0.1362063521587273,
        0.16524668961434316,
        0.1675328650666244,
        -0.2653380446657511,
        0.08017744523809556,
        -0.21068683769990076,
        -0.0427261523855469,
        0.0055755897943745945,
        0.021161503726530636,
        0.15517356568295013,
        0.03871690801431223,
        -0.040049731972406064,
        0.2802612283748633,
        -0.09425052483492988,
        0.21303073622020163,
        -0.027108656631964552,
        -0.2422049284556916,
        -0.3792780725394062,
        0.00461144320725098,
        0.04433725527870944,
        -0.2678384030462126,
        -0.04520296057009494,
        -0.10419207680497414,
        0.2448379086074179,
        0.07206074132380193,
        0.14603265298961743,
        0.35557375542533376,
        0.3624405029391025,
        -0.16508696226922484,
        0.22162273612999311,
        -0.19435433049138431,
        -0.19161819462844024,
        0.02547708063706718,
        -0.20828044025304707,
        -0.2806448072832796,
        -0.32624912840362164,
        -0.4004559815292426,
        0.43867070497649807,
        0.4886697360792025,
        0.26097035728012213,
        -0.04574372348852735,
        0.0016728632755297827,
        0.33404021958341207,
        -0.08301454913776972,
        0.2889257498883864,
        0.18116846659725117,
        0.05839939692320911,
        0.10433195649083202,
        0.1434639514944964,
        0.053549954955297886,
        0.08841296767986755,
        -0.008538017858826527,
        0.17519812880807697,
        -0.12524729345108146,
        0.019424847043498217,
        0.21260691173510476,
        -0.1481873301476683,
        -0.0459248413597627,
        -0.16494507359990127,
        0.10292154460498626,
        0.04289020410517956,
        0.26831536816975743,
        0.26077952261370735,
        0.03135952182869244,
        0.13387244445591592,
        0.05423272702331222,
        0.07625601193805989,
        0.24060619001051572,
        -0.16730458269568724,
        0.2800489731103275,
        0.24280527871754568,
        0.2754228803619564,
        -0.11995477903969337,
        -0.30312857550040134,
        -0.046464295872475116,
        -0.10650661296008866,
        -0.2635133708784952,
        -0.0033124453904637414,
        0.1249396150175802,
        -0.16707810535395376,
        -0.21763708171158533,
        0.004196826349288869,
        0.10979260413047653,
        -0.1745630242525738,
        -0.2085088080149015,
        0.22901123136125398,
        0.10175105283233649,
        0.4247167564174858,
        -0.41131021285089964,
        0.36499050702412966,
        -0.23489277606012532,
        0.47025694792166123,
        0.12384688487890155,
        -0.05533751459313138,
        0.1444454264564514,
        0.09208361256947346,
        -0.24050595087474508,
        -0.18746085822055233,
        0.022049976606250146,
        0.15048436139098087,
        0.07017569617003591,
        0.014137225732692897,
        0.19006343890355318,
        0.2067338616657169,
        0.00461724613713854,
        -0.05319155664075896,
        -0.010400098756288355,
        -0.026528635582141857,
        0.32475478879476966,
        -0.22637576119105612,
        0.2598781873571522,
        0.2370149720921871,
        -0.017581296148060484,
        0.2453530602483317,
        0.2355125797941146,
        0.2881847914348911,
        -0.13071821394731817,
        0.029575366466829987,
        0.07538556306667994,
        0.034757501019406715,
        -0.40501355056814403,
        -0.24093484666960488,
        0.09761452133410035,
        -0.0037212295294823537,
        0.12100899286131771,
        -0.010952223356194855,
        -0.1704503578238963,
        0.09876697855473414,
        0.08932447851937701,
        0.21573109358811995,
        0.33274654481898175,
        0.36360340986785633,
        -0.4315661320418356,
        -0.36054016976406456,
        -0.37106617018638954,
        0.05264327620219025,
        0.3822064588074599,
        0.14453901966379412,
        0.39405319805048356,
        -0.36002750357641666,
        0.13672019152047551,
        -0.3809400865721523,
        0.1685746369076041,
        0.33251865932064767,
        -0.3356825179488271,
        0.09853774241692162,
        0.1717230335485306,
        0.048177871015330956,
        0.216972399242735,
        0.22205010592131502,
        0.07709629530898789,
        -0.01593474464701671,
        0.23662595542250212,
        0.024451108593400432,
        0.21342732519702928,
        -0.13471384579830942,
        0.1857382510961993,
        0.24503635179072542,
        0.050941470107499075,
        0.21033897108341945,
        -0.08711159397546071,
        0.07966734446402926,
        -0.0028173411507635042,
        0.1743071405455346,
        -0.014958071821749111,
        -0.06295335761753135,
        0.04764818958073557,
        0.052428452836345674,
        0.2501529758334996,
        0.11478519444458507,
        0.17516234053216087,
        0.3607759842533661,
        -0.17680754818706773,
        0.06472553335192162,
        -0.0015074902599649415,
        0.25370685051132646,
        -0.2972077505401818,
        0.22709902961624104,
        0.29516345009732836,
        0.11024628695522148,
        0.05366592829438272,
        0.17858122199206905,
        -0.25654908225183465,
        -0.22031258660120526,
        -0.19777887267262328,
        -0.3924402217239671,
        0.4292857069547942,
        0.22267377120757767,
        -0.15895930077612963,
        -0.2791894412622542,
        -0.1052063864935551,
        0.23105046837129908,
        0.5105243297401254,
        -0.3166996171668127,
        -0.37368189440168303,
        0.4050294937393704,
        0.22245251163076404,
        -0.004985807818485548,
        0.16507723570437804,
        0.1095920484872635,
        -0.022033171054565648,
        0.2717019980190431,
        -0.1509313119262379,
        0.08069099969631634,
        0.1710712574645595,
        -0.015313081226996234,
        -0.37533799062949036,
        0.20663174671683152,
        -0.15879252201279045,
        0.05053467486254379,
        0.24689224656328865,
        -0.25877345385042566,
        0.30608351964977126,
        0.3296042351638613,
        0.17528261209043883,
        0.04704450270460265,
        0.07647866780535671,
        -0.0959746428041614,
        0.018121392009676832,
        0.0916664404080666,
        0.3496511258806238,
        -0.08773456441475083,
        -0.04243460866232956,
        -0.04949886821928795,
        -0.324222347666437,
        -0.18327294321595122,
        0.26364447715142875,
        0.07689998522044791,
        0.32276440192327194,
        -0.15486140157956707,
        0.06467427360977003,
        0.25267205301688545,
        0.22333244414416262,
        0.07043986878041461,
        0.06962898641029261,
        -0.24462741297990076,
        -0.37704658768608273,
        0.12587809418963086,
        0.34900763164016896,
        0.03233127599453372,
        0.10058899296416125,
        0.42036260769284206,
        -0.207320019994783,
        -0.45587610445903626,
        -0.4044760654571486,
        -0.409225408091821,
        0.34329054857517255,
        -0.4367330295305558,
        -0.29599828490893465,
        0.2640554159339537,
        0.11964069629829739,
        0.07614511215716724,
        -0.12897917233595727,
        0.12423938641543367,
        0.1254911326430824,
        -0.015774475876158985,
        0.07287406339791277,
        -0.16629003990379287,
        0.2128195812731597,
        -0.10112342594917892,
        -0.04174761409756831,
        0.1846046725765742,
        -0.1636944324770711,
        -0.11572374533234851,
        -0.24589165087212841,
        0.39769956836350906,
        -0.213065652987825,
        -0.16169532598995012,
        0.06923715538585978,
        -0.18321384216646405,
        -0.0449154945899474,
        0.32376217388062983,
        0.02278196233283181,
        -0.0474417059011419,
        0.16376233376228935,
        0.3253985481554312,
        -0.20857377741502484,
        -0.3077904852620485,
        -0.01104418027693113,
        -0.1733954349956862,
        0.06668881896406474,
        0.3867935028529326,
        0.01917793758333658,
        -0.2035936693738192,
        -0.26385331276772117,
        0.14969633871827917,
        0.3433564495897688,
        -0.02408008247775982,
        -0.2973363365477338,
        -0.395260901995013,
        -0.14858573412567394,
        0.021606252792508232,
        -0.16574826109903895,
        0.3334669479244502,
        0.48784959296968805,
        -0.29447466969400593,
        -0.11234463118837383,
        -0.1829287261811853,
        0.3648128761108773,
        0.11583810178512569,
        0.3706388173960248,
        0.03570554240455537,
        0.04233657514898656,
        -0.0704593573931208,
        0.15278617267183714,
        -0.10656576832229506,
        -0.05750717108901594,
        0.12657737462908264,
        0.07145443966284593,
        0.01811228503438932,
        0.20446801503001472,
        0.04979470795327303,
        0.09793047370796942,
        0.17265668243952934,
        -0.07133571740239425,
        -0.010272145467158387,
        0.17819929932936426,
        0.18439568791581099,
        0.15226685652937247,
        0.1822257227822788,
        0.0448545847884027,
        0.18657880462289633,
        0.22390211672002414,
        -0.08768397932111423,
        -0.18021372676928268,
        0.03825945166030025,
        0.046371073018588345,
        0.2927677476544946,
        -0.3436842973545308,
        0.0277249679843194,
        -0.10002916176721986,
        0.053766862235680286,
        0.25019447184065335,
        -0.32197736596251786,
        -0.26458957482087225,
        -0.04677903345527266,
        0.1950916994280672,
        -0.022863021893627,
        -0.10142084452623551,
        -0.17108450426141542,
        -0.24876197193061855,
        0.4680833668753958,
        0.4115275535403018,
        0.4068042027509247,
        -0.22882993553101078,
        0.0014499387104099579,
        -0.28518849957317277,
        -0.3477599038795634,
        -0.27632271998761376,
        -0.21231136767922962,
        0.04082182746643045,
        0.5002322653903895,
        0.36912171259255994,
        0.22859514286766994,
        0.02216785104761791,
        0.041239001629663555,
        -0.04828441051322528,
        0.019476056308505265,
        -0.10332650518392304,
        0.0433261402905098,
        -0.037581307593458305,
        0.07491892200956286,
        -0.030516017653171735,
        0.24309640160957638,
        -0.23442898729424744,
        -0.12084167890432934,
        0.32246210994381663,
        -0.23148983497600398,
        -0.05061064018753552,
        0.11082329205020722,
        0.44618330051231603,
        0.025104173710281216,
        0.07831911947114369,
        0.33362868941106555,
        0.021362103693791244,
        0.08336641967561932,
        0.3214975196236678,
        -0.08741056661399335,
        -0.019033369865522457,
        -0.3100756059992321,
        -0.05123207849595957,
        -0.2499546870932038,
        -0.008577665911549938,
        0.24993059761656553,
        0.21687141712150554,
        -0.2885325131910544,
        0.22161153598882702,
        0.19302909040960142,
        -0.16269175308582634,
        -0.18375005401038544,
        0.2708674062447998,
        -0.12945857239972658,
        -0.17329009181258256,
        0.24591886586542136,
        -0.21012206903599784,
        0.36226640437203717,
        -0.43704855990433417,
        0.4692944323667664,
        -0.2987168514150831,
        -0.00023176260451089213,
        -0.3498668862368482,
        -0.3324765071911075,
        0.33870124864855106,
        0.3235827207382922,
        -0.07616182862470058,
        0.3238747791129828,
        0.23704439095575316,
        -0.034099389884685735,
        0.1076507361119769,
        0.3597411007756209,
        -0.05111670544421013,
        0.21008695310083395,
        0.24804611449674668,
        0.12934613783718196,
        -0.05230814353577352,
        0.2603259658089169,
        0.027204557225270144,
        0.02644187340697227,
        0.025313201141600874,
        -0.06246946357599415,
        -0.418796406554942,
        -0.1392271165072302,
        -0.36130446204257993,
        -0.06716374927151088,
        -0.05528772893349465,
        0.1765167837239291,
        0.09887618843893174,
        0.13369132390468708,
        0.16700334519111315,
        0.08365473202703,
        0.006858175847869567,
        0.3324880667644646,
        -0.18308369909400993,
        -0.17477413241394507,
        0.1246384404168954,
        0.393626964814404,
        -0.01584363535789756,
        -0.190656177574246,
        -0.038536998317847446,
        0.0646689103510515,
        -0.1651363519172806,
        0.007112424102581168,
        -0.2650107036466117,
        -0.11136571940991781,
        -0.08963140883927319,
        -0.1635625668818788,
        -0.16418405119450724,
        0.07489091829192637,
        0.14019921222069653,
        0.23682171276594993,
        0.37848439405227907,
        0.20704362594583334,
        -0.23920877307045632,
        -0.21912633889255892,
        0.3257588819790727,
        -0.19897799000337474,
        0.14519867990278165,
        -0.04368446990926173,
        0.06267716746183813,
        -0.10863280367451267,
        -0.15504390574974167,
        0.04961758222234818,
        0.34892256229133406,
        -0.10314477909866361,
        0.12174146335244491,
        0.014007936556644325,
        0.4334102067020362,
        0.07420554184588951,
        0.28053964898968303,
        0.0681458833047138,
        -0.07305356703682257,
        0.07987119208778268,
        0.051982564077213245,
        0.05973303231353328,
        0.29103163436713625,
        0.19012080632430625,
        0.07858682468241318,
        0.0021127713061598937,
        0.11096145011055274,
        0.11953011541595299,
        -0.2139794526475062,
        -0.0035472421328973268,
        0.07080089952625813,
        -0.052051566414897714,
        -0.140369167430185,
        -0.1220674695376976,
        0.026253435367736284,
        -0.10407133749599795,
        0.08084604260578593,
        0.12034067209195576,
        -0.2144289238554079,
        0.042740581340665725,
        0.04324538527655336,
        -0.03309930102790114,
        -0.36578530662313297,
        0.06646199618032693,
        0.2525545476570456,
        0.24721810231613292,
        -0.13414721520227557,
        0.1530452877792761,
        0.11345516943147722,
        -0.37132671493446034,
        0.39882029849676903,
        -0.42888294255860426,
        0.16606960960161404,
        -0.4181896821068884,
        0.3003109661114099,
        -0.233169555576188,
        -0.20156478043324666,
        0.271435618153981,
        0.23321610023077236,
        0.23671057004439186,
        -0.025669418089828543,
        0.16256228314119844,
        0.38077186173152694,
        0.28403599150909953,
        -0.07906852386595808,
        0.15682187154334742,
        0.10438051785158747,
        -0.045172316372718964,
        -0.1675656973041678,
        0.13753653803624308,
        0.2493485079606976,
        0.09073379918604031,
        -0.3579585636631482,
        0.15486081759956216,
        -0.11907284980933995,
        -0.02932159180916762,
        0.03442189225575325,
        -0.062171053898373956,
        -0.007745853424556759,
        -0.1905116840841607,
        0.005656121332486845,
        -0.08758092578362443,
        0.06669775801558346,
        -0.40544160763871523,
        0.27625776018807363,
        0.01949344779374514,
        0.11392783404432492,
        -0.12718633315831412,
        -0.051558112520298814,
        0.3644270526872077,
        0.32987987558966403,
        0.22472830790030027,
        0.010891402046354805,
        -0.02270282563915584,
        -0.316780234194715,
        -0.08641654602703026,
        -0.4015964771754448,
        0.09349199768854254,
        0.24673819423961013,
        0.35015382192150074,
        -0.21266271273727053,
        0.012904851198196133,
        -0.30214437636538743,
        0.2526888916145972,
        -0.3817630617312112,
        -0.3501548209085219,
        0.44817439873550463,
        0.3608260982249327,
        0.29326032641336136,
        0.02172758409947282,
        0.2487044579665606,
        0.13338179216452312,
        -0.1839619946056809,
        0.22033644018237497,
        -0.029485160633030062,
        0.029147908587366777,
        0.1422993212924709,
        0.26542433162567153,
        -0.16495999046721388,
        0.07256647992705735,
        -0.24258375731333642,
        0.01875723709784074,
        0.1830160703066453,
        -0.2552189147022046,
        0.33773472585321757,
        -0.2819938864568689,
        0.18250708206077193,
        0.39703869143704545,
        0.22341380371342948,
        0.25572019684737723,
        0.01905380394155285,
        0.18814372942255167,
        0.10647086351114074,
        0.04620604961025498,
        -0.03500249818124508,
        -0.051091948449493746,
        -0.030676209843604873,
        -0.2057661845588421,
        0.24099746085596377,
        0.1791731826388841,
        0.26624919208430814,
        -0.18567453315827706,
        0.3285113718530175,
        0.09053655588255073,
        -0.14106265282302718,
        0.075977198300071,
        -0.17871249355249832,
        0.3455265808402875,
        0.2391417335585411,
        0.3542537290366196,
        0.07527534593883202,
        -0.38638317536815303,
        0.3856866277841151,
        -0.37090091989042206,
        0.3660940221811934,
        -0.370025282859454,
        -0.4712348104067956,
        -0.47235787727541284,
        0.34205472890325206,
        -0.44172791121557836,
        0.04327650829336464,
        0.35217127405504683,
        -0.12043542453636401,
        -0.014669617055313637,
        -0.3749797789214742,
        -0.35381444170521287,
        0.35616677682437714,
        0.20315008216540417,
        0.08189196521220787,
        0.21810484207171388,
        0.05515878139073662,
        -0.05309953197931342,
        -0.2834928703763584,
        -0.23104055722071604,
        0.1620573634112178,
        0.36226322421465956,
        -0.1325066444062176,
        0.32658945701322994,
        0.12339479374125616,
        0.06464665205983777,
        0.24047154709143898,
        0.18099470679430477,
        -0.02665569791916409,
        0.2094620960465059,
        -0.18837199142079034,
        -0.08442229653719087,
        0.15813355990884354,
        -0.2565378792229603,
        0.3960337313444217,
        0.40074074230008616,
        0.12236427418483602,
        0.11686939553507464,
        -0.012496178333366864,
        0.3828525368353576,
        -0.16733340104650585,
        0.11182001242296782,
        0.3989025793362313,
        0.11549258071061981,
        0.10827461419492103,
        0.41727197584656395,
        -0.189124180752354,
        -0.17769281744938356,
        -0.2844523821881487,
        -0.061783424084623,
        0.24672928376760675,
        0.4214059900352399,
        0.39869611988873555,
        -0.1412836998518829,
        0.2871449629016832,
        0.3666875728388839,
        -0.4047327354943909,
        -0.3357535062632273,
        0.35513506021516755,
        0.01481281028830949,
        0.1200946513941782,
        0.09730235632211025,
        0.27443701754629124,
        -0.12361446811968706,
        0.15882483535596725,
        0.05803980283918844,
        -0.011096711758672313,
        0.1538897788099125,
        0.26898632982549214,
        0.16477536764781342,
        0.021185339461642038,
        0.13834468493662863,
        0.00996119499201169,
        0.12302640028860393,
        0.14912409691405623,
        0.2476714268248409,
        0.45008151914623123,
        0.07245749396266715,
        -0.0505986187323674,
        -0.03149945566007965,
        0.16730515301925242,
        0.13778773862935867,
        -0.1106571941048072,
        0.05771735226439175,
        -0.07835001503025199,
        0.18903871895219743,
        -0.2901913881365443,
        0.07574704611849309,
        0.16225014022095074,
        -0.221015728759921,
        0.3573099640311668,
        0.14160223393995955,
        -0.2429537114976109,
        0.07726942721287595,
        0.1383372334822902,
        -0.019419301295714456,
        0.04496054515148071,
        0.26462708972712085,
        0.4299611635505998,
        -0.19450238121910843,
        0.31081482623958623,
        0.3451016700312846,
        -0.02474863617448644,
        -0.2808077769632737,
        -0.3393564183032093,
        -0.32731538553320116,
        -0.298036259552906,
        0.2933244455922715,
        -0.30928212152446866,
        0.2994378225769768,
        0.12326443453433798,
        0.12507321572695868,
        0.2658537607640669,
        0.12456213270644154,
        -0.0878571628376026,
        0.20762583883013128,
        -0.05200325926468946,
        0.06594337418319458,
        -0.016406219470462547,
        0.18538862392831562,
        -0.1567153144079577,
        -0.05516642735965621,
        0.1105018174917252,
        -0.14342265714754,
        0.20812986316813994,
        0.34838033624292913,
        -0.3689871316817093,
        -0.015070566644281781,
        -0.03487778762632604,
        -0.03196278456576441,
        -0.05774232590964367,
        -0.15082338607516557,
        0.09840111692755102,
        0.2159161132030081,
        0.20844279084360595,
        0.16519528523302546,
        -0.12071749508162355,
        0.3784915808955462,
        0.1738564299388941,
        0.34279250553909646,
        -0.04943302737754189,
        0.23293631862042136,
        0.15568099051867704,
        -0.26069606976126897,
        0.18287541122530215,
        -0.01658229036449383,
        -0.18955787267316698,
        0.06246157773784246,
        0.2953086066804287,
        0.35084611646931907,
        -0.27168059373593495,
        -0.39317528094078874,
        -0.31393614933154546,
        -0.32240170708257027,
        -0.35632055510929933,
        0.29468921259037373,
        0.1266994570849638,
        -0.3126339845789923,
        -0.25639844483814594,
        0.12003759163799738,
        -0.05184100273020396,
        0.20019964635257376,
        0.28999788749663113,
        0.15121858292185678,
        0.06708991110273295,
        0.043578165971356844,
        0.21068812177010166,
        -0.23629526623613015,
        -0.22182092599004447,
        -0.028505761394045533,
        0.036759083430098594,
        0.20541966852189716,
        0.0498120630889982,
        0.0956869501122424,
        0.12579017146964183,
        0.21983377263124632,
        -0.03099253289888007,
        0.26554772812530486,
        -0.13500353027936043,
        -0.012286616533018399,
        0.17826520631215892,
        0.1555984768305204,
        -0.04816127901377902,
        -0.09928526588436684,
        -0.08741877410056945,
        0.009195432606517995,
        -0.18559195042723878,
        0.011883796113264388,
        0.05176185729835705,
        0.3671385604926444,
        -0.3869251883310815,
        0.29222500428115833,
        -0.0021820369866105,
        0.3010804590660034,
        0.30861100775850603,
        -0.017978282845008204,
        0.029813186985221247,
        0.18709410242536115,
        0.13942141540953795,
        -0.09004729202922622,
        0.22181511902980017,
        -0.21020453805161698,
        -0.2333344358631807,
        -0.3716823207831096,
        -0.2432943404030311,
        0.2168831952593743,
        0.22981525956105875,
        0.3298288685530413,
        -0.17011163706091537,
        -0.3865973313299936,
        0.18454285268765633,
        -0.3429576079570247,
        0.20982506083443606,
        0.1920402487848432,
        0.015999988440996038,
        0.0016281529620891073,
        0.03640887219730414,
        0.24009268560425306,
        0.3264698775724271,
        0.3690297750157371,
        0.06389508799543017,
        -0.07217350793218374,
        0.13024991876512582,
        -0.11091984977746197,
        0.26839393836646386,
        0.18066807939842552,
        0.013767551101017175,
        0.3174817574783749,
        0.27655754301487917,
        -0.021163713906843983,
        -0.06530595099365778,
        0.05574277785822104,
        -0.07653658956035865,
        0.2781275827352999,
        0.10781083949939367,
        -0.15693273179384373,
        -0.014341711179140364,
        -0.21478142632879288,
        0.24481963531368647,
        0.11314277289602268,
        -0.041699175522681396,
        0.1780560731877202,
        -0.050366704771235615,
        -0.14277508117893606,
        0.15260377024209815,
        0.35020559213524505,
        0.14768775613038507,
        0.0978279593465194,
        0.3557693284687635,
        0.088392956981543,
        0.11021925577083325,
        0.0018789163561030314,
        -0.2626409624534439,
        -0.028812503766794898,
        0.39967577788295033,
        -0.3495818792543471,
        -0.09371184137041633,
        -0.25921617678456854,
        0.23109465744779809,
        0.3292889269457587,
        0.4063756477576503,
        0.27167720554924035,
        0.40805702776373914,
        0.44286102397448596,
        -0.43361509002351717,
        -0.17797541114546828,
        -0.0828677749587111,
        -0.038600141428318226,
        -0.11852841108914693,
        0.1903924386916076,
        0.051385990573759005,
        -0.0064442220845260904,
        0.42334136808765677,
        -0.24756896244284332,
        0.13106447926483294,
        0.1740171743662414,
        0.15230983289049713,
        -0.04996388910648729,
        0.08038231173767134,
        0.23192189183726725,
        -0.06219647061201606,
        0.02147710343500929,
        0.08075335051428771,
        -0.051337958752068334,
        0.32608965795395944,
        0.13819478014532127,
        -0.13740752221570218,
        -0.24689739983654443,
        -0.10305571400688053,
        -0.015012728181280502,
        -0.18412328024233462,
        0.08777890787861076,
        0.1309507025357629,
        -0.3280893345474378,
        0.39484022621938025,
        -0.11589704004067937,
        0.15075034126638295,
        -0.342880520035326,
        -0.040578695283130135,
        0.4326381488933506,
        -0.11977784551850362,
        -0.051243554316400236,
        0.3841793955387964,
        0.2861088217057998,
        -0.19688697874707334,
        -0.05522306483416849,
        -0.28513873971064724,
        -0.4011302193679369,
        0.15411844797966368,
        0.10022695462284784,
        0.40055618620463235,
        0.21703251627823547,
        -0.33999976202887977,
        0.31116193156793914,
        0.04799066080186614,
        -0.2444216285737332,
        0.2173779344697395,
        0.27176297774138386,
        -0.24029146420467484,
        0.07883304835217572,
        0.11500327880234863,
        0.24443565317909188,
        -0.21796619051208352,
        0.27335943715981553,
        0.15533838426384852,
        -0.17144308703939717,
        0.031174598116164496,
        0.25094801322372073,
        0.005874779014494497,
        -0.07071639618324431,
        -0.17245565804871965,
        -0.0941993115338492,
        0.3243655619958137,
        -0.2534199029010403,
        0.012639179718294086,
        -0.007677580784025631,
        0.056774777143763486,
        0.01681145973962284,
        0.26755464888696023,
        -0.3330595994899277,
        0.037324626280227785,
        0.04089469262297098,
        0.06438776026670394,
        0.10416339081085638,
        0.017296525746282525,
        -0.3975647310354597,
        -0.1505279329607033,
        -0.36530021302105453,
        0.18527850806293256,
        0.16460554323756554,
        0.03866287214148552,
        0.06952028609900567,
        0.4014820649867806,
        0.18535176415544485,
        -0.049332774679997936,
        0.2894320782547694,
        -0.018542529148767375,
        -0.34370865381555626,
        0.20447220194903534,
        0.19317879321239553,
        0.3063712171096077,
        -0.30903910729166817,
        -0.33350162956257806,
        -0.39630437102534594,
        -0.3660259302139456,
        0.3157721897996967,
        -0.20771068219866817,
        0.4705856176856407,
        -0.2793276266383824,
        -0.2760523056456498,
        0.3621275132575578,
        0.11793913314034751,
        0.16655394088852504,
        -0.07438270242497527,
        -0.30414764950168455,
        -0.11984225636698954,
        -0.19021428237637963,
        0.0925018690659547,
        -0.07470259133355253,
        0.004481174449600525,
        -0.23487466702858076,
        -0.061483285829328674,
        -0.26153622233553164,
        -0.08448079242162887,
        -0.22086935278796466,
        0.0008048992267749963,
        0.07116559969253113,
        0.10582629002218007,
        0.33073942807744416,
        -0.21995411911675028,
        0.1455239363940053,
        0.15828761729170415,
        0.1465950334111916,
        0.1513846667820207,
        -0.14726215162341835,
        -0.10436461990938227,
        -0.07249240374020416,
        -0.2666450248085778,
        0.32049424122852294,
        -0.031095852028227275,
        0.07368118265836351,
        -0.024131630219517062,
        0.19067816805294288,
        -0.04873478601536136,
        -0.2740031691879177,
        -0.07362434095981553,
        -0.10572245328897664,
        0.17172326345908587,
        -0.10113133959340366,
        0.3328544796026228,
        0.11148807208437296,
        -0.30264143203673577,
        0.41725691580398205,
        -0.38082856814582255,
        0.4046154754528631,
        0.13006434736206562,
        0.1661877893299566,
        0.05485658209094235,
        -0.10259407496053978,
        -0.3756934973212245,
        0.21195829971100344,
        0.05436718038973555,
        -0.37616073168598274,
        0.05789450301260777,
        0.026173193620903507,
        0.10960787878496611,
        -0.054108057918271744,
        -0.20142224078106102,
        0.2762101901463944,
        -0.20729143960982557,
        0.15256195757401786,
        0.08283332564334693,
        0.2898026062514253,
        0.060533446957664716,
        0.22710072644381202,
        0.13413668980795895,
        0.17563678933285212,
        0.19357138111108443,
        0.1756140846193047,
        0.08858618348541578,
        0.1347633017000279,
        0.12518306470058754,
        0.23660676167732028,
        -0.3208774713292587,
        0.2750524144576965,
        0.05348948615303311,
        -0.11536657478213128,
        0.09525212542819092,
        0.05924679237265455,
        -0.28011980787036644,
        0.33698310123336017,
        0.3233048638024552,
        0.13827873582449424,
        0.16198322051874772,
        -0.203999626454382,
        0.10388784335805627,
        -0.08056441263645821,
        -0.01059908087238876,
        0.07262784397577834,
        0.33391527191870135,
        0.04114473569453906,
        0.05931045832579682,
        -0.289836383968087,
        0.2786204868943008,
        0.1028964744996135,
        0.3211496273343241,
        0.06680774529545536,
        0.09100511448643596,
        -0.42868311611606913,
        -0.15003230358989053,
        -0.2579521847265297,
        0.3026148789838102,
        0.20332958909985022,
        0.32851743498238045,
        -0.005515378522654784,
        0.36071581378080864,
        0.31596504206073533,
        0.3030725905541706,
        -0.003323816669061221,
        0.271000187962323,
        0.10460974812431736,
        0.006002081715544337,
        0.2588030282101361,
        0.023254597882259198,
        -0.1739031016644798,
        0.22691916411023902,
        0.11375497319769261,
        -0.09092572820318168,
        0.13322747984229052,
        0.000577554812219769,
        -0.41182908420533093,
        0.15618066458126967,
        -0.24576613763689142,
        -0.1130873125344491,
        0.1080559092994428,
        0.1911201683395847,
        -0.1118530483870555,
        0.3148215361356227,
        0.3635426760421778,
        -0.08323621531474311,
        -0.009290759450397826,
        -0.05752159251848516,
        -0.1900540932427705,
        -0.20699771367894107,
        0.10826349534535518,
        0.0685078062834333,
        0.03933122739364181,
        0.17603461641835114,
        0.26237686468555893,
        0.05293447199130212,
        -0.2216800814405867,
        0.20832631279222666,
        0.29629362837973355,
        -0.055673948620474874,
        -0.050065732636169646,
        -0.33284373239831105,
        0.007882635328531978,
        0.40791605674527043,
        0.19341632819732288,
        -0.3332753304611813,
        -0.07273875418774059,
        -0.19135136107332185,
        0.32381845737566745,
        -0.3013684303136225,
        -0.2739329452518612,
        -0.37673086710071574,
        -0.20913823210400043,
        0.13273507206617666,
        0.3241209575092627,
        -0.021717342719968096,
        0.4232707539015557,
        0.3599669570424872,
        -0.1885896128013314,
        -0.17706455651270187,
        0.008553575434713741,
        0.18455336648082477,
        0.09661147198643308,
        0.13100194123339765,
        0.11883212615314064,
        0.3870994896994191,
        -0.11858823647301597,
        -0.2106218295545975,
        -0.20786040991003768,
        0.11380434331778318,
        -0.2420901618777407,
        -0.05411477202839344,
        -0.08321242770952324,
        0.025878450956663444,
        0.07866362561421747,
        -0.09886331573062217,
        0.2431028785760356,
        -0.09265155538205935,
        -0.007226311791579244,
        0.16650921922720238,
        -0.346038428231969,
        0.07251671666789634,
        0.07723749550255099,
        -0.17155982910806497,
        -0.22205873314106325,
        0.23073075095352152,
        0.36756358966367647,
        0.043553830742460525,
        -0.24625908266141464,
        0.1804098003605103,
        0.15728033221397367,
        0.2193668459492908,
        0.3103214216951237,
        0.21695214845658445,
        -0.3784826740865585,
        -0.4338738249893706,
        0.3342022863869478,
        0.1946985376739866,
        -0.37058163388092213,
        -0.25060374194969987,
        0.07030318811228357,
        0.4329794528397042,
        -0.48083830140119616,
        -0.39473909831528403,
        0.2278848285008384,
        0.22328828101947595,
        0.10791944458506664,
        -0.012426660692788341,
        0.3394543761357888,
        -0.02315010237746407,
        0.08445244011781305,
        0.21022054776344534,
        -0.016393899797086428,
        0.0320429060811121,
        0.006401232865037245,
        0.05109791052334492,
        0.073201619645357,
        0.03889722814406228,
        -0.2057528376346179,
        0.097663281671573,
        -0.4261057637319234,
        0.27016823173687327,
        -0.4317908877779861,
        -0.12884052140511226,
        0.011953080322994282,
        0.14476130328545134,
        0.10035589107324276,
        -0.22749182721333072,
        0.038941510194646464,
        0.052561459007862715,
        0.03751783112491955,
        0.05739616097629185,
        0.3492358301529519,
        0.036281340835412304,
        -0.06426599900012904,
        -0.32637554675425473,
        0.15229474183437947,
        0.1675544780271224,
        -0.33133515067596603,
        0.06268299294489992,
        -0.30995299007846727,
        0.12305882437065113,
        -0.01714851045047954,
        -0.13018443237446423,
        0.17757030007057192,
        -0.1749103828574889,
        -0.29428006224876074,
        -0.0793148473311274,
        0.09173917583223565,
        0.3189371952787215,
        0.14733520997193023,
        0.2985982051013689,
        0.460246284027909,
        -0.3998698729141126,
        -0.22066356898422143,
        0.3068110207079706,
        0.3654238347962322,
        -0.008011984885335114,
        0.052776113773097766,
        0.03137516293453688,
        -0.01806368215678598,
        0.0015144308264076853,
        0.022069973726637368,
        -0.025073149873391817,
        0.25559543237883686,
        -0.02317971978834788,
        -0.05241536369293317,
        0.006091442858877254,
        0.10668768425956587,
        -0.04971895398861887,
        0.19540985560241111,
        0.12802952054745825,
        0.43726292325556587,
        0.10536448562011294,
        0.11186105553929801,
        0.10638413076681046,
        0.04596601314877667,
        0.08837908711897713,
        0.0904136318135935,
        -0.11768478107068121,
        0.12586262869765158,
        0.011705795873698771,
        0.09313728347985775,
        -0.10085312326309025,
        0.36307491868504893,
        -0.3040287393784462,
        0.06758396305997084,
        0.22195859768638068,
        0.2538384440136115,
        0.19934122416529645,
        -0.034633683190184256,
        0.12012410597477949,
        -0.08477447655793767,
        -0.07677443615170541,
        -0.12666983588756933,
        -0.20393751724346,
        -0.3407849165935067,
        0.43122399214223256,
        0.33003811624844837,
        -0.385921876822547,
        -0.29032584541941814,
        0.3024609609023353,
        0.46702180266506055,
        0.18774351550367177,
        0.26023273715422324,
        0.4320103101960923,
        0.3208127739972915,
        -0.0875121072591555,
        0.30651340462015864,
        0.19691507801074454,
        -0.07517567142550559,
        0.03700516851709103,
        0.19849794049237549,
        -0.264277242144067,
        -0.07232034850402642,
        0.21024099018683673,
        0.20343725604208981,
        0.017434280629431118,
        0.048093152281475746,
        0.14834335884787775,
        0.06100476332574605,
        0.004224196270876098,
        0.05397533440957543,
        -0.17348401867050417,
        0.354121503300382,
        -0.17910358911842575,
        0.395650422171631,
        0.1434234152850466,
        0.20301682294213982,
        0.27474024515598244,
        0.024266262106264536,
        0.16080560178079242,
        -0.019920843283490322,
        0.03872521900873689,
        0.28634193656034296,
        -0.008929476292206815,
        -0.1955528742905769,
        -0.31334515043415073,
        -0.02923524107164641,
        0.037921823206986775,
        0.18466135540091003,
        -0.26968148324193886,
        -0.0032385682476008325,
        0.12402267015716924,
        0.22266575239205028,
        0.18853526136646018,
        0.21817118643864616,
        0.35993328756225673,
        -0.08961644587510116,
        0.3836464290981965,
        -0.17564664266720056,
        0.26356739619890784,
        0.06605134132803707,
        0.40746987624113723,
        -0.37306164355312527,
        -0.4324653074447041,
        -0.34484916336463206,
        0.17296696287752694,
        -0.12477108205248169,
        0.3221995773636235,
        0.028523027180983512,
        0.2378561506164152,
        0.2210462227084441,
        -0.01543762411642578,
        0.1999753833755237,
        0.2766451920996657,
        0.05531766408965379,
        0.03559271004229577,
        -0.041088878290069256,
        0.06285259506036744,
        -0.10219627154032863,
        0.09202797764290752,
        -0.11033270779282821,
        0.29241230168446647,
        -0.05874817299918428,
        0.13129116873792157,
        -0.28535765094147636,
        0.28377028794780196,
        -0.3858879872345999,
        0.14740331313834754,
        -0.09760702146303404,
        0.3003198596710938,
        -0.13976466235754878,
        -0.17672680046757416,
        -0.009789206215701578,
        0.0880814332694073,
        -0.06989129213103161,
        0.3372674725786308,
        -0.31456368545832647,
        0.34313338811297844,
        0.021767021756500658,
        -0.0909926292123599,
        0.2194236106372688,
        0.1951172602914523,
        0.1996941821745417,
        0.10585626345058004,
        -0.042352330133867896,
        0.12050766763570898,
        -0.3804759835685868,
        0.33521433866479455,
        -0.3284037472346703,
        -0.41740722833611976,
        0.007658408046057662,
        -0.03883798387626238,
        0.4264776046226387,
        -0.43735133644302604,
        0.10555953592267378,
        -0.3734768940942292,
        -0.20275828162809642,
        0.4189472111004111,
        -0.21411474779627096,
        -0.40572860133291727,
        0.15061256883004628,
        0.20301615826308275,
        0.32190149317284955,
        0.04690062880389813,
        -0.09338756095170128,
        -0.12971637235964695,
        -0.07951787921832985,
        -0.2533769985478648,
        0.03670585803902207,
        0.16162792585822594,
        -0.03187520492535067,
        0.055965171823826945,
        -0.33027116926265465,
        -0.21009104374354867,
        -0.10151254766178773,
        0.18315236225716824,
        -0.15506812813220167,
        0.19887279987674936,
        0.2838594410730567,
        0.10678731514035211,
        -0.017597538104470255,
        -0.1334477356527159,
        0.18189222020329363,
        0.030843141694413406,
        -0.06905291768834476,
        0.120618680128816,
        0.03080312038361318,
        -0.3794768837569394,
        -0.3362637792587602,
        0.02415484636338332,
        -0.01901885825462504,
        -0.2726203623733932,
        0.08729935850704257,
        0.21725490851999643,
        0.15393439903430012,
        0.2140152552420504,
        0.0893419448590524,
        0.08369383466991115,
        -0.391296618178278,
        -0.10556003806507841,
        0.3447098583944672,
        0.4436005200321952,
        0.14393501998839514,
        0.09775936604108813,
        0.3593517767580057,
        -0.4546351248482653,
        -0.3323044436161191,
        0.4135944024108602,
        0.32298369870580174,
        0.42787650913873865,
        -0.05066073295780933,
        -0.4501872023120207,
        -0.279761322082069,
        0.3565842163840391,
        0.020861130870661902,
        -0.0423561500576576,
        -0.012888633272816245,
        0.11300269861892923,
        0.06806855096361863,
        0.2360139895868372,
        0.07613689848279123,
        -0.08919966067401854,
        0.11144257896882445,
        0.03428351518565074,
        -0.07028189267207306,
        0.08510399405793308,
        -0.01878298581935641,
        -0.043578932427813126,
        -0.012700221200825437,
        -0.041633616616801095,
        -0.2868951664823083,
        0.23621051800988335,
        -0.09376818622990998,
        0.30682025988567035,
        0.22002676763982876,
        0.3095885948403864,
        0.21640659372908724,
        -0.012871860258855925,
        0.10123595537536312,
        -0.29843472836261503,
        0.4086939424488892,
        -0.058999275741420394,
        -0.09170815690422507,
        -0.2680344869898751,
        -0.3454058814411552,
        0.07616609985260622,
        0.31226464902563605,
        -0.013504405599403845,
        -0.1536155633635856,
        0.07445170334685176,
        0.07013436538691305,
        -0.010484188997690087,
        0.34124546254195604,
        -0.1740717186266766,
        0.15947283717729635,
        -0.1639778197628438,
        -0.4223414760981421,
        0.25348086603944897,
        0.43385591449527633,
        0.3964953579690153,
        -0.05815700786909183,
        -0.34761150189298873,
        -0.36237610812078735,
        0.4218146271596978,
        -0.045183854584593765,
        0.2300542716581494,
        -0.054978517216741116,
        -0.04175785145164229,
        -0.1060995183375988,
        -0.195778928710959,
        -0.1209227461037804,
        0.037388483337876796,
        0.12814999619424522,
        0.0331579755684413,
        0.08381993425570106,
        0.09242353908846873,
        -0.015949844104402894,
        0.11976943270685175,
        -0.20309024480864948,
        0.10348777233105082,
        0.05810641381508089,
        0.3567291771278607,
        -0.011959509840042175,
        -0.23951135882408794,
        0.029604896182410346,
        0.11872510746487963,
        -0.06478636198287935,
        0.08963429934385432,
        -0.035760023085801354,
        0.004972987481316152,
        0.18841965800536206,
        0.38307202702473436,
        0.2864715833679132,
        0.22645751053205873,
        -0.008127085830689312,
        0.11441277384922875,
        -0.19068542144954073,
        -0.3582381443102742,
        -0.2881483714895371,
        -0.08603775734870496,
        0.16208032857931728,
        0.04528772313803118,
        0.022684132913820088,
        0.30700523308502425,
        -0.03247044431603414,
        -0.2147209224384875,
        -0.24354008386312284,
        -0.10068953418843991,
        -0.18961247750512716,
        0.1387534940438457,
        -0.20869085628745926,
        0.09675860014196279,
        0.4384885538748662,
        0.2548688013406864,
        -0.12381673927292866,
        0.4513398071342403,
        0.22315272203024067,
        -0.06620929452637174,
        0.13170428128700395,
        -0.08637241923914903,
        0.21024412505108905,
        -0.07654364906271784,
        -0.08716513183714653,
        0.06997888279286849,
        0.013841611590092864,
        0.07831492139691122,
        -0.0017367412741176825,
        -0.09739611735729525,
        0.008293661379164818,
        -0.05699711314959892,
        -0.0022969460816070634,
        0.3347903889435356,
        0.0062908089846478825,
        0.06352079277572074,
        0.1735694376728047,
        0.16498260320798888,
        0.057498652281782546,
        0.09637553366401536,
        0.256919686679204,
        -0.030158318264580146,
        0.04616029831866366,
        -0.082382347451826,
        0.09383530128293913,
        0.06779480440509326,
        0.16459695417300393,
        0.27625278496891187,
        -0.09430422308212391,
        0.36711276073539784,
        0.3170400245338402,
        -0.1612422589086038,
        0.1947544473689689,
        0.0061194024493021314,
        -0.12969117907383831,
        -0.04431077468411208,
        0.0014879668245485068,
        -0.12566088672478568,
        0.06805934031886961,
        -0.11053067159591616,
        -0.05612018645316295,
        -0.02602853250243717,
        0.0408054035724085,
        -0.08265625395436473,
        -0.1787837712671908,
        -0.18501990232601626,
        -0.11678830908710248,
        0.08857863700204623,
        0.11291536188363993,
        0.09944616632441233,
        0.105078481321692,
        -0.1056426048716929,
        -0.1891303191603351,
        0.0710867205331525,
        -0.10238368696626607,
        -0.13428016002916607,
        0.0028041524715667443,
        0.04912964067255956,
        0.0019628510099522975,
        0.0019549472743970765,
        -0.10012175607835383,
        0.056948312124831264,
        -0.014143298900384975,
        0.13986516752847927,
        -0.15878786449577698,
        0.04709990550687852,
        -0.020002831881424647,
        0.1625089218092158,
        -0.058600618446886674,
        -0.14985416260783668,
        -0.03849081354422027,
        -0.006132214199509985,
        0.11792750969086917,
        0.017276913843556434,
        -0.0013918469995640277,
        -0.006464188442901543,
        0.12297901438637987,
        -0.1502572948191633,
        0.16742936757160615,
        0.07813892054137873,
        0.17277571857462992,
        0.11100034818040304,
        0.11067603759972337,
        -0.09836796345338908,
        -0.14518694756154385,
        0.028524585874205685,
        -0.07065977900172962,
        -0.1739945660008471,
        0.30011329369798406,
        -0.3330370755992633,
        0.34618430480142204,
        0.4157284629499773,
        0.3034833042477737,
        -0.02771543301431735,
        0.2658869023486015,
        0.23703575525487822,
        0.24475312636932922,
        0.350541267052023,
        -0.40618290982994515,
        -0.2839573685525738,
        0.31051415808289207,
        -0.20841863531033303,
        -0.2191103329841281,
        0.20125848381449937,
        -0.015471489501225212,
        -0.08799209447465743,
        -0.07275441993556994,
        0.11054645863833595,
        0.10053572832021132,
        0.25011785875936343,
        -0.018578236276671194,
        0.005144589626996749,
        0.26846787888276685,
        0.16047373302138326,
        0.08734956906459515,
        0.06266014893396275,
        0.22823297015653368,
        -0.2635083783249772,
        -0.018090647184733515,
        0.18655067713139895,
        -0.26971150754707285,
        0.034185883040137886,
        -0.04538307746118303,
        -0.09751504649336779,
        0.03210341315943056,
        0.1507794850830718,
        0.20156178417565812,
        0.14399446475836888,
        0.1115953978312269,
        0.25401767436931033,
        0.2735867427821979,
        -0.38576187163802006,
        0.22133910493787984,
        0.14056403578053497,
        -0.32027922465117675,
        0.16230565096073962,
        0.0520486046529254,
        -0.13892652954757018,
        0.1919091916722623,
        0.2697045115516931,
        -0.007609795513534186,
        0.314276768209349,
        -0.062048124887408296,
        0.1191444365772711,
        0.3726319124811638,
        -0.2537662247194598,
        -0.2702741628312364,
        0.4573894602864954,
        -0.1389576463961163,
        0.0013475865502251216,
        -0.09807395351927142,
        0.397260339782926,
        -0.3652061411886834,
        0.0421652844758561,
        -0.002136137688039724,
        0.012321816697586183,
        0.06755159514344616,
        -0.008283174890863339,
        -0.018100023949286014,
        0.1813792688395548,
        0.06001904538329338,
        0.21963810653786262,
        0.22241590088899227,
        0.04723241808626681,
        -0.0015979811648507859,
        0.002848326212664605,
        0.10760657060641547,
        -0.01132653204577661,
        -0.055771385727703224,
        0.31097570948479547,
        -0.3048176073111004,
        0.13548632329018195,
        -0.1809865037430847,
        -0.010931183609965787,
        -0.16579295792182716,
        0.06314406867448537,
        0.09134002986826166,
        0.1970170170026059,
        -0.028083726428087718,
        -0.02832542064322083,
        0.08221133213340243,
        0.30363196155147765,
        -0.3657435161691427,
        0.02460150851694299,
        0.2606058110859602,
        0.08864977466808774,
        -0.02197314400042195,
        -0.23846630799453353,
        -0.18258187970681508,
        0.25759917202684796,
        -0.06841813232637824,
        0.017391226679375357,
        0.00880924464352032,
        0.02390437255234696,
        -0.1832387455974183,
        -0.25293890217924647,
        -0.30609935949686623,
        0.08436097301594203,
        -0.04426511612126007,
        0.3921812239809255,
        0.44449431856780913,
        -0.04411592872907644,
        0.09961880880612879,
        -0.13021763782710796,
        0.2537989373323966,
        -0.3959560010587484,
        0.13869498097220215,
        -0.1192391117896698,
        -0.04157734156996437,
        0.12044904932764132,
        0.03343755183908914,
        0.02062977862761178,
        0.0779434114894105,
        -0.18605362699289055,
        0.04774932791208508,
        0.054222329374534146,
        0.26215057836980943,
        0.13507042364343325,
        0.14717304185046792,
        0.10332801190741864,
        -0.0305544693200732,
        0.05900434436183663,
        0.3553437177648556,
        -0.16027085857909987,
        0.14445511002065117,
        -0.06549391474665539,
        0.23972839914119506,
        -0.19870101672244525,
        0.023294376574719375,
        0.1380963418623063,
        0.029461184905070204,
        0.15160032549523125,
        0.18715307732491074,
        -0.20755558371174887,
        -0.25992771958038197,
        0.11630532803516351,
        0.15505200987483975,
        -0.06170753771544386,
        0.22521819446821315,
        -0.10531600738123315,
        0.009281497999137977,
        0.1911595548060007,
        0.390770394592163,
        0.22149567941712886,
        -0.24923863717847727,
        -0.40407273866532206,
        0.43298765979463505,
        0.4421144417756424,
        0.18499732626084334,
        0.39212476613261915,
        0.20937324024237847,
        -0.2013743748757604,
        -0.4511992050053132,
        0.27802829476580454,
        0.3458583723741267,
        -0.1142036822121643,
        -0.10876444445954288,
        -0.18928604200270477,
        -0.22193324108417065,
        0.0962552933016695,
        0.12270551114603659,
        0.021502981775623264,
        0.12358454084178798,
        0.20861611180145306,
        -0.18211535929497283,
        0.2841772363397044,
        0.08665409242306693,
        0.1488173979233854,
        0.04155230667663454,
        -0.10835933907959253,
        0.18257245168255917,
        -0.09612063071307646,
        -0.12471761780712158,
        -0.08881722701907337,
        -0.273029351241218,
        -0.20052567250471515,
        -0.33645273524181063,
        0.21483842451640242,
        -0.00855120471032763,
        0.1547247485719849,
        -0.09588906667152287,
        0.15451792213980647,
        0.14037137383444082,
        -0.009854689492276948,
        -0.0643485130423365,
        -0.3174673038400679,
        0.3905764058329775,
        -0.2555730621401469,
        0.16472781780402684,
        -0.009882486517747296,
        -0.3264730124449422,
        -0.022341324523114443,
        -0.005064288961869946,
        0.06500195432949767,
        -0.23345861863959141,
        0.2083782073175714,
        -0.19230759342669596,
        -0.24313930079301818,
        0.19786722788641894,
        0.2919706255305199,
        0.26960545084943843,
        -0.33519006765436354,
        -0.2624799787935896,
        0.36467282349419433,
        -0.3644958870968656,
        0.29524160097336405,
        -0.25600869437537677,
        -0.2260894347882248,
        -0.31725527278780624,
        -0.27832990514306016,
        -0.04196281039764389,
        0.11810185248618527,
        -0.009450163303385512,
        0.25116298902183193,
        -0.005478865079067054,
        -0.005729983653166274,
        -0.04496702953521152,
        0.1508174449594,
        0.030422692750366558,
        -0.03989126003333848,
        0.30553475532105684,
        -0.05914100284817607,
        0.3719305405704653,
        0.052823723304809334,
        0.06654306495274337,
        0.02653852127483807,
        -0.026307462095144823,
        0.31931769590934156,
        -0.12224804460625034,
        -0.20425286684513005,
        0.1634602277932323,
        0.3373484802127785,
        0.07100707029172139,
        0.34131047530770153,
        0.06449965587196545,
        0.19300088291847411,
        0.11765869484100733,
        0.046668713527894534,
        0.10552380131882874,
        -0.13318647972332404,
        0.1861405478830098,
        -0.1922138657244267,
        -0.2058993132476406,
        -0.12253728902683995,
        -0.37028771273610067,
        0.15385293981912138,
        -0.20982513801070482,
        -0.026656759546105368,
        -0.2042879921839208,
        0.03630085736517144,
        0.15155640289803934,
        0.0228262283520182,
        0.1655024102396455,
        -0.11602664107896983,
        0.02269140508079512,
        -0.09173043466495777,
        -0.09185445568226587,
        0.12719926031724027,
        0.06101506290641571,
        0.050657583297737986,
        -0.15398684178658834,
        0.0532407458168815,
        -0.1304494750756636,
        -0.17376750817572792,
        -0.1689073322068697,
        -0.03792012302531178,
        0.11127925452712328,
        -0.10687127394675719,
        0.1795631219455707,
        -0.01662891868727551,
        -0.17904358628816505,
        -0.07580794794775084,
        -0.14197427849807134,
        0.09863732364594936,
        -0.05151978412409596,
        0.005917521651675867,
        -0.15318856608538517,
        -0.013853932762813555,
        -0.1411121407416667,
        -0.11256820520977974,
        0.006291782282395548,
        -0.1217348207702972,
        0.039223816716189325,
        0.06957318137115932,
        -0.08694488780323086,
        0.04434772793819597,
        0.17401107337091165,
        -0.10408725820066012,
        -0.0930632049068715,
        0.040384461763100746,
        -0.0025204580030486114,
        0.1258938488236732,
        0.15622517755621307,
        0.00264431479094221,
        -0.019686237895914494,
        -0.14401269834807418,
        -0.16027851332063495,
        0.13777791575911924,
        -0.09560191797870798,
        0.042723001148077706,
        0.2919850291070942,
        0.2595780324860626,
        -0.4095592985954278,
        0.25507572397036343,
        0.2570772674466655,
        -0.13043760761548567,
        -0.2697068539659793,
        0.07575376266291654,
        -0.09465561852529314,
        -0.45305099571575147,
        -0.42699855528534275,
        0.39416379723418293,
        0.2998064573743987,
        -0.17038354418401028,
        -0.31760058377478073,
        0.27974830907365245,
        0.30083333689519554,
        0.031142792305941143,
        0.16265907248405598,
        0.00796939841019827,
        -0.10311508732764074,
        0.18086849751049863,
        0.2079150913756032,
        -0.03141253676048927,
        0.13374804159131135,
        -0.036516100319972,
        -0.04970787544449438,
        0.07969687404169867,
        -0.1392239300931107,
        0.023764816864999084,
        -0.2823206880961066,
        0.048901439876503985,
        -0.2743390955209744,
        -0.0871012594266212,
        0.12183028930087343,
        0.2605233679427166,
        -0.08239824448997264,
        0.013428539262557762,
        -0.1378148816686057,
        0.1852474967501377,
        -0.0027183443400878534,
        0.26997777532120865,
        -0.28197787662292373,
        0.07946160325259291,
        0.028917311805221935,
        0.1802940924647062,
        -0.2865176143668459,
        -0.2332601570496959,
        -0.16013828255341092,
        -0.004566419883316156,
        -0.25677643830184255,
        0.14665580254996205,
        0.001685612787671148,
        0.10108299688950026,
        -0.3251558374837775,
        -0.25125455272666697,
        0.04646207766173556,
        0.3072351778915982,
        0.03828467236543052,
        -0.3126240334063978,
        -0.31031622616703997,
        0.3370659282924423,
        0.452902400434892,
        -0.10525005393862519,
        -0.1847837814442725,
        0.29593798949205546,
        -0.11014555320054266,
        -0.012995996512293549,
        0.01621370740413167,
        0.037802722176474596,
        0.32463789772362217,
        0.38070813836680645,
        -0.1596223642837129,
        -0.11489921907574444,
        -0.005950810901751255,
        0.16319665628616317,
        -0.05378591252030342,
        0.16422787221018784,
        0.27119109727328833,
        0.10190806551383977,
        -0.1268364726167076,
        0.25121875744941013,
