{
  "Layers": [
    {
      "Type": "Linear",
      "InputSize": 52,
      "OutputSize": 80,
      "Weights": [
        0.6429435697419752,
        0.3385126364849422,
        0.06708657589140651,
        0.42202211545596463,
        0.37595996142649607,
        -0.01611898397652825,
        -0.6382747479863785,
        -0.15801552025219315,
        -0.04047024362740278,
        -0.1717895986495168,
        0.5446217442316994,
        -0.00205541875238572,
        -0.5443710369698311,
        0.11166883630443708,
        -0.6146794873709674,
        0.33309170774397484,
        -0.6623856745875825,
        -0.877212316655752,
        0.15372627533756406,
        0.34488439870299176,
        -0.07555060448627172,
        -0.0426231558828143,
        0.033386218282568075,
        -0.3878921426908295,
        0.32137806576202066,
        0.20341501126463327,
        0.18359472535867885,
        0.18144790290990565,
        0.2708874256819674,
        -0.05793906501579112,
        -0.032726981965600734,
        0.18672136125282957,
        -0.07371335618165017,
        -0.09902554074055081,
        0.03871289290760339,
        0.23996693976397077,
        0.20692471786520097,
        -0.1690791595903518,
        0.06045251989333615,
        0.3679593948782517,
        0.13190890998625093,
        0.1376779028284737,
        0.045986473112699475,
        0.07472695805852432,
        0.2604404042943542,
        0.04816122229559684,
        -0.21919486719687345,
        -0.03734767227842222,
        -0.08250050550489037,
        0.06936986538001125,
        0.23699064245972667,
        -0.16681597115214755,
        -0.10398649889361695,
        -0.29449606614609225,
        0.24046543297105952,
        0.5095374867430374,
        0.24013724068982645,
        0.1863798390643829,
        -0.5576974539493634,
        0.17774363869891524,
        -0.30777701722528106,
        -0.5891446454696683,
        0.37514136519328456,
        -0.119918012346674,
        -0.5343728422187466,
        -0.48816474123265263,
        0.4634953015042105,
        0.034915075448257095,
        0.21295288567885165,
        1.1674186219541698,
        0.18393162789820153,
        0.08174850943539094,
        0.17973058665783126,
        0.0804244784320428,
        -0.22502802705438296,
        -0.002884308472749271,
        0.10982700262672337,
        0.2695996445821006,
        -0.04490420738295436,
        0.25985418462061977,
        0.021913106849977274,
        0.03309749520850746,
        0.2747908832461555,
        0.062065899503835016,
        0.08191250227065502,
        0.22816693254926582,
        -0.024356627637862355,
        0.22236746496382095,
        -0.10463911338934517,
        0.25861433516937693,
        0.3096109957655673,
        0.025261191870513858,
        -0.07490020155545749,
        0.03151747317623533,
        0.08677658334329262,
        0.18069570303554916,
        -0.03793189838608282,
        0.0005841071445781307,
        -0.02871560839508422,
        0.347671659677611,
        -0.08051765797135978,
        0.0024746026255000964,
        0.07952175078092448,
        0.13814706672247015,
        -0.7183259191277971,
        -0.6348302866652178,
        -0.6907276348521808,
        0.4299931580168015,
        0.4577093668176628,
        -0.8114843099625872,
        -0.0224583219972299,
        0.6645540344051584,
        -0.40298373865857906,
        0.01941254561590125,
        0.6486045079684154,
        -0.7503581648485278,
        -0.4588435421865131,
        0.3676719595675944,
        0.2748572581213015,
        0.0709838546345443,
        1.0717262417682136,
        0.3368691454591065,
        0.3116021933753409,
        -0.1310383355848199,
        -0.02570987177968245,
        0.053331756718126136,
        -0.22244329185189185,
        0.04770861236625052,
        0.0620747561600658,
        0.051541176642465554,
        -0.1798266879169979,
        -0.4515679276564284,
        -0.03869765338992099,
        0.1965164986782502,
        0.03227908787256679,
        0.038698897489449255,
        0.028768918748191128,
        -0.27728275040280903,
        -0.4167755203929314,
        0.27438619141052883,
        -0.08116049506008481,
        -0.060491219535413754,
        0.22312633833724355,
        0.16367439485065638,
        -0.02834968716735869,
        0.16435726546843407,
        -0.04270159869379435,
        0.27958846707615065,
        0.18676042037434307,
        0.15687718433134432,
        -0.08016182276603176,
        0.15119130132014874,
        0.11079425890063369,
        0.1056447484247433,
        0.2410969460743768,
        0.32910384948674226,
        -0.11528466685272512,
        -0.6028418700930313,
        0.029303625081968983,
        0.01305980619457748,
        -0.7970437934770983,
        0.1965330907637826,
        -0.4535711907874565,
        0.45286560177870566,
        -0.1760359322548659,
        0.14547728199954876,
        -0.42989954087068566,
        0.3378591664432589,
        -0.4956346034762315,
        -0.6876284819794634,
        -0.20730282617966386,
        0.2688631541119772,
        -0.2836510045775681,
        -1.2423969723284027,
        0.12786767201663388,
        -0.049079377612883744,
        0.14957805535022023,
        0.08118304785695393,
        -0.08875655320514851,
        0.11256817717291123,
        0.030651509687098597,
        0.07033126099923356,
        0.09644735669043845,
        0.007234557944959194,
        0.15615314672422465,
        0.23517048125007103,
        0.15019552982009532,
        -0.09500399522655414,
        -0.12123082482419997,
        0.12244376245763293,
        -0.6708391505403254,
        -0.2995042309056337,
        0.07032825690482108,
        0.07608738583035271,
        0.2815211130007879,
        -0.1499992178694283,
        -0.0014455953715518102,
        -0.08211007353885322,
        -0.10480324270362443,
        0.05808305798158286,
        0.32774085826729515,
        0.18345538026391667,
        0.11594945072018609,
        -0.02060368124926014,
        -0.012414836103045014,
        0.1363625448694748,
        0.0322056063729915,
        0.026019923954387136,
        -0.5360545095906402,
        -0.39165133529365675,
        -0.2853847803880951,
        -0.09931352084754365,
        -0.0940438641199214,
        -0.25501393600271083,
        0.2398690384122546,
        0.2807290925615631,
        0.19453624746221737,
        -0.03812027232375831,
        -0.1728512505643473,
        -0.5855434512584797,
        -0.0934005520393732,
        -0.34285422929295933,
        0.2799741978160522,
        0.14197421080642553,
        -0.39965854959566943,
        0.2548009933639245,
        -0.03691474840691186,
        -0.1725703238797118,
        0.04493832267756955,
        -0.026489118552068674,
        0.08452252708086701,
        0.17499380114783744,
        -0.33347468698390015,
        -0.1403890580362921,
        -0.1860909415591922,
        0.07040041179600481,
        0.01106091868101161,
        0.09318726987241507,
        0.0028778753967338964,
        -0.017584975580646176,
        -0.22062527303332843,
        -0.02380553466584351,
        -0.05336158338000276,
        0.11822832785396144,
        -0.016795373493598845,
        -0.03772807337523534,
        -0.17507508288937343,
        -0.1319297838595945,
        0.21090728374428813,
        0.08845275846712689,
        -0.0020807837889152514,
        -0.13912903431619986,
        0.12221958337178333,
        0.18434115622103248,
        -0.02364411572470206,
        -0.18596946357370597,
        0.24806731293291276,
        0.09449970275232894,
        -0.17942312515392397,
        -0.14087228274980682,
        -0.12287841231186962,
        -0.13422601811921428,
        0.09359885167374891,
        -0.19649392546314265,
        -0.14480393880687356,
        -0.0189538455261716,
        -0.199688913876554,
        -0.17384806801257607,
        -0.1006036059434976,
        -0.05585680816458881,
        0.08458216316109522,
        -0.0471496417929662,
        -0.08570289443507283,
        -0.03972112948503545,
        -0.035502180099529795,
        -0.16472547551953853,
        -0.01417331499456718,
        -0.15399306922473824,
        -0.07371160836018788,
        0.15249692689636077,
        -0.006091803705811813,
        0.02141488615465935,
        -0.042219232578524134,
        -0.12363034079165236,
        0.03355611809290567,
        0.09364600563409901,
        0.09483863301087996,
        -0.18090482670883398,
        -0.06103984815834677,
        -0.11468064331302169,
        -0.00559820135936828,
        -0.18746167044054665,
        -0.1441200500929783,
        0.17633905697472826,
        0.17054701067941372,
        0.01718207203971762,
        -0.13170631061883392,
        0.08741025889063524,
        0.02820980262505278,
        0.16110685102355227,
        -0.14982639236904471,
        -0.12779476933838735,
        0.012283894026780996,
        0.029575118715962762,
        0.02226120748623728,
        -0.16488331478371807,
        -0.1723468926330762,
        -0.07391093686359838,
        -0.004916325894883918,
        0.06379873498011134,
        0.018962396594262184,
        0.06849284727231536,
        -0.7067693379404243,
        -0.4910683637085233,
        0.5999817801688905,
        -0.29535657652957853,
        0.7850717572288443,
        -0.2839096831854563,
        -0.2250179498255233,
        -0.48249071001497634,
        0.5495023957523835,
        0.6946706847291851,
        0.18838738335030605,
        -0.677632986504069,
        0.7003509311467687,
        0.1629939024954366,
        -0.8488692805775337,
        -0.080650721276501,
        0.4984707062386346,
        0.5737598397323009,
        0.2778348438209658,
        0.12293633729074807,
        0.1226626190936164,
        -0.0028256132066645503,
        0.20711839420352277,
        -0.08540398856120725,
        -0.10571155876992488,
        0.19914702591986677,
        0.3676314518863783,
        -0.10031436548558921,
        0.2537638546332553,
        -0.04043988816331091,
        -0.025851247311539965,
        0.055247306486279214,
        -0.2757480486112786,
        -0.04856122877732682,
        0.052820847675239146,
        -0.25203882413697926,
        -0.03181154767954957,
        0.02073843625371875,
        0.18891195033842034,
        0.235136333535974,
        -0.13106220767452695,
        0.11288631699315925,
        0.04437937669897697,
        0.1959420765248403,
        -0.026859596554235084,
        0.056102535717413984,
        0.07760125498703219,
        0.1329580370991207,
        0.3595638158780043,
        0.21721399514459908,
        0.2456238830904269,
        0.251014233210234,
        0.9376277700020373,
        0.7683610532231464,
        -0.16926362734733144,
        0.6964367821418481,
        -0.42305368045427755,
        -0.49703651581029046,
        0.16334799593906454,
        -0.2819255863328765,
        0.5844182246346254,
        0.7688833801840367,
        -0.2562309321540111,
        0.22957532868266134,
        -0.5688664514954462,
        0.5960390566406137,
        0.07709472112363326,
        -0.06485313458451694,
        -0.13450781491920807,
        0.3290998422140629,
        -0.07777807363954237,
        -0.1697106349933405,
        -0.01816680270191057,
        -0.025497302755582187,
        0.17965458885023586,
        -0.0588697453254519,
        -0.12394252173745218,
        -0.07305364559262222,
        0.16700775511047347,
        0.2677657324160063,
        -0.09771333274191622,
        0.016614875739043935,
        0.12780872091438408,
        0.4113710839899395,
        0.3289378850107492,
        0.1842164001757661,
        0.6702061618173584,
        1.1406081415845426,
        -0.027024865890111667,
        0.16233418497529534,
        -0.19452988451362344,
        0.22221398464700626,
        0.16944107823839938,
        0.1698219636436194,
        0.25179420294756955,
        0.14351998340519953,
        -0.18959748400509036,
        0.21423088924060235,
        0.16375579992904565,
        0.046115261118415435,
        -0.09884507313269696,
        0.010255713888040998,
        0.23611860735595605,
        -0.18125435060079562,
        -0.19115967170729875,
        -0.1903641797004025,
        0.33063286565707184,
        -0.34084831551199546,
        -0.30208548215330955,
        0.524227704736188,
        0.3536729249521191,
        -0.47612994680615434,
        0.392628467403828,
        -0.3680103029152843,
        0.11657033400187054,
        -0.4707904000555624,
        -0.610175165813227,
        -0.17633082280732998,
        -0.3342280407453476,
        0.1863338723836194,
        -1.0912769717948343,
        0.27034730472494434,
        -0.055955630035484025,
        0.0730907302009532,
        -0.07178410668456256,
        0.19913082025029252,
        0.22465487156796313,
        0.145676838764281,
        0.12715555272494877,
        -0.13589075348184856,
        0.14722968340814774,
        0.17282775820026558,
        0.11472152289657701,
        0.026563696937015695,
        0.07766056397947546,
        -0.044797097798589765,
        0.4087427567029366,
        -0.07783375420004078,
        -0.03880302834693005,
        -0.12254693095534501,
        -0.026998601603730556,
        0.03504834209134542,
        0.02363307890317044,
        -0.07083086653503542,
        0.12959818886471378,
        -0.07877149868662414,
        0.32105755324775714,
        0.00261340877942471,
        0.239306726451182,
        -0.0868774323458065,
        -0.007371612355505432,
        0.13448023462440634,
        0.04194160797587594,
        -0.060468157487617136,
        -0.11970653561495741,
        -0.008277830370555864,
        -0.11395190972791264,
        -0.1844179347580859,
        -0.17088790495153874,
        -0.19190763292884588,
        -0.018980570847787762,
        -0.08024475437176704,
        0.12576353778641347,
        -0.05831653227915191,
        -0.14264125761305413,
        0.059691044071451094,
        -0.11833365115448725,
        -0.06856323554254307,
        0.06480057632810328,
        -0.03398548229826097,
        -0.11071008651511442,
        -0.18911271955431588,
        -0.05971468795795542,
        0.1507550487442812,
        -0.15823777234203631,
        0.056867915511690376,
        -0.1672854388169921,
        0.07958592041768682,
        -0.117023905941902,
        -0.10965029552604509,
        0.04334296421565492,
        0.035879476127144275,
        -0.09808216108779388,
        -0.13420252034745217,
        0.1486184790982528,
        0.16981959035700095,
        -0.18285472410867493,
        0.016676796288795002,
        -0.18704651316914148,
        0.1293785088741047,
        -0.10549185678201001,
        0.1796593727830211,
        -0.12395955496277426,
        -0.04820744286075086,
        -0.05379081521655557,
        -0.159768048015167,
        0.05693699585731927,
        -0.14854507110550774,
        0.04168959352073452,
        0.14197388927730978,
        0.16173585695781423,
        0.04476265840456758,
        -0.17414934778102992,
        0.030778388206995928,
        -0.09593641194954111,
        -0.14623695611408194,
        -0.013635924102273716,
        -0.060133075032798286,
        -0.08460918709476296,
        0.3642183055976661,
        -0.5024158906304558,
        0.17168492563371548,
        0.23120174819121359,
        0.3568554442769414,
        -0.41342504292427135,
        0.13773884628712751,
        0.07809301981322106,
        -0.14243017008080114,
        -0.3210240063407753,
        -0.8980156457961987,
        -0.3485260417736353,
        0.1759134364725293,
        -0.3627140123454469,
        0.3497818574021869,
        0.21623813815906917,
        -0.935589402580363,
        0.34413570038229596,
        0.2190482868547864,
        0.04030975952973809,
        -0.0768713831699933,
        0.22199015079362255,
        0.18705396578245184,
        0.12025631934232411,
        0.02159577606790462,
        0.05123970725731148,
        0.15934390179280597,
        0.21063416856391376,
        0.21375183730153244,
        0.15140786593645955,
        0.005438765150344043,
        -0.09803126229072771,
        0.08913387114562046,
        -0.31151567669104513,
        0.10698262530197794,
        0.20220262020684532,
        -0.09726759978821166,
        -0.015008809413981132,
        -0.0608135789896601,
        0.6053072732517074,
        -0.11330973947050221,
        -0.09539210587830596,
        0.18527125319058582,
        0.41299298624606223,
        -0.03257339993671035,
        0.07177549938573743,
        -0.14552201272429308,
        0.09043994698317685,
        0.012135406182436487,
        -0.059065605378024515,
        0.31556963426081264,
        -0.7945121578741865,
        -0.3482750169635728,
        0.7209417904175032,
        -0.619301323045562,
        0.40398278295708423,
        0.23815845319944137,
        -0.17869929910705892,
        0.2287025098343134,
        -0.38526947902155917,
        0.21263777216886218,
        -0.2187407157671272,
        -0.08663784134137559,
        0.5938357893720085,
        0.482166814740436,
        0.43186178027735755,
        0.12615472329511232,
        0.7364617672846652,
        0.9118021859785544,
        -0.13214272390592682,
        0.04815953971545803,
        -0.09866937673222487,
        -0.04447409337839728,
        0.1732166695329314,
        -0.12875432551488336,
        0.3137884593052882,
        -0.008360231449731014,
        -0.03014685557759143,
        0.016967356660628766,
        -0.03227193598441854,
        -0.2210074897709576,
        0.10297294189466696,
        0.0020912663270925137,
        0.13763870687876947,
        0.36802134190138946,
        -0.22541456331959372,
        -0.35067036244434346,
        0.09186333789725198,
        -0.11186821491203032,
        0.10417881252853804,
        0.3989384430332336,
        -0.29868482565018545,
        0.037349211626615926,
        0.23156681180941352,
        0.09462786636630652,
        -0.1900193047222651,
        0.16348576856065708,
        0.11263787287198225,
        0.40832949590066175,
        0.03291282060734669,
        0.1400663703385646,
        0.3355497957759407,
        0.11932141448241274,
        0.6663644704982403,
        0.3886536084315799,
        0.38374941438890325,
        0.4534192337857656,
        0.5034864368422256,
        0.47588847218306535,
        0.15445586858503535,
        0.03496906870785732,
        -0.23218801217673485,
        0.02329300210457433,
        0.115251252160892,
        -0.5168442645702492,
        -0.4322525268591342,
        -0.519116297474857,
        -0.3165755796029178,
        0.4051187555074229,
        -1.0920326194346726,
        -0.30840614808165073,
        0.03568903278293624,
        -0.031656078122639195,
        0.009705436851030456,
        0.3038677699630201,
        -0.1701360688116217,
        0.1025018871371067,
        0.22218397598127046,
        0.12203596270657503,
        0.2597836083914933,
        0.060539901646979505,
        0.11453804123690885,
        0.008858882017942523,
        -0.13419747135889565,
        0.10948755622527685,
        -0.07612968947725511,
        0.01572001035167243,
        -0.15723398509931014,
        0.2009400648030036,
        -0.0524822509727964,
        0.12902670947932826,
        0.07446893946696301,
        -0.19541254867631036,
        0.15573915594184998,
        0.17260257317018673,
        -0.02940176982196708,
        0.12845538654742455,
        0.11862756463088642,
        -0.161200017889387,
        0.13507679814323043,
        -0.06134640824503906,
        0.1291896678788528,
        -0.0934757780170198,
        -0.0245175851851063,
        0.21854294371833052,
        0.16758560843344397,
        -0.16225328457614327,
        0.572225348088011,
        -0.6028115787684519,
        -0.20237355624492795,
        -0.6129489232313651,
        -0.5966849724243471,
        -0.4805408396942753,
        0.561205242331501,
        0.5315110125280544,
        0.4430543541241841,
        0.010626154979106437,
        0.4910543582917251,
        -0.4832962675140401,
        -0.5313017657643117,
        -0.03283662389772237,
        0.07923297333140564,
        1.3533141634135015,
        0.1563211827931325,
        0.08751914761306542,
        -0.21437013018755102,
        -0.0722209989337438,
        0.10539806072325056,
        -0.07438379344055182,
        -0.17914503065627052,
        0.009387600634860757,
        -0.06647653838728908,
        0.3238064779375317,
        0.09269361866590188,
        0.22818355606207658,
        0.21665377828544555,
        0.23820735262615275,
        -0.2516219484681899,
        0.010853952976687373,
        -0.11000074515293497,
        -0.40210574438654295,
        0.14358421448818406,
        0.07201664803786345,
        0.05093590459250345,
        0.021232679889923136,
        0.07282480678708575,
        0.08561149332343598,
        0.07061510835852691,
        0.10700347757611899,
        -0.22062331305257557,
        0.03272554968833594,
        0.11327033798405269,
        0.1077260461431031,
        0.17143594467718481,
        0.1117332377574233,
        0.004977774643832914,
        0.10269826053002935,
        -0.426065717944452,
        -0.6883289371230865,
        0.3351122124382281,
        -0.06719428403441705,
        0.4582773741029699,
        0.45406495207151276,
        0.5847025624625696,
        -0.538782750648705,
        -0.38329686121328177,
        0.7980976788519749,
        0.3094488971833392,
        -0.4250693222328878,
        -0.7697425642538348,
        -0.32147805839127436,
        0.015841221740446092,
        0.19299299769008504,
        -0.8677142217402563,
        -0.05320077751221547,
        0.29315209345041393,
        0.2531153160937209,
        0.018319825276963235,
        -0.004574301465137016,
        -0.13723425535813974,
        0.29693714629861045,
        0.2940181908746814,
        0.04535786387195025,
        0.10972030236169442,
        0.022603437906293274,
        0.0526812336564982,
        -0.04651814174746128,
        -0.014289272003841886,
        -0.023767516557034518,
        0.22046653821972828,
        0.20551955493101876,
        0.2895581955290458,
        0.06528115370771533,
        -0.023469404511488774,
        0.05573669893010521,
        0.14976913832825559,
        0.19154509560596666,
        -0.11621713765455616,
        -0.00899977045795757,
        -0.014516398914541295,
        0.30009355867035936,
        0.11248315786346617,
        0.08789202231744318,
        0.08941543380620683,
        0.17809076229971482,
        0.0726467953090433,
        -0.09411394528543453,
        0.08780108179236584,
        0.19370546894322127,
        0.5197638231696801,
        0.562931119167819,
        0.037050346495803424,
        0.298154628584722,
        -0.4488987400070889,
        0.2211866589397073,
        -0.5203029916435451,
        -0.05505628500812643,
        -0.09060404677374756,
        -0.5086466649541697,
        0.2727175827539394,
        -0.24031580814278564,
        -0.5310014701696792,
        0.08580529493827695,
        -0.27290076463707885,
        0.06775240239130784,
        -0.6211205575060847,
        0.6865987873225029,
        -0.06799369205660867,
        0.17378092808610374,
        -0.13250603433593056,
        0.015453511079117003,
        -0.1609334444023879,
        0.07915105139560646,
        0.1912896849781405,
        0.06786457088333993,
        -0.07115375813635672,
        0.017673508920438678,
        0.09711279454504591,
        0.22755142238026155,
        0.29945624615592853,
        -0.03855397698857691,
        -0.32604600525611915,
        0.1867836844590531,
        -0.28874363779800466,
        0.6562967658485693,
        0.07224429062558592,
        -0.060051419048414045,
        0.28427948008482534,
        0.2652920948844786,
        -0.008039272911362944,
        -0.13756545307828172,
        0.2441244898301852,
        0.030365037920408445,
        0.10503419810816718,
        0.12226887542058916,
        0.16334411461062626,
        0.09542688273290054,
        -0.12059347797449718,
        -0.0011555442044510079,
        -0.12571373922602969,
        -0.0949848982114265,
        -0.42048787445790503,
        0.5775651376496019,
        -0.906596772145861,
        0.057758405286955077,
        0.7288585878454943,
        -0.3695834676141775,
        0.02256639037407183,
        0.27950567372334145,
        0.322602589531783,
        -0.6893081652619962,
        0.4488326218350132,
        -0.33845089767350267,
        -0.2874781888367005,
        -0.5069813312952871,
        0.2680142420449008,
        0.22061678075672306,
        0.09770546380779235,
        0.810078038511493,
        -0.10042828072040298,
        -0.1583560236158014,
        0.042654010376242384,
        0.08794572867341328,
        0.2109474746642799,
        -0.007753177582925938,
        0.0006958569522001983,
        0.1606299155609527,
        -0.12438034228795858,
        0.30245786699556604,
        0.05483983244171685,
        0.2631207449969513,
        0.2743362952299561,
        -0.10752142417150122,
        0.07280021368451059,
        0.135191812986473,
        -0.302880678203861,
        -0.13674040308379465,
        0.14363625910339828,
        0.12734255521454915,
        -0.013007655700934295,
        -0.10178927689911864,
        0.15248692816926443,
        0.34487146655275164,
        -0.014723770520903024,
        -0.06823876886357123,
        0.06586850660474605,
        -0.091270173979869,
        0.16123053731807155,
        -0.018842248550667202,
        0.005177295849367676,
        0.2755524885064844,
        -0.05678691678604254,
        0.005816572660644859,
        -0.3854198400999065,
        0.6701247878401101,
        -0.31923661127689457,
        -0.18366592656256056,
        0.17976710651205569,
        -0.31980663090327993,
        0.3344244272284854,
        -0.5513649110341312,
        0.15484778578100497,
        0.13769452325528087,
        -0.41811952666486213,
        -0.7062644610855411,
        0.4004260227113247,
        0.8186394402862006,
        0.3049949256055692,
        0.035164539166367706,
        0.29694123650962795,
        -0.13498728280001035,
        0.056334338388544784,
        0.020342000199028758,
        0.042046984727342356,
        -0.13549745881128183,
        0.21727620829746394,
        0.16570020867980562,
        -0.2092244299176396,
        0.1347112321248791,
        -0.22958045464092874,
        -0.06797555551363606,
        0.19036903775658098,
        -0.012201584212220376,
        -0.16598002512780566,
        0.41144471252791004,
        0.628745332070491,
        0.024244617691785795,
        0.5385123217071448,
        0.25272650092976917,
        0.2534594012863554,
        -0.1262326901026953,
        -0.2236687161059868,
        0.12676429128830966,
        0.015243721007964468,
        -0.05736992828561835,
        0.06397058241896236,
        0.015634201340010742,
        -0.003072232315222421,
        0.46899480163642593,
        -0.03109292011727536,
        -0.04956697993932173,
        0.03652380885208509,
        0.09656921775119207,
        0.031595107144312906,
        -0.17765587631958968,
        -0.4913731511440678,
        -0.8312835006716744,
        0.2809513426628629,
        -0.1454537415729457,
        -0.2998561100743276,
        -0.031899272760466654,
        0.31445351963791296,
        -0.32137230231888003,
        -0.371157334309508,
        0.5960119787681385,
        0.27578592993532874,
        0.19315318270261406,
        0.5490520769464259,
        -0.3024346749128404,
        -0.5569279081400452,
        0.2097992601746583,
        -1.0929759772140961,
        -0.11410274621762825,
        0.20268351125361952,
        -0.014899711438043443,
        -0.0027992700683215485,
        0.0668009975595697,
        -0.09215321766554116,
        0.002206765897811835,
        -0.013850076508183954,
        0.3175761408265648,
        0.06358935976037083,
        -0.13151566623628025,
        0.06254188127174379,
        0.15562110293749773,
        0.19138557726616928,
        -0.10608521531133165,
        0.012244636915226629,
        0.04688633687319878,
        0.13979826955668465,
        -0.21902766210012986,
        0.032267000452734416,
        0.008998555835525229,
        0.19177563828097632,
        0.13139016065892908,
        -0.26549633072431117,
        0.3317667780110615,
        -0.1808348638931827,
        0.06952633000074336,
        0.18668636551942977,
        0.11964622857744248,
        0.02002310474218527,
        0.16750452877734553,
        0.20856756618513972,
        -0.021343617092613704,
        0.26329427805169214,
        0.179182927718169,
        -1.0198009330460849,
        0.5067424859473232,
        -0.43465221611739346,
        -0.24660271203094658,
        0.5963258720764884,
        0.8734586851318945,
        0.4699236628432665,
        -0.4379567243128608,
        0.1851435690647802,
        -0.15618277967990948,
        -0.36790262847954375,
        -0.4137163246210569,
        0.44794869614035,
        0.7908049875960592,
        0.2907460344965834,
        0.30854264283335914,
        -0.4461930328527686,
        -0.5399016368848347,
        0.04755940841751071,
        0.21267955014067594,
        -0.025430416218779964,
        -0.19000529127171495,
        -0.004579519953582454,
        -0.11295393434721601,
        -0.002901361942776631,
        -0.09814416878227922,
        -0.08872784925631493,
        0.04947722184522487,
        0.027798176792850182,
        -0.4017132264788718,
        -0.18879031798322385,
        -0.15265073459664863,
        0.8946037953021286,
        0.4639550793361442,
        0.4855381486081532,
        -0.37553965741073786,
        0.21312911556260528,
        0.022909457991751255,
        -0.307728085431599,
        0.13027574901512443,
        0.2196277997400802,
        0.07526703919671088,
        0.1742524421282421,
        -0.06667998818174882,
        -0.1932742778581827,
        0.1443503979462177,
        0.05945254020040816,
        0.19351045520312712,
        0.1545441620448294,
        0.15941270062341525,
        -0.05705340381748663,
        0.04135240366151513,
        0.15432236814747244,
        -0.7289719983915187,
        0.3051646177944199,
        -0.5378012587425427,
        0.6129390088617033,
        0.4526815826172482,
        -0.24644963195249436,
        0.3117248146583665,
        -0.09619359939466063,
        -0.06758773252527807,
        0.3475245100296937,
        -0.154594697891826,
        0.13441160865004548,
        -0.12681647239232652,
        -0.3001088495880614,
        0.30433429627658315,
        0.004456657736804076,
        -0.0010935078094917875,
        0.022168806654798742,
        0.0029854123409811368,
        0.05090882726835906,
        0.33235335221349555,
        -0.06871320679515394,
        0.035028712802227746,
        0.32367580313270194,
        0.2729518017563558,
        0.40654227211242416,
        0.08974625690988279,
        0.3046382355764136,
        0.08990052447346704,
        0.022290981171927,
        0.1361400506169748,
        -0.22431783606477793,
        0.30987039579705616,
        0.033192936638970424,
        -0.8538648611767827,
        -0.061031011028129536,
        -0.08847373511965144,
        0.11438662191362993,
        0.026963939875384584,
        0.06482466921818887,
        -0.1338761724576785,
        0.13245366694306054,
        0.29069876232134395,
        0.2970581624238447,
        0.13710909602157736,
        0.07384582747571691,
        0.28793532695080787,
        -0.026458553108672827,
        0.11239985506261667,
        0.10029287817874917,
        0.27312580406513015,
        -0.8127408144572326,
        -0.06386159622230626,
        -0.6577335410530484,
        -0.4575196443836908,
        0.6242972527504264,
        -0.12991862588588426,
        -0.6042522386661026,
        -0.3797666888729474,
        0.14114248822501124,
        -0.7992374440560526,
        0.31067598277274294,
        0.25787975102244454,
        0.5714790075072346,
        0.2294829162584684,
        -0.2988695814192145,
        -0.01638036135892118,
        -0.46906658077965235,
        -0.852908940243697,
        0.365487628519637,
        -0.0902626258186496,
        -0.03973106365819957,
        0.17900272021659805,
        0.0015418825381421494,
        -0.35553242610947217,
        0.1751991421242164,
        0.15348888034860805,
        0.059402327599638434,
        -0.16520188351079323,
        0.13833433567605236,
        0.20744806460205403,
        0.07365596749152782,
        -0.10629534169412122,
        0.36932338365087974,
        -0.2398516830874332,
        0.24518691115668967,
        -0.3821467739284689,
        0.35364676506505704,
        0.0009798056262498274,
        0.04092253350193373,
        0.31581919980041473,
        -0.21233824203701676,
        0.050874526568000004,
        0.3201963157449072,
        0.16637899378409227,
        0.04255950493046251,
        0.33992786462057145,
        0.07675587586313119,
        -0.039447057908328594,
        -0.005439808316612101,
        0.04979596236696921,
        0.32530113036309927,
        -0.07441746365068028,
        0.25914317678638255,
        0.4199117309949534,
        -0.6382480840451382,
        0.6183921159240235,
        0.3572039988152783,
        -0.42636785282948464,
        0.5140406469340608,
        -0.8207262910041853,
        0.7038734823542458,
        0.670460515370625,
        0.43923066567888586,
        -0.7026278851982454,
        -0.5274463681688488,
        0.4472804439536296,
        -0.6776081673864973,
        0.2378096928734979,
        -0.6965084635797665,
        -0.112125612872982,
        0.24155106059368736,
        0.09495145179104586,
        0.20656626990663102,
        0.0359143383295631,
        -0.004797865048096906,
        0.1749554735286145,
        0.13323915361908692,
        -0.03741399753161575,
        0.28241971889755324,
        0.10554390933851177,
        0.06959926160056987,
        -0.21712787069957748,
        -0.15451886013041474,
        -0.25859737383161446,
        -0.5216721854040955,
        -0.057053162265886,
        0.5447474147053376,
        0.7406259436146159,
        -0.2097900827472252,
        0.07811426899676743,
        -0.09426707181795568,
        -0.13657589531368328,
        0.31803470350704793,
        -0.015005348455761292,
        0.10609505436631121,
        0.13287284311384556,
        -0.11724490358517003,
        0.05421359803508409,
        -0.10262043991682489,
        -0.19242082058635337,
        0.09565711941311186,
        0.17583884826332694,
        -0.02831013459370562,
        0.1940752772235852,
        -0.5062533671863767,
        -0.5082252941312526,
        -0.3246348734639966,
        0.44186229997521353,
        0.60180298099491,
        0.10556247092292045,
        0.44618547681408277,
        -0.47125162893325845,
        0.09856924205427375,
        -0.4068529214451019,
        -0.28143029892447624,
        0.14266485742936055,
        0.3563274745688331,
        0.45869238319471317,
        0.13650739008770083,
        0.20104705867485442,
        0.6934079492241669,
        -0.6916139635277241,
        0.14153456530423336,
        0.13134022340364693,
        0.1955452968312637,
        0.01598119009951389,
        0.22871030752791235,
        0.3099637180072671,
        -0.15962067174288036,
        -0.025903346225771184,
        -0.026103333650496063,
        -0.10986952669213627,
        -0.08929496176616002,
        -0.06935411624398176,
        -0.2731493836474667,
        0.07829567528847167,
        1.1643708217394457,
        -0.07734502572118267,
        0.12127917007723246,
        0.44699123132980595,
        -0.013123182403924004,
        0.22632176276813465,
        0.02526212335113587,
        0.1380800772054738,
        0.2702891766315051,
        0.1452396997390802,
        0.038286812217648736,
        -0.14572720983362597,
        0.0866089511708283,
        0.285446601494745,
        -0.1574051439316369,
        0.020493668524495096,
        0.23548606897673405,
        0.04236078580274084,
        0.15007829594410918,
        -0.043850743674529416,
        0.21261665786094477,
        0.4543181170287906,
        -0.6290017136906652,
        0.28439038922845306,
        -0.3580583536439591,
        0.27524390265582116,
        0.010449684437794942,
        -0.6545431508925714,
        0.504503837178816,
        0.32322041694809034,
        -0.07696586168782454,
        -0.6201375586368008,
        -0.6902627821341905,
        0.8059282273978494,
        0.20674913110275053,
        0.1712818836215105,
        -0.38998675717852294,
        -0.22948931711595016,
        0.028208733587518752,
        0.14157835945758346,
        -0.023562798179855557,
        0.15561673608962792,
        0.3532536480421238,
        0.08557404238981281,
        0.22040265905393847,
        0.15083322127259347,
        -0.18130768521940593,
        -0.023855270823655936,
        0.10830465454036986,
        0.1417048605995209,
        0.007510563871220884,
        0.3064038522198792,
        0.8550090447013733,
        0.2368161181450451,
        -0.2318618093730397,
        0.4439748069825537,
        0.3829979049599188,
        -0.12507668467601832,
        0.15557835175135704,
        0.011836962915566768,
        0.16441876158157873,
        0.0507629248244199,
        0.18888695502571437,
        -0.08907359468463968,
        0.15093519152298132,
        0.08316826945676384,
        0.2957338199228962,
        0.21442049638205685,
        0.01757918905916871,
        0.11045367541527519,
        0.3047585946186744,
        -0.13376597391262152,
        -0.2142718250258886,
        -0.5048967593300456,
        0.25737449328086237,
        0.2693169105894446,
        0.3408735680175757,
        0.3623505512717383,
        0.1531754113769156,
        0.6314399837420103,
        -0.2317219118111339,
        -0.4348534236977309,
        0.2995460725794692,
        -0.07551373834646044,
        -0.5599519715493061,
        -0.47291242343823414,
        0.6221119403953761,
        0.21082568903877852,
        -0.2573364031346465,
        0.4436923121686253,
        0.024341289894310534,
        -0.03272802896250447,
        -0.04135219132133547,
        0.23760445587316295,
        -0.04590869038603928,
        0.28096052242348957,
        0.10846140424781724,
        0.049107986293428586,
        0.14354246392922881,
        0.218246411441812,
        0.06095506015924312,
        0.028673297373159184,
        0.20815925624491252,
        -0.02991795368017319,
        -0.2614926907660719,
        0.3262274975388678,
        -0.11247700350422027,
        0.2396898406130033,
        -0.2537847840414249,
        0.3533332923749056,
        0.1968560902456361,
        -0.16102101021324972,
        0.29023366765230946,
        -0.09126061664083075,
        0.07416494735155105,
        0.08066473730557486,
        -0.04421804507708948,
        -0.060618228058113816,
        -0.023484196986121808,
        0.23237890505459471,
        0.08907248756636674,
        -0.022042775213352295,
        -0.10079120235859589,
        0.045975255370726456,
        -0.1992284219422001,
        -0.41539900882113695,
        -0.5542670069882253,
        0.4371285499703151,
        -0.0794688274222399,
        -0.7315286836817798,
        0.4383917779560447,
        -0.3643859567145358,
        0.11963017951653546,
        0.8631314186874292,
        0.33033320729159976,
        -0.5339857122515371,
        0.4438952449784471,
        -0.3359175520212008,
        -0.47816353871940187,
        -0.017009217831356248,
        -1.1544871745729075,
        0.5404704947456797,
        -0.02982884186848404,
        -0.008240542880198862,
        -0.014058244899966316,
        0.09676543995131862,
        0.1047865504308772,
        0.11987495489050207,
        0.17033209587937342,
        0.06577825368729806,
        0.22654939122072823,
        0.21288105652000913,
        0.1721276253072804,
        -0.11112517698800531,
        -0.01593288916353738,
        -0.001001899668727309,
        0.1311167176336691,
        -0.09038596851207345,
        -0.0319919627402678,
        0.4989892945348811,
        -0.11783327035302177,
        -0.03443697165979806,
        0.3475581846212052,
        -0.17771168474720667,
        0.3204099961865036,
        0.3284447813973218,
        0.15531905374376298,
        -0.01512705960473736,
        -0.03294170482358207,
        0.015086167870530163,
        -0.008895086408597003,
        -0.1268355324280238,
        -0.012663658837253346,
        0.10565352781958606,
        0.04272448686248109,
        0.058026385415650056,
        -0.1175125279779929,
        0.024741735061308008,
        0.2890773609289287,
        -0.33184961121126727,
        -0.4171617271614402,
        -0.09889883346332694,
        0.3737024628658228,
        -0.39702051722569515,
        0.020515727375153132,
        -0.5926838577685765,
        -0.2853091428048481,
        0.5656372415992112,
        0.5521212643754416,
        0.18837124114329637,
        0.1371466497793314,
        -0.09139804128672535,
        -0.1624815478217679,
        -0.8091514643121672,
        0.17590962152896664,
        0.20781406056732246,
        0.3542096888403912,
        -0.006590437399959181,
        0.26719075397547287,
        0.07578635846079615,
        0.0434471212787175,
        -0.09864214124731237,
        0.18340388354266052,
        -0.0779805287668404,
        -0.035594836472719396,
        0.09970732879965638,
        0.129291045094978,
        -0.17893148344070822,
        0.7352939397813264,
        0.02837989620330585,
        0.44917687025826886,
        -0.3263047262041956,
        0.24431883629564916,
        0.1008462134064306,
        0.14625339453259786,
        0.0510234002724453,
        -0.18541972559788752,
        0.16907234294758244,
        0.12461149152853006,
        0.14932380667675604,
        0.19065100071835223,
        0.2748926443010485,
        -0.16934863081529983,
        -0.12778713035156494,
        0.061907483754030386,
        -0.13577791006633355,
        -0.062179280698392465,
        -0.2427402705680803,
        0.5308586056542247,
        0.43392878969185744,
        -0.055408965061467086,
        -0.23931051872911502,
        -0.2906092352916812,
        -0.3842387279678746,
        -0.33022387666185743,
        -0.7433358648039281,
        0.30797659432946123,
        0.5206195599228388,
        -0.3172189253567684,
        0.3012376274466368,
        -0.1708235512613356,
        0.5446482278794207,
        -0.5068588533038152,
        -0.07991184919080711,
        1.048284574406494,
        -0.2715575111489298,
        -0.002520061215249029,
        -0.1092183367613421,
        -0.14191446646141967,
        -0.039682772816842043,
        0.07889443265051875,
        -0.18089507063742422,
        0.2047195065580406,
        -0.03635584188480093,
        -0.04430748447399576,
        -0.20885750606280068,
        0.1334593310959514,
        0.17201227948424297,
        -0.006384691814257302,
        0.010914692667882841,
        -0.058877296836585394,
        -0.03469170933990114,
        0.2652342026940705,
        -0.10963164677077156,
        0.08473627529176075,
        0.24733526687619403,
        0.018100215921177942,
        0.2177197093475708,
        0.0252806575522126,
        -0.04291671527617492,
        0.08851137992432563,
        -0.06871301816589165,
        0.05559773894934703,
        0.017588061920700417,
        0.050032868315111556,
        0.12824380850765976,
        -0.019357426203840764,
        0.1612019197105325,
        0.062472429379390244,
        -0.027131915521916336,
        0.07425013825149504,
        0.4727725390580227,
        -0.5047349873228278,
        0.4223000095084944,
        -0.036782914834565285,
        -0.26880513596988603,
        0.4640510021484882,
        0.028662580498596515,
        0.38845517270458946,
        -0.6624719528333679,
        -0.32384022347419034,
        -0.45611655760400427,
        -0.6044136206197797,
        0.5081398566162845,
        -0.7569293971725521,
        0.27887464143046864,
        0.7712047372434632,
        -0.9288058582230573,
        0.17371260032952038,
        0.06960956734888465,
        0.11478672300668856,
        0.10702298527535697,
        0.22047494868620615,
        -0.04595741378978136,
        -0.01914106113750229,
        -0.21170041157882655,
        0.1847589202772958,
        0.10080448283861443,
        0.1063558609614377,
        0.008195611252740312,
        -0.21651732956407035,
        -0.028667026564861767,
        -0.08667898055059615,
        0.042980868748138334,
        0.27990250463279226,
        0.6739815204183159,
        0.026159281017991833,
        0.20959053213908177,
        0.003288811215986752,
        0.03385735733850868,
        0.33354631115019595,
        0.1530764967474061,
        0.0015501617248832498,
        -0.053280909418443205,
        0.007782308819738034,
        0.28412577584698956,
        -0.1977927046929843,
        -0.04785731670485982,
        0.3657790840201067,
        -0.017494830665497695,
        -0.03768490735976084,
        0.024216104800128948,
        0.17876567914623928,
        0.08242111012194629,
        -0.5952673412503754,
        -0.26812363104263265,
        0.25378465786073956,
        -0.1557405642076204,
        0.44698020493856416,
        -0.4073999095601412,
        -0.0781846453345994,
        -0.31347357212189053,
        0.6876902921589089,
        -0.03582057659204748,
        -0.6756083493538211,
        0.5595598697914108,
        -0.6275358887506812,
        0.1329761169509401,
        -0.577067720974819,
        -0.561829786684003,
        0.29588545502121194,
        0.2439586652280964,
        0.26899530889964,
        0.2057310879337444,
        0.08615449277938102,
        -0.0017736798514232403,
        -0.16941703537652658,
        0.20064226420759665,
        0.0053706758213296285,
        0.17112143797179155,
        0.09253529256329891,
        -0.041716183442972884,
        0.11687170050401996,
        0.27330685563972723,
        -0.4258473688736505,
        -0.22425463327396258,
        0.5074243712460975,
        -0.3344539257920847,
        -0.15897175327222127,
        -0.00783046036969438,
        0.33116144644588036,
        0.0021587469809201953,
        -0.3002163590338383,
        0.30891650653273267,
        -0.14880353688514172,
        0.37082730981973766,
        0.16867922948400724,
        0.06878656725809087,
        0.0851563228951989,
        0.012652417170202648,
        -0.07209319256582489,
        0.07282780722823527,
        0.4001648231248242,
        0.07283401900210515,
        -0.16737380952373115,
        -0.44342308854894064,
        -0.4677799803348672,
        -0.25957922962033464,
        0.5193711606917311,
        -0.30404046588806294,
        0.1703116583507756,
        0.42110790533677894,
        -0.08497923954600632,
        -0.6764595274085766,
        -0.22125030353916086,
        -0.011416114578621581,
        0.4942309568239653,
        -0.031241024582520368,
        -0.12132740191429932,
        0.23919543606596821,
        1.0887658906561657,
        -0.3142081195367622,
        0.03064164679433917,
        0.05499067251588924,
        0.2562026081532246,
        -0.11023992230438878,
        -0.07386166315280181,
        -0.03814136858430621,
        0.05234955344805136,
        -0.08958655426838555,
        0.05107392354343565,
        0.06904525338061515,
        -0.18160322243840724,
        -0.012549969043094467,
        -0.02086788332600354,
        0.2352829717933632,
        -0.11798324869408172,
        -0.27327794617171697,
        0.4163258736842472,
        -0.6009005765209084,
        0.01733209781219994,
        0.3238767672746215,
        -0.08167503074139602,
        -0.09643272214854745,
        0.06638027006875641,
        0.3995064134102992,
        -0.1671944987849394,
        0.030768598936743018,
        0.08945529012635005,
        0.0032041820302151887,
        0.1305400909885779,
        0.14568866051355156,
        0.047611931637285776,
        -0.060553138346408214,
        -0.036771765720357855,
        0.3154326677899746,
        0.3956664129178433,
        -0.2658272473484327,
        0.7456736602216542,
        0.06722093857906289,
        0.842619147298216,
        0.515927427637229,
        -0.3289005294923629,
        -0.34777352122863003,
        0.8106379474880159,
        0.7971023467253849,
        -0.31136477340893404,
        -0.3833470468516552,
        -0.3295155583192497,
        -0.5308865442500612,
        -0.250556540545745,
        0.18309776156054158,
        0.8613398646310491,
        -0.18085982571583234,
        -0.09788767707361426,
        0.06848636335977172,
        -0.08895651172438962,
        0.26831413670219445,
        0.2042418148606018,
        0.018025660998361642,
        0.44128808905393563,
        0.0035539176381191345,
        0.10046412751450912,
        0.0939276938462903,
        0.2014107775284183,
        -0.1717892703469759,
        -0.17143798071970592,
        0.17940560509075748,
        0.15519086491436387,
        0.36848281055019416,
        -0.1557384971486497,
        0.27247873390211336,
        0.06647430325826127,
        -0.00035009844559517054,
        -0.2511927787961245,
        -0.06724059676932677,
        0.30031725584721364,
        -0.16054865573179034,
        0.10318905152416176,
        -0.1608122312955494,
        -0.08715882726526995,
        -0.17273887989849537,
        0.2983173928125107,
        -0.01346785132864617,
        0.1528525524436318,
        0.12899574270382727,
        -0.20543496591028787,
        0.0689618686648061,
        0.1462908182092138,
        -0.33507407533362465,
        -0.09053341299005509,
        0.3963037055210503,
        0.4937886192218571,
        0.1814999890455415,
        -0.16444450850637937,
        0.38407678634493836,
        -0.3828056179332333,
        -0.6356108656930798,
        -0.3524585765303128,
        0.5651409322799619,
        -0.4994259331377666,
        0.4952225201724638,
        0.7996529127708497,
        0.14960883329672836,
        1.0058073416572062,
        -0.13414953185075865,
        0.11102401068052935,
        -0.061674775827649506,
        0.22329717700893403,
        -0.17120513809380372,
        -0.21205201243231186,
        0.09354418403405024,
        0.25613286888211756,
        0.24632740231107259,
        -0.07673822588136549,
        -0.10348931401206946,
        0.194299394704525,
        -0.01782343483022545,
        0.02155904785582266,
        0.19507816426187383,
        0.2646525048965229,
        0.03795174655997864,
        0.1278816565631438,
        0.2215810572169847,
        -0.011801222611618641,
        -0.049273021705070225,
        0.15211390583388404,
        0.058255872783677956,
        -0.10660572915873588,
        -0.11319299748745644,
        0.13862720956838975,
        -0.04454465699762199,
        0.03438422428882655,
        0.20293201713925357,
        0.15465825525428734,
        0.03598865042007353,
        -0.02949363566968862,
        0.29220926871744485,
        0.01937526489926614,
        0.05725283689296966,
        -0.44686848483991254,
        -0.38114423361243244,
        0.14025241600602192,
        0.14912132727235627,
        -0.18993876177209923,
        -0.05220124667995485,
        -0.16359726301845115,
        0.5559995765109949,
        0.21975573212175578,
        0.5409062055571084,
        -0.16574207457131954,
        -0.8217644393164103,
        -0.24047581827908682,
        -0.5503693706166759,
        -0.21616926540795808,
        0.292618254308618,
        0.5686583200300923,
        -0.018438650830570988,
        0.004015586668020719,
        0.08039191812374394,
        -0.06969652886602726,
        0.23286364969446482,
        0.2290721546593571,
        0.18580769542725015,
        -0.041677166847163175,
        0.2133138274516745,
        0.047497627982287134,
        0.06228535356429785,
        0.06820291110759756,
        0.17189808059221634,
        -0.04068183750785688,
        -0.36056159012812655,
        -0.3053773610422439,
        -0.014165610550758318,
        -0.6200230409279512,
        0.19917721961171428,
        0.0353659814674938,
        0.08877928128391047,
        -0.0023320026108779477,
        -0.3587009914446691,
        0.2169531597852988,
        0.08968599374979273,
        0.02849860744601007,
        -0.04742272017921951,
        0.2829543040878471,
        -0.01977078761796046,
        0.14946670449356864,
        0.02018837707253375,
        0.043510861685721235,
        0.0388469244685741,
        -0.16429799428669953,
        0.023640710504341543,
        0.09549833195220232,
        -0.06177192808437166,
        0.19134025808570615,
        0.06952794705629257,
        0.07966381398493713,
        0.17058117935464032,
        -0.07535884387876479,
        -0.057414463500074016,
        1.2450466255626407,
        0.1165227946578564,
        -0.2011950362601861,
        -0.11470674942166871,
        0.053394834473954274,
        -0.16590292610452104,
        -0.06720763934137912,
        -0.19765363447042958,
        -0.038757090925040615,
        -0.16272026569340378,
        -0.12547999870891996,
        0.6127729257399605,
        -0.04785223161918445,
        -0.16004790497015514,
        0.12722044196191518,
        -0.05042951000051064,
        0.1541923048061152,
        -0.11549866039470383,
        0.12157013776414681,
        0.36062303030228027,
        -0.2174215482917771,
        0.032510201400332624,
        -0.037643628995221994,
        0.011531265277087342,
        0.27234510435803716,
        0.7920154403232771,
        0.025055287949656512,
        0.29684443046461056,
        0.04982693902126253,
        0.185689059724154,
        -0.15096365229680128,
        0.018334929021680033,
        0.30656055983052044,
        0.08255957986735289,
        0.08138277633819357,
        0.1206850697853466,
        0.044457814344339354,
        -0.025123470277470784,
        0.08875723603081795,
        -0.02410164158119263,
        -0.2345270580592282,
        -0.10252227091797356,
        -0.037058007348001715,
        -0.19430280234636896,
        -0.18341204611332576,
        0.6417990237786079,
        -0.5318484519092922,
        0.299584514934502,
        0.7018161870971724,
        0.0270862591679725,
        -0.9868825072159729,
        -1.356482742678785,
        0.6321753930238356,
        -0.6584881913616586,
        -0.07397496757607896,
        -0.38556981091726156,
        -0.2977542191761479,
        0.21679149942388826,
        -0.15629615033467625,
        0.3579199269081807,
        0.15100436603218897,
        1.1271406712174803,
        0.040733643275785124,
        0.16678505299321272,
        0.13093626331164218,
        0.33420330087129263,
        0.16379194290204488,
        0.11661117120730824,
        0.14876531778766658,
        -0.02042510381256604,
        -0.08124933012429715,
        0.32723540990846556,
        0.3409098946214715,
        0.07570581333978943,
        -0.07093154425505076,
        0.08932078933966747,
        -0.10056546272963103,
        0.11972600235893,
        0.14482070836505204,
        0.3726117041940053,
        0.3334575312880129,
        -0.08172105757073739,
        -0.036718735592267765,
        0.08876971869716593,
        0.37974320439675757,
        -0.09335004188858768,
        0.49612665762514196,
        -0.11842542336963421,
        0.1401960767977086,
        0.014950464900184432,
        0.4316615767327849,
        0.1589426600336402,
        0.20702009903793311,
        0.4623471776231661,
        -0.018171445944544812,
        0.14322275446825444,
        -0.7813899097332095,
        0.5366363405281943,
        -0.4812179958355718,
        0.23714722773305247,
        0.004084587444754047,
        0.43932597599678663,
        -1.0181427743037117,
        -0.5161243761909067,
        -0.1733174389583649,
        -0.19563980278046406,
        -0.3508544128929629,
        -0.14915122820391133,
        -0.20404868259587136,
        -0.5423294629499106,
        0.8546005124313466,
        0.09043650615642787,
        0.3627654135576081,
        1.336751276846206,
        -0.28842972333220895,
        0.03103988535928271,
        0.06153842483160537,
        -0.09357459223342171,
        0.07640214908516356,
        0.46641754956321785,
        0.16377071878290708,
        0.159770711479121,
        0.08462781192416839,
        0.08887371243216294,
        0.08914583203885508,
        -0.13796153956869686,
        -0.019379219250776826,
        -0.09980087681358076,
        0.4650574169785733,
        0.20817537356277205,
        -1.185410162806035,
        0.5291425511646602,
        -0.1556616274239378,
        -0.08200521598865607,
        0.1483708621321384,
        0.05754512559656071,
        0.12608394510851226,
        -0.09983509969081798,
        0.20338962151031745,
        0.1338770529183422,
        0.10360038397237385,
        -0.18825865788079824,
        0.4270939468969928,
        0.12990403564556124,
        0.12450587548257204,
        0.0178208130354925,
        -0.0892096066187157,
        0.12514278386327665,
        0.48002870075269605,
        0.3729118992630059,
        0.20158057737513374,
        0.6554789187259239,
        -0.30737490378853427,
        -0.41432643622837567,
        0.15948747836520136,
        -0.25513655802010843,
        0.2264175372568877,
        -0.4089945737645863,
        0.1557926520361672,
        -0.9003490186875525,
        -0.5043112056163231,
        -0.4986800066328224,
        -0.24582710989168632,
        0.4523182772980773,
        -1.20064226065708,
        -0.5965029712446541,
        0.059296356177961515,
        0.013373535773796436,
        0.26839337677756475,
        0.2873377089495662,
        0.09690308941309704,
        0.2425470890130464,
        -0.11446876337805334,
        -0.05809628043816264,
        -0.046072405386714366,
        0.139962829756525,
        0.021071456263022172,
        0.22228727706062354,
        -0.07216554423443114,
        0.17587610980001117,
        -0.1950565934573464,
        -0.08753676332836674,
        0.15250744158833066,
        0.5551752161321536,
        -0.12413814554974895,
        0.027761157663519404,
        0.07908995250306168,
        -0.20532468705301937,
        0.3137872778778219,
        0.023054384712109393,
        0.11892034970752657,
        0.24423596633012717,
        0.14490427715758453,
        0.11258830141645222,
        -0.01907393498070786,
        0.08011365480599615,
        0.1009880486192387,
        -0.023796783557756017,
        0.13670444684625765,
        -0.0006909609269086953,
        0.32527340565707324,
        0.3962402600382473,
        0.23854046547369748,
        -0.6228396959900558,
        -0.5965768260595363,
        -0.07822666269562391,
        0.16258682388408674,
        0.589771234268218,
        -0.3225475835211275,
        0.32173071762614325,
        -0.27377453211855124,
        0.32739217536783327,
        0.12520476436826306,
        -0.39348627562375643,
        0.4598812520949805,
        0.030720838073251575,
        -0.3906825893410393,
        -0.43210410458240206,
        0.15411072821875593,
        -0.06563572779181802,
        0.059909802260811544,
        0.20856015085649351,
        0.020732423837944686,
        0.1965310586305881,
        0.10444543682338334,
        0.15108417763175058,
        -0.1367997232925944,
        0.03363146571822719,
        -0.026398637183578526,
        0.09968980008378404,
        0.1681996304635646,
        0.31972852940792296,
        0.9552777566832853,
        -0.02087425721300252,
        -0.5509043166131536,
        -0.735763649031476,
        0.3817395536087516,
        0.07207813503491924,
        0.07680676094611634,
        0.021393152974317788,
        -0.29173422934587057,
        0.13158334155518422,
        -0.05610305835953525,
        -0.15947058099360087,
        0.2910632136578254,
        0.052828706998204716,
        0.09628718825509504,
        0.03285598831709442,
        -0.10163162487409383,
        -0.06627272306667568,
        0.04672429838699593,
        -0.2461655004099536,
        -0.43507252329390095,
        -0.34326827081330485,
        0.5839027542963899,
        0.44422889334846655,
        -0.26735533505617165,
        -0.4283234279903606,
        0.45337344027703547,
        0.2179218462955626,
        -0.26225173829509507,
        -0.10191950092970196,
        0.40118456177669815,
        -0.053188906727618585,
        0.25044984086901245,
        -0.07949157879764068,
        0.4497735466554712,
        -0.009906840464807054,
        -0.08669541070628584,
        0.9913248940960493,
        0.01260467974299336,
        -0.05394564321786328,
        0.2266899123097454,
        0.24333222107630853,
        -0.005373869734248807,
        0.26602413627980614,
        -0.12104032852421091,
        0.009626821166846433,
        0.12596618956238503,
        0.10980847973641857,
        0.02042276804294754,
        0.15465372533334099,
        0.055882187957353516,
        0.2938554811392309,
        0.3513640341015851,
        -0.11319943928663151,
        0.09635164429781835,
        0.27191536781581316,
        -0.09094617246337154,
        0.12888252800521335,
        0.030689857926025698,
        0.22248937844161606,
        -0.3061858446766086,
        0.35415962655475025,
        -0.04978315844593596,
        0.17825939069172106,
        -0.23656305832466507,
        0.12504775140001217,
        0.06646592543806779,
        0.14469566195272543,
        -0.08821097888437901,
        -0.038671956021805294,
        0.09637901921194038,
        0.022786610815232488,
        0.6721157409471454,
        0.51924695888019,
        0.29769830358926475,
        0.17508848068446312,
        0.14175827453523338,
        -0.7640122427044114,
        -0.4404325153162354,
        0.22840182350992327,
        0.5273367184152954,
        0.11483882830403026,
        -0.14027862354141596,
        -0.8289780561327742,
        -0.5684240483971933,
        -0.09860301022125625,
        -0.35484613170924667,
        0.2832419378156653,
        1.0806884423073,
        0.12621081534237064,
        0.32599335735817825,
        -0.038919954070978716,
        -0.13638148664567856,
        0.17232058140440393,
        -0.06071595739313327,
        0.11998248445676665,
        0.12124277969535927,
        -0.03153961707120074,
        0.22687334441071266,
        0.3242024891676301,
        0.03613695610471739,
        0.312872039569217,
        -0.10224347526201999,
        -0.03964536809091901,
        -0.4312829516734467,
        0.14272899449117168,
        -0.04112651112771566,
        0.15560963825965363,
        -0.12358241057168315,
        0.22488517294869648,
        -0.09041948708497415,
        -0.10692941258430055,
        0.3413794600456751,
        0.19964645795699226,
        -0.13450434909533637,
        0.17523586241289862,
        0.13861199895493,
        0.0062617960635411255,
        0.14130173021408624,
        0.07604114988297998,
        0.3093719940418341,
        0.2357010887772928,
        -0.022703934610752527,
        0.05046038639603214,
        -0.26143273673263506,
        -0.3909916757095822,
        0.3440140002982862,
        -0.5616961098244282,
        -0.1850232239257806,
        -0.6206728597071081,
        -0.2400696202546419,
        0.3957341407378205,
        0.12451212427551338,
        0.034106466421284246,
        -0.08636949303053587,
        -0.4717906825385554,
        0.6304153247371747,
        -0.6057082178781675,
        -0.15493778026017702,
        -0.10272795123745491,
        0.7025523552729611,
        0.9100582148389463,
        0.16047720853215514,
        0.1798290831036179,
        -0.07074301934228253,
        0.017663076159187597,
        0.14509416362254982,
        -0.07401803712482082,
        0.010627693286763691,
        0.11172878107415608,
        0.11566370983469001,
        0.31046940364339953,
        0.1101568556882185,
        0.32834289806339895,
        0.3784609867431693,
        0.006505819031170569,
        -0.3984927728182688,
        0.15477695122934937,
        -0.1449534553964449,
        -0.5439533028858738,
        0.07154497041189956,
        -0.03351161576954897,
        0.14540563448446586,
        -0.03559621328431583,
        0.0015350985967096968,
        0.2059791707370987,
        0.25903077415990877,
        0.05944321353650756,
        0.2299230830175666,
        0.13920891117765677,
        -0.05227032784483838,
        -0.07314148045916857,
        0.20083069913825033,
        0.1043126280499631,
        0.11970743334348928,
        0.06037155461929117,
        -0.2578444280045318,
        0.36189736063951183,
        0.16015010483203101,
        -0.5545931181621393,
        -0.32882428243323825,
        -0.3943452553115063,
        -0.7296180073874843,
        0.31667766992140134,
        0.5116731240258143,
        0.2879238381821801,
        0.5504946700033115,
        0.36200332451530987,
        0.24222615745089743,
        0.3094962886615034,
        -0.5636474651856151,
        -0.06336453757902237,
        -0.2500112482520278,
        0.4769896834851839,
        0.417155143432235,
        0.13328345858187685,
        0.1582991947950668,
        -0.02433088670794271,
        0.2351684324759824,
        0.0345609044502033,
        -0.062096426185319506,
        -0.0863861415833415,
        0.0651832905021685,
        0.2333815932253344,
        0.08185698113072423,
        0.2570490960993319,
        0.005167043704996896,
        -0.07661907868306132,
        -0.2458330121847453,
        -0.11497529954047925,
        -0.1622185514687523,
        -0.4995021930285468,
        0.028658344344024797,
        -0.05024690900994178,
        0.20467216783658038,
        0.16908922600315704,
        0.03814313116347904,
        0.026275062407707037,
        0.3249224108600114,
        0.19512639170246537,
        0.18702875841492714,
        -0.07833479951858796,
        -0.13963014776604335,
        0.15429827206644717,
        0.19681681099176143,
        -0.11200978931876002,
        0.2315593826365201,
        0.11331474216592742,
        0.3586511141262212,
        0.45402493123353943,
        0.16872396341299414,
        -0.4737962406578419,
        -0.590222492958518,
        -0.36670040369688467,
        -0.041199212673918885,
        -0.27669062207551887,
        0.490756366809307,
        0.4123608937907432,
        0.3525612418210587,
        0.08753137542587694,
        0.48086944874676213,
        0.3271725854140449,
        -0.7638367654668351,
        0.0451714232342312,
        -0.6841113250372008,
        0.0270815610670165,
        0.22299670206815467,
        0.09735063857846522,
        0.014045331419043197,
        0.02527594261875498,
        0.14119854161017928,
        0.034811864032401586,
        -0.1635498697984951,
        -0.12196449168175524,
        0.020992497416156997,
        0.11496017647716787,
        0.34506914587253584,
        0.031882385242318796,
        -0.05327860233205153,
        0.09941316091436875,
        -0.2874520966030299,
        -0.2688114817944387,
        0.3177309098204747,
        -0.47737808696135164,
        0.048505185230932675,
        -0.23187865409543607,
        -0.02382553961927736,
        0.3085357537192644,
        -0.05479730657150266,
        -0.043558288094552006,
        0.2521540496172302,
        0.0752867484195119,
        0.09106246597229851,
        0.0767098173672859,
        0.047973536864559324,
        -0.178099685924291,
        0.3192554086187817,
        0.08360126705894246,
        0.0641873049920588,
        0.05810812571608954,
        0.15858274134168682,
        -0.6933250996475686,
        0.2760354569757548,
        -0.4246806028596391,
        -0.39337129756154543,
        -0.2542766460092663,
        0.3123948181814216,
        0.057865399180371146,
        -0.3995367850864118,
        0.4304823375524715,
        0.018860872672831146,
        0.4746544346323985,
        0.32351000567995036,
        0.7794691494111949,
        0.5467681695899403,
        -0.018866877696411915,
        0.2780934858446065,
        -0.4710202873376322,
        -0.0772265208369739,
        0.13567020220484757,
        0.23831932256263924,
        -0.17300794301662956,
        -0.02287588391375139,
        0.10863221774181549,
        -0.13962347748944814,
        -0.024009746185591808,
        -0.19252339541260824,
        0.03624807785269294,
        -0.14855319535915254,
        0.15889872701072114,
        -0.02658253956885919,
        0.2066270832247987,
        0.9309912384581133,
        -0.223769752810494,
        -0.0881484855124711,
        -0.40619505287813107,
        0.08792396940188581,
        0.040488481278290946,
        0.0765549861172597,
        0.016859181679666824,
        -0.14453889328588404,
        0.03545386860159956,
        -0.06286573880453346,
        0.3335949518611945,
        -0.033563448337900016,
        0.409512065190817,
        -0.09913617750492844,
        0.2167899517067181,
        -0.03965792100464037,
        -0.2142756774719819,
        0.2584260306353059,
        -0.08488149766691096,
        -0.00030662385168220903,
        -0.4303625802909339,
        -0.42986003136072626,
        -0.24518319218809081,
        0.5911471648345523,
        -0.2759872058499271,
        0.49617994922679487,
        -0.2463500153301309,
        0.4138562457583361,
        -0.2936190424181269,
        0.5314148316467595,
        0.016941610008103937,
        0.19592601145217348,
        0.17624408624847235,
        -0.5472542845346552,
        0.08469337373843171,
        -0.23547341931840732,
        -0.5390496936639867,
        0.4839589045100082,
        0.15224430438082145,
        0.2827119947175638,
        -0.0592999274146803,
        0.08120906865543542,
        0.08198286883827016,
        0.11224181375651353,
        0.018615450233013288,
        0.38300201099027736,
        0.20748069953046844,
        0.13700582923267962,
        0.02623394886364217,
        -0.06527213043731424,
        -0.1257432788253069,
        -0.05420291236338796,
        -0.14032407871666397,
        0.6581510276273206,
        -0.45503201888713496,
        0.12101449020810827,
        -0.05476283631994683,
        0.11172700951694842,
        0.17872130281909365,
        -0.1355860086722515,
        0.16198684220561818,
        0.10331471803746478,
        0.34025383487213223,
        0.09124103333040866,
        0.15099659707607516,
        -0.033765020295894274,
        -0.19507538186111154,
        0.26563537322143443,
        -0.06682995327486764,
        -0.04631340991135368,
        0.2871993971565854,
        -0.6385902949209766,
        0.40240923731349226,
        -0.14700826936485153,
        0.0527191362054456,
        -0.5108735761771263,
        0.5618403434988003,
        0.31131254898444644,
        0.3829015326807946,
        -0.47830021791049676,
        -0.6215556248753185,
        0.34828405039170873,
        0.3972533465889703,
        0.442932794211286,
        0.13318587258622933,
        0.6962610215884029,
        0.3605580234498711,
        -1.0018199347162595,
        -0.20215682871757976,
        -0.09087358201051254,
        0.20542976849626932,
        0.2969826067978468,
        -0.024547205659019473,
        0.1989226598028689,
        0.17029224047447683,
        -0.06493140744184052,
        0.3574849652017627,
        0.2681771583545188,
        -0.06237545503724045,
        0.1259485060460399,
        0.22501524320762853,
        0.009723069524780734,
        -0.15902976112263814,
        0.34975691417875615,
        0.07708393314981966,
        -0.2324729271427468,
        -0.08040551103999541,
        -0.007337079982015724,
        0.05145036353347017,
        0.41926354610956634,
        -0.0628657078689924,
        -0.20824151555763298,
        -0.05921807169814727,
        0.023627135030402063,
        0.10272837943993629,
        0.22010120192267668,
        -0.02828268735763594,
        0.22648928083710965,
        0.27803971336501776,
        0.1140033314057398,
        -0.024458599218310874,
        0.11784793455472153,
        0.10197198027220956,
        0.21460057330796972,
        -0.4441260575952908,
        0.6858656784189917,
        0.1229525536036265,
        0.6276068666534358,
        0.48502728677638546,
        -0.21296698433548644,
        -0.018077853598666253,
        0.24035574653807174,
        0.5956088885840085,
        -0.13917532057311166,
        -0.05813599999186606,
        -0.619173385522694,
        -0.21533839322285547,
        -0.7528654853809605,
        0.22904312086370884,
        1.084880957690016,
        -0.9266366956367679,
        0.2661417840718835,
        0.2055672957477535,
        0.06962624691386736,
        0.11765843361702798,
        -0.12451954337627816,
        0.048733197926941356,
        0.277716674996842,
        0.18414383274005747,
        0.31115883025701974,
        0.1833490569553984,
        0.16771632549668597,
        -0.240142918225672,
        -0.08275312719310382,
        -0.08504588273470343,
        -0.23124224317971517,
        0.22000355727741955,
        0.08885250126628538,
        0.18628280490516955,
        -0.05516897466803889,
        -0.006107386952615311,
        -0.06528326778987203,
        -0.0723697389508417,
        0.06454681013500428,
        -0.14917615360510159,
        -0.16854485852453127,
        0.3098244805585522,
        0.14190601892343166,
        -0.023738900257339768,
        -0.0577811523571928,
        0.12046089376296332,
        0.4433635340914016,
        0.0247210413823526,
        -0.2341373845726629,
        0.1887001971041961,
        0.5104413135954513,
        0.25914152260438783,
        0.6652840256746432,
        -0.05714315151631322,
        -0.6495085610442226,
        -0.34674892816976594,
        0.4014496788358459,
        -0.06325848444029816,
        -0.5173376307010492,
        -0.43231813458990054,
        -0.25740416464497545,
        0.5750618205495066,
        -0.6791497714430025,
        -0.12446305231549727,
        0.6491629172268322,
        0.2642669644201972,
        -0.45203354282791297,
        -0.4698036890084046,
        0.2895473436321357,
        0.06355398056532705,
        0.1834097831467407,
        0.24060549483864233,
        -0.006959887558227093,
        0.2272764447821585,
        -0.17303219886820065,
        -0.038963313169415696,
        -0.04899510001039065,
        0.20101354438778346,
        -0.14951068287885383,
        -0.015572659909207679,
        -0.05893689722157723,
        0.1695375015566048,
        0.11144830135313126,
        0.0388085711594457,
        0.2827537091909503,
        0.008932421175787445,
        0.12506851461131668,
        -0.025679183981167045,
        0.1227347069857743,
        -0.10810348101189138,
        -0.1483111318698455,
        0.057220502739520784,
        -0.00563667241378842,
        -0.055943500628585684,
        -0.022574229737906536,
        -0.08751681836094406,
        0.0631998288105039,
        -0.009512353573981608,
        0.028179537312978262,
        -0.1655806358065107,
        -0.13631676934701342,
        -0.05617855251245361,
        1.0393581997071304,
        0.5984645321050005,
        -0.6319743725255119,
        0.4455702892144077,
        -0.3758203220731283,
        -0.7531441166128012,
        -0.6241562671769296,
        0.18185002611526507,
        0.4522485866055776,
        -0.7934022594516356,
        0.0404842523060866,
        -0.5304859375660255,
        -0.31881673569532587,
        -0.3277343971060687,
        0.4144973717746176,
        0.06442619195358075,
        0.5629859882796222,
        0.9362345911303149,
        -0.11590031918495354,
        0.020326031455365875,
        -0.05166321022995601,
        0.038332462668460444,
        0.27262678902756304,
        -0.14168359638995873,
        -0.210833029781328,
        -0.07316666285321119,
        -0.2804783533247502,
        0.05899111902053258,
        0.10685997501192253,
        0.31384751642633013,
        0.3081548720682085,
        0.4327635006026905,
        0.0565070360455931,
        0.04196659962257057,
        -0.3517962179258857,
        0.5822471156998936,
        0.23981429138786947,
        0.06277810671850863,
        0.12152186332952333,
        -0.028774872371366198,
        0.1405065997708529,
        -0.03432396282457667,
        0.2822744115959855,
        -0.30716068747544617,
        0.018607831780452434,
        0.22832865932440025,
        0.06483985505919111,
        0.14443072260272447,
        -0.1592828697103011,
        0.06520087282773648,
        -0.08424240486747109,
        -0.09998549274566289,
        -0.5299922720679727,
        0.3444861441087386,
        -0.9328736301102187,
        0.3635256920388541,
        0.2960989172397813,
        -0.7631032676284745,
        -0.5971350461603743,
        0.48366628776557274,
        0.410503914305296,
        -0.855477881515459,
        0.10662947040143357,
        -0.07829714277922618,
        -0.24030262385964415,
        0.2073140572690534,
        -0.21826769809738233,
        0.27407883051999005,
        0.42784825714641694,
        -0.04098787237555087,
        0.25508807607019623,
        -0.22443972455877859,
        0.00015003500389298752,
        0.14426472477837093,
        0.23979436603039508,
        -0.08423879529117169,
        0.048280502924914065,
        0.10474208234482481,
        0.17002111344099777,
        -0.1222313665486301,
        0.1159843343638339,
        0.3397650974483671,
        0.2608094318802489,
        -0.3662453373715021,
        0.07677814655140651,
        -0.15002876699551448,
        -0.15237739781493065,
        0.30010157788460184,
        0.15775245606924237,
        0.04104725565404104,
        0.26028699323372306,
        -0.09403118123811707,
        0.3694171356275831,
        0.29780436412331845,
        0.06076942104203473,
        -0.10199590091535296,
        0.15889814033556734,
        0.19673687178538243,
        -0.014781633268496287,
        -0.15560730933597408,
        0.26684773089029945,
        0.22251870947441743,
        0.033596987313898465,
        0.2818117178674796,
        0.23764838043354958,
        0.5980384280954151,
        0.3850258953535176,
        0.4899865579994314,
        0.4601473520956989,
        0.36221560721928303,
        -0.6816393791830186,
        -0.23636248030385912,
        -0.12572147200597716,
        -0.44903899749817655,
        -0.15213126589254827,
        -0.3128467735968533,
        0.5177887740952594,
        -0.19232451382005628,
        -0.23814109789124627,
        0.31562240306195116,
        -0.5379581845029024,
        -1.2666569123902984,
        0.011437229780192947,
        0.013046995186881254,
        0.17563220676735902,
        0.3363423095196413,
        -0.11621896777012185,
        -0.07446921975504157,
        0.08457486683261248,
        0.20378610824207666,
        -0.07505775024245487,
        0.29560225701466686,
        0.19494387581654918,
        0.00924369944171548,
        0.10021974671606527,
        0.009114106121594008,
        0.03485118642100935,
        0.5649981976330978,
        -0.4313159551710799,
        0.31978676373542203,
        -0.09343155650563713,
        -0.13804921278963933,
        -0.2862419186897722,
        0.0409499367158559,
        0.16784880297110416,
        -0.23858016248947794,
        -0.08762131917332253,
        0.049506757434615044,
        0.20755683028252253,
        -0.1922695887365824,
        0.07651320726757914,
        0.1299606397834679,
        0.10501548013752851,
        0.1743666668267152,
        -0.047382670382392446,
        0.26760382646226216,
        -0.3712004893763637,
        0.6244521752877575,
        -0.4128922616011647,
        -0.3081505528424752,
        0.23073885509712455,
        -0.33707438549370194,
        0.29940078808792175,
        -0.7400791392187466,
        0.299911501132361,
        -0.5668959489974524,
        0.27786139648830877,
        0.38330334667576565,
        -0.3395932771973624,
        0.36255129573034917,
        0.21598079098515413,
        0.13409911080526518,
        -0.20208086183163748,
        0.46776121087960976,
        0.08772993775124566,
        -0.00445586031902276,
        -0.1343205393712901,
        -0.22553178433537532,
        0.12031584676700648,
        0.06944304250719316,
        -0.19423257600608196,
        -0.05261059760790462,
        -0.18580494855993107,
        -0.021487483337310695,
        -0.20830724438479986,
        -0.07990261423753439,
        -0.040860423141873006,
        0.08796758127622073,
        0.1328780327652582,
        0.11766144922113615,
        1.0531122657327392,
        -0.19412934386117392,
        0.26048123738721374,
        0.11533212826474684,
        -0.04451591882771099,
        0.33423923557437385,
        0.018397192483252348,
        0.027148505930667508,
        0.01240297359591098,
        -0.21076972734502603,
        -0.2726979266356356,
        0.017369774934774825,
        -0.09660725229497445,
        -0.08632694887062053,
        -0.06315843989773905,
        0.226910565029034,
        0.12959529837175307,
        0.01877760215640602,
        -0.7549323698279751,
        0.18864572090379622,
        -0.5486194351349865,
        0.4750351678300184,
        0.4258259010721528,
        0.33238254669824924,
        0.4238053571330309,
        0.09460076094536954,
        -0.27238056419844897,
        -0.20412405439766268,
        0.5540362586023269,
        0.23251164560107687,
        0.5167596908707706,
        -0.509126968511189,
        -0.2623556501888171,
        0.3408683544950973,
        -0.9807653936464445,
        -0.602953233997385,
        0.33780185350274133,
        0.11193917053683122,
        0.19290470514781174,
        0.2424224546564772,
        -0.06485685413879352,
        -0.015163478627683755,
        0.2667204789601473,
        0.11402041882428689,
        0.15505157445586012,
        0.24025316958004334,
        -0.12818779376699588,
        0.19356558715121217,
        0.074324838353187,
        -0.32168623652767525,
        -0.06372462150141124,
        0.1195506448413331,
        -0.023848072146294603,
        0.3139900275466079,
        0.1369262619471852,
        0.3097466333606033,
        0.3211758339639889,
        -0.069316275340864,
        0.046904752834653264,
        0.0173031534001954,
        0.02797603651732335,
        0.279394597296811,
        0.06897456125286403,
        -0.12450641152648924,
        -0.13138262334786155,
        -0.12634689034797955,
        0.22096631398109828,
        -0.12918629006266596,
        -0.16944531773811,
        0.08003131399719068,
        -0.2655318039179881,
        -0.5847041659418589,
        -0.668869549712746,
        0.028996034814081965,
        -0.46056972732013995,
        -0.9239471019043713,
        -0.5615089670122078,
        0.6348662518304252,
        0.15018286179893373,
        0.1577023284019746,
        0.465033615899463,
        -0.4874212863566906,
        -0.44655031385783084,
        -0.1548801773082494,
        0.40044100802360233,
        0.12905206744721634,
        0.47136289860456854,
        0.6352585293270061,
        -0.16308144824394044,
        -0.20494701020578587,
        -0.10232194406224457,
        0.042856484128839425,
        0.2147358376046526,
        -0.02764367787102218,
        0.05885947005613723,
        0.15553297569737823,
        -0.2782481344363699,
        0.13489427544347443,
        -0.08330160385541024,
        0.21034139934991394,
        0.03368926089443138,
        0.25737127559116785,
        0.13080443795964194,
        -0.32490944037284786,
        -0.5204808352976426,
        0.37530054520384404,
        0.14398954941857722,
        -0.05819229634796322,
        0.15200629062147494,
        -0.15328220135367449,
        0.27373410095081085,
        0.22407612127207793,
        0.10199723492157924,
        0.06463234493795571,
        0.06239021174987755,
        0.15892702166313788,
        -0.036169571510500605,
        -0.05977546035696117,
        -0.08454085275007554,
        -0.050962214080372825,
        0.11288477237287413,
        -0.03345672624833068,
        0.05034690054601046,
        0.5947276988783136,
        -0.3009425267125621,
        0.7840663704206158,
        0.03772803704221101,
        -0.5007336280118132,
        -0.18174443335084833,
        -0.20055610741041255,
        -0.31414953023459985,
        0.1021034003188478,
        -0.1273849494129285,
        -0.5602421497633011,
        0.40307298286358717,
        0.7651714494155537,
        0.4287946390578602,
        0.022648125510823607,
        1.0794873001093253,
        -0.03411420632611222,
        0.1575165919828872,
        0.0236916274701764,
        0.27816250235598466,
        -0.07670950962975345,
        -0.04416322056308335,
        0.013450258970237104,
        0.09785414064237863,
        -0.14205432708585328,
        -0.17668071087334333,
        -0.13996663425170006,
        -0.08346098598929409,
        0.004580122305661451,
        -0.048864910864322625,
        0.44935533120168525,
        0.4455659296700212,
        -0.0367439117112461,
        0.2671242262500612,
        1.0288624920766207,
        0.2626356181027455,
        0.053812903217236696,
        0.0020268293407816303,
        0.21564411586164364,
        0.12502776563841048,
        0.018584766426671822,
        0.09234609952515921,
        0.18901272656133247,
        -0.27089957336314247,
        0.47379258352825876,
        0.19745432540314953,
        0.12906970587981384,
        0.04363494699606681,
        -0.010662388634723626,
        0.3034975627670308,
        -0.07059853410493425,
        0.554692921910529,
        -0.5796304378768535,
        0.654982125296884,
        -0.33805043064639606,
        0.1830094901062903,
        -0.11831629775765454,
        0.3613843160737715,
        -0.3563253918884553,
        -0.5299692855673396,
        -0.28001573597023377,
        0.3840822812985995,
        0.6979990539225159,
        0.4091984155703929,
        -0.03578788277716047,
        0.49728668516701113,
        0.02831110640321306,
        -0.9895024321100788,
        -0.05844528819870477,
        0.08580894368503615,
        -0.021425612362530266,
        0.23067517133128274,
        0.12745014306914232,
        0.013540872199554401,
        0.11339557386946307,
        -0.1479385702691097,
        0.1997765841005599,
        0.0284555147613454,
        0.3415608991566528,
        -0.19086652098568604,
        0.01590976145560113,
        0.0774381724409945,
        0.3961905656996207,
        0.1528080586703721,
        -0.1272198381688247,
        0.45302397617389195,
        -0.3353688854293194,
        0.10016389203161259,
        0.22972286033407507,
        0.045313476915549024,
        0.22317357687017358,
        -0.22620434576202414,
        0.08508211580646975,
        0.09509292130058399,
        0.30150071173148696,
        0.10550269096296551,
        0.31542683042121156,
        0.010666813618638518,
        0.08933795124927074,
        -0.11219705651208005,
        -0.0014610342018289149,
        0.12683496273520067,
        -0.15495902864918776,
        0.22331300213908814,
        -0.5143953431866912,
        0.13556065751143415,
        0.5684527517305641,
        0.594606164125501,
        -0.42716820101145564,
        0.5264365681369632,
        -0.006917787122758104,
        0.4425116043511955,
        0.43446896662029755,
        -0.25604605093623134,
        -0.7116019782789942,
        -0.40574347436851665,
        -0.8033682438485478,
        -0.6867464228551675,
        0.2419458448367897,
        0.889655303486097,
        -0.8126677577107185,
        0.12176058939594629,
        0.02895600564097156,
        0.15962819031820868,
        0.19124861736882365,
        -0.02584919618937987,
        0.03169187562448535,
        0.06845918998530968,
        0.09038239642287912,
        0.11552472309192782,
        0.09320484909533959,
        0.135768121125212,
        -0.01461734000848619,
        0.07332829556410918,
        -0.07153807892288377,
        -0.2309621314194686,
        -0.10702994037899724,
        0.1312973749465096,
        0.22053165143417916,
        -0.019180547385593626,
        0.13959557877417572,
        -0.003240361687846165,
        -0.21557155668653508,
        0.28112925444707426,
        0.15394297293526166,
        -0.16135632130661068,
        0.026650100604309127,
        0.2625907700404028,
        0.11567513787308593,
        -0.27626020868897416,
        0.033458651517138144,
        0.23712783283057745,
        -0.11272289307941541,
        0.0850772983972061,
        0.17470479648960474,
        -0.03286919772170559,
        -0.3469308839776399,
        0.49534250799035334,
        -0.41989815336462505,
        0.45929076402019375,
        -0.018637254897154017,
        -0.3542971461277652,
        -0.1278489703254632,
        -0.03500475328674428,
        -0.14165360986526104,
        0.5880824154781035,
        0.041172802042824065,
        -0.5822949964639487,
        0.30189445333757753,
        -0.8042277650669388,
        0.014399824447177991,
        -0.18688843236778396,
        0.3946151372076321,
        0.13142903754040217,
        0.31034666100482067,
        0.09896749392875501,
        0.21752778346026883,
        0.006571059569509202,
        -0.10641090253197949,
        0.05655609931876469,
        0.09167180207323485,
        0.2708147043709956,
        -0.006239999011672073,
        0.18121657254116397,
        0.20167262949127715,
        -0.058254393152402294,
        0.11957668439784296,
        -0.6120961144418434,
        0.2832545170811216,
        0.17823123995619747,
        -0.39738982520912897,
        0.016735248990305058,
        0.2751615220771314,
        0.04247652489889307,
        0.1062261069900452,
        -0.06752692982436298,
        0.3243194101179118,
        -0.09535077276040108,
        0.19283962595822693,
        0.1469414295961388,
        0.0886407584252579,
        -0.10667425865930835,
        0.023744838407137016,
        0.07588865922237731,
        0.26505625354088014,
        0.10070434340772069,
        0.07344216948584847,
        0.577602429540547,
        -0.506292392669677,
        0.6398681535763774,
        -0.37469777078341204,
        0.03285414302056834,
        -0.25780523123079674,
        0.518536290858727,
        0.5164271106507443,
        0.22906385062582263,
        -0.635938579515342,
        -0.2098645193265316,
        0.4989302598506569,
        -0.3222837470445177,
        -0.5210777235892441,
        -0.05591456431342252,
        0.0343544233685171,
        0.6063655371418349,
        -0.03434996520308068,
        0.24715327349895966,
        0.06398691009839647,
        0.10142305111943732,
        0.04120480339071871,
        0.012978759918055272,
        0.2735667017340106,
        0.024371054370227106,
        0.057875273393395,
        0.11477711141029633,
        0.28791079497143074,
        -0.1949110188673741,
        0.1898730627542555,
        0.26703476197255127,
        0.036647421427716646,
        -0.49120118334096236,
        -0.22180363057352906,
        0.16606139179502058,
        -0.7430983755784459,
        -0.09083737382471029,
        0.3402073422032267,
        -0.034062050535397834,
        -0.09605457338338558,
        0.21454095592505812,
        0.23892617352878823,
        -0.20120593842189255,
        0.06554029761034329,
        0.2872848998739387,
        -0.030827982508715615,
        0.04916079534188397,
        0.1004479362119079,
        0.1861353313975997,
        0.13032145715616375,
        0.11080435355409608,
        0.2495932816441457,
        -0.627656498090426,
        -0.4741576390601833,
        0.5762127934287202,
        0.4009568931696287,
        -0.5699782150914143,
        0.18904361682589021,
        0.342241789041661,
        0.24365602419137683,
        0.13181000327257825,
        0.5722104240185847,
        -0.2789512879790659,
        -0.4159960848981675,
        -0.43977813007084215,
        -0.6011545836007833,
        0.19956559268308505,
        0.18806100263572634,
        -0.8471832816609087,
        -0.865172443499308,
        0.2104771596235927,
        -0.00413458465149514,
        -0.0007765414063991183,
        0.2975014455489652,
        0.2073642550007055,
        0.14089074003134514,
        0.2932549756311692,
        0.0438683533644197,
        0.11716629575265435,
        0.04009563699659021,
        -0.02666696052282963,
        0.06896886929824793,
        0.02059635292515134,
        -0.12571993758664868,
        0.3027004398709218,
        0.38813029570659835,
        -0.6991154393136016,
        0.14018986174629913,
        -0.04585049550901393,
        -0.056137669506153454,
        -0.10251868317259961,
        -0.046469637259637826,
        0.1605125124412363,
        -0.25558048263291056,
        0.1829970227445263,
        -0.07933016489691139,
        0.26604101693920384,
        0.047363009744576544,
        -0.002737387278355979,
        0.004062216533164598,
        -0.05426378989187304,
        0.06263895063906796,
        -0.08737424942055955,
        0.2551825769610177,
        -0.47427643291205474,
        -0.4750355138029385,
        -0.8676877120120878,
        0.27425173516359075,
        -0.06795443597429877,
        -0.6292114241983227,
        0.0018477360478648727,
        0.643179380312618,
        -0.5693605564150703,
        -0.17990532108306254,
        0.3969654612239187,
        -0.3982162266333741,
        -0.4387464646996063,
        -0.26063969406141885,
        0.37297602587548845,
        0.014042282388857774,
        0.29617646616046195,
        1.0003704511942917,
        -0.06678718798923779,
        0.13184779823737644,
        -0.164765657814343,
        0.032490334907559607,
        -0.013645732541939562,
        0.06062292660534804,
        0.12883551503184903,
        0.025227245778965072,
        0.06479444231183515,
        -0.05818272045629413,
        0.1048042729960715,
        0.25888508098315804,
        0.1610936559185003,
        0.17500958308371004,
        0.0787859322841668,
        -0.14589820838758574,
        -0.5487021789541251,
        0.5326570818206712,
        0.08107960321160135,
        0.292598924915497,
        0.31575077104853805,
        0.0362199583813281,
        0.09517877684245907,
        0.2701267945687066,
        -0.14307005198567457,
        0.10000217317205255,
        0.23575405055218107,
        0.07994455039434199,
        -0.17379293069359944,
        0.13650056330257887,
        -0.15681055378261982,
        0.13526176005715568,
        -0.06692799643036033,
        -0.06818727177336069,
        -0.5509211400261421,
        -0.42696639149313026,
        0.09947016874461422,
        -0.399452362215498,
        -0.4554039605253907,
        -0.47864904470406056,
        -0.0995336235796006,
        0.21798875001414383,
        0.10240279010622641,
        0.5586340079573934,
        0.16090636097288133,
        0.29812314920703903,
        0.5173963701146813,
        0.2937313757235791,
        -0.4594913120255993,
        -0.18756973019785572,
        0.8464218748808221,
        0.2831141103313928,
        0.3474084053404091,
        0.014972909068877998,
        0.2758450845330412,
        -0.003569224966306761,
        -0.14072176953499327,
        -0.03673853142971444,
        -0.08900235273099281,
        0.14435933691423128,
        0.12632913940783977,
        0.09424233961367498,
        0.012582902553597602,
        0.26091486105750444,
        -0.010625519237775716,
        0.030689123066929745,
        -0.34220095830711456,
        -0.07635593963071412,
        -0.05747971841195986,
        -0.3923305197797928,
        0.10485014883641386,
        0.06555980337307848,
        0.24159700293210318,
        -0.024609766519708715,
        0.012759366800620762,
        0.21428850008331973,
        0.0688092037284203,
        0.37087598429297014,
        0.24800298241939614,
        0.11386523217118447,
        -0.015076096246625188,
        -0.13573811796872126,
        -0.01870483767766605,
        0.2058845080055278,
        0.052469340609526925,
        0.1634018108597466,
        0.12904190710359265,
        0.5984334449027509,
        -0.4422552571918938,
        0.4755633489178102,
        0.40223089719356847,
        -0.03361610780124893,
        0.13933979244777903,
        -0.10022818595147225,
        0.5316125587347762,
        -0.6849481739056742,
        -0.3164133738681538,
        0.19435741306735432,
        0.46770479185067987,
        -0.03190818244939613,
        -0.8346015804386337,
        0.28251419488190865,
        0.8758720139474235,
        -0.8930302365876671,
        0.273275646532931,
        0.05590948104769417,
        0.21396028837184272,
        0.16166280670291472,
        0.24044710977860004,
        -0.12956167953702763,
        0.21845694735347834,
        -0.09834066122087391,
        0.07325682519341377,
        0.11263247775770013,
        0.11117636920948028,
        -0.1011604308927336,
        -0.1125593972717591,
        -0.18389496610429856,
        -0.3004934930371411,
        -0.03218130116209536,
        0.37485991691391435,
        0.5239962572498817,
        -0.10662698460529162,
        -0.10683400284514633,
        -0.21551925218913648,
        0.15622748499156383,
        0.1276411752110222,
        0.1393173510444599,
        -0.024611269150569836,
        0.021583874904082413,
        0.09131870568221137,
        0.24975891124272473,
        -0.19895855878718696,
        -0.08051215638015183,
        0.2302115878730801,
        0.0771944797490796,
        -0.10720209980370614,
        0.14137248974865393,
        -0.45950351691989555,
        0.43678112640176847,
        -0.7291290690583851,
        -0.4957478322418833,
        -0.3023762969683131,
        0.47462055518312146,
        -0.5080522338258295,
        -0.5308786204297172,
        -0.09744277244367049,
        0.5470728509500613,
        0.3826023514064611,
        0.10060152795732596,
        0.413495683038535,
        0.7106006707583634,
        -0.0720347232125873,
        -0.09288429416016741,
        -0.8192154490523604,
        0.24770886683414478,
        0.060582950264475806,
        0.22431920527191157,
        -0.16544356890150344,
        -0.19387501138815413,
        0.014651037709348653,
        -0.005697543559437052,
        -0.005053096647503593,
        0.27953862751200825,
        0.2303801363650431,
        -0.0945197519067574,
        0.04499160779941449,
        0.017220787990684525,
        -0.07433126863289001,
        0.09566291076208425,
        0.5843793656715438,
        0.2473775793656679,
        -0.04472484061936377,
        -0.26527974585690556,
        0.23128382707624837,
        -0.27733781699684545,
        0.02740018475306387,
        0.3462656077038422,
        -0.029587870868397512,
        0.11830895342881492,
        0.2953759122786711,
        0.12926656563306982,
        0.09226708035055799,
